<?xml version="1.0"?>
<MethodSetup Method="MLP::MLPBNN">
  <GeneralInfo>
    <Info name="TMVA Release" value="4.2.1 [262657]"/>
    <Info name="ROOT Release" value="6.05/02 [394498]"/>
    <Info name="Creator" value="karavdia"/>
    <Info name="Date" value="Wed Apr 20 16:25:48 2016"/>
    <Info name="Host" value="Linux lcgapp-slc6-x86-64-21.cern.ch 2.6.32-504.23.4.el6.x86_64 #1 SMP Wed Jun 10 07:47:59 CEST 2015 x86_64 x86_64 x86_64 GNU/Linux"/>
    <Info name="Dir" value="/afs/desy.de/user/k/karavdia/xxl/af-cms/HomemadeTTbarMVA"/>
    <Info name="Training events" value="16416"/>
    <Info name="TrainingTime" value="5.37687900e+01"/>
    <Info name="AnalysisType" value="Classification"/>
  </GeneralInfo>
  <Options>
    <Option name="NCycles" modified="Yes">2000</Option>
    <Option name="HiddenLayers" modified="Yes">N+10</Option>
    <Option name="NeuronType" modified="Yes">tanh</Option>
    <Option name="RandomSeed" modified="No">1</Option>
    <Option name="EstimatorType" modified="No">CE</Option>
    <Option name="NeuronInputType" modified="No">sum</Option>
    <Option name="V" modified="Yes">False</Option>
    <Option name="VerbosityLevel" modified="No">Default</Option>
    <Option name="VarTransform" modified="Yes">N</Option>
    <Option name="H" modified="Yes">True</Option>
    <Option name="CreateMVAPdfs" modified="No">False</Option>
    <Option name="IgnoreNegWeightsInTraining" modified="No">False</Option>
    <Option name="TrainingMethod" modified="Yes">BP</Option>
    <Option name="LearningRate" modified="Yes">1.000000e-02</Option>
    <Option name="DecayRate" modified="No">1.000000e-02</Option>
    <Option name="TestRate" modified="Yes">5</Option>
    <Option name="EpochMonitoring" modified="No">False</Option>
    <Option name="Sampling" modified="Yes">2.000000e-01</Option>
    <Option name="SamplingEpoch" modified="No">1.000000e+00</Option>
    <Option name="SamplingImportance" modified="Yes">1.000000e+00</Option>
    <Option name="SamplingTraining" modified="No">True</Option>
    <Option name="SamplingTesting" modified="No">False</Option>
    <Option name="ResetStep" modified="No">50</Option>
    <Option name="Tau" modified="No">3.000000e+00</Option>
    <Option name="BPMode" modified="No">sequential</Option>
    <Option name="BatchSize" modified="No">-1</Option>
    <Option name="ConvergenceImprove" modified="Yes">5.000000e-03</Option>
    <Option name="ConvergenceTests" modified="Yes">10</Option>
    <Option name="UseRegulator" modified="Yes">True</Option>
    <Option name="UpdateLimit" modified="No">10000</Option>
    <Option name="CalculateErrors" modified="No">False</Option>
    <Option name="WeightRange" modified="No">1.000000e+00</Option>
  </Options>
  <Variables NVar="12">
    <Variable VarIndex="0" Expression="fabs(lep_eta)" Label="fabs(lep_eta)" Title="|lepton #eta|" Unit="" Internal="fabs_lep_eta_" Type="F" Min="4.09667336e-05" Max="2.53311801e+00"/>
    <Variable VarIndex="1" Expression="log(lep_pt/Mttbar)" Label="log(lep_pt/Mttbar)" Title="log(lepton p_T/M_{tt})" Unit="" Internal="log_lep_pt_D_Mttbar_" Type="F" Min="-4.43530273e+00" Max="9.37553883e-01"/>
    <Variable VarIndex="2" Expression="log(lep_eta_err)" Label="log(lep_eta_err)" Title="log(#sigma (lepton #eta))" Unit="" Internal="log_lep_eta_err_" Type="F" Min="-1.00313568e+01" Max="-3.05209136e+00"/>
    <Variable VarIndex="3" Expression="log(lep_pt_err)" Label="log(lep_pt_err)" Title="log(#sigma (lepton p_T))" Unit="" Internal="log_lep_pt_err_" Type="F" Min="-2.51757169e+00" Max="6.90702248e+00"/>
    <Variable VarIndex="4" Expression="fabs(ljet_eta)" Label="fabs(ljet_eta)" Title="|jet1 #eta|" Unit="" Internal="fabs_ljet_eta_" Type="F" Min="3.94578965e-05" Max="2.39986253e+00"/>
    <Variable VarIndex="5" Expression="log(ljet_pt/Mttbar)" Label="log(ljet_pt/Mttbar)" Title="log(jet1 p_T/M_{tt})" Unit="" Internal="log_ljet_pt_D_Mttbar_" Type="F" Min="-3.45848751e+00" Max="1.91213953e+00"/>
    <Variable VarIndex="6" Expression="fabs(fjet2_eta)" Label="fabs(fjet2_eta)" Title="|jet2 #eta|" Unit="" Internal="fabs_fjet2_eta_" Type="F" Min="3.76058074e-06" Max="2.39990091e+00"/>
    <Variable VarIndex="7" Expression="fabs(fjet3_eta)" Label="fabs(fjet3_eta)" Title="|jet3 #eta|" Unit="" Internal="fabs_fjet3_eta_" Type="F" Min="0.00000000e+00" Max="2.39999580e+00"/>
    <Variable VarIndex="8" Expression="lep_class" Label="lep_class" Title="lep class" Unit="" Internal="lep_class" Type="F" Min="0.00000000e+00" Max="4.00000000e+00"/>
    <Variable VarIndex="9" Expression="lep_fbrem" Label="lep_fbrem" Title="lep fbrem" Unit="" Internal="lep_fbrem" Type="F" Min="-1.99522659e-01" Max="9.97587562e-01"/>
    <Variable VarIndex="10" Expression="log(fabs((dR_cljet_ljet-3.14)/3.14))" Label="log(fabs((dR_cljet_ljet-3.14)/3.14))" Title="log(|#Delta R(close jet, lead jet)-#pi|/#pi)" Unit="" Internal="log_fabs__dR_cljet_ljet_M_3.14__D_3.14__" Type="F" Min="-1.45124702e+01" Max="-8.26617554e-02"/>
    <Variable VarIndex="11" Expression="log(dR_lep_cljet)" Label="log(dR_lep_cljet)" Title="log(#Delta R(lep, close jet))" Unit="" Internal="log_dR_lep_cljet_" Type="F" Min="-7.60339975e+00" Max="1.66588581e+00"/>
  </Variables>
  <Spectators NSpec="0"/>
  <Classes NClass="2">
    <Class Name="Signal" Index="0"/>
    <Class Name="Background" Index="1"/>
  </Classes>
  <Transformations NTransformations="1">
    <Transform Name="Normalize">
      <Selection>
        <Input NInputs="12">
          <Input Type="Variable" Label="fabs(lep_eta)" Expression="fabs(lep_eta)"/>
          <Input Type="Variable" Label="log(lep_pt/Mttbar)" Expression="log(lep_pt/Mttbar)"/>
          <Input Type="Variable" Label="log(lep_eta_err)" Expression="log(lep_eta_err)"/>
          <Input Type="Variable" Label="log(lep_pt_err)" Expression="log(lep_pt_err)"/>
          <Input Type="Variable" Label="fabs(ljet_eta)" Expression="fabs(ljet_eta)"/>
          <Input Type="Variable" Label="log(ljet_pt/Mttbar)" Expression="log(ljet_pt/Mttbar)"/>
          <Input Type="Variable" Label="fabs(fjet2_eta)" Expression="fabs(fjet2_eta)"/>
          <Input Type="Variable" Label="fabs(fjet3_eta)" Expression="fabs(fjet3_eta)"/>
          <Input Type="Variable" Label="lep_class" Expression="lep_class"/>
          <Input Type="Variable" Label="lep_fbrem" Expression="lep_fbrem"/>
          <Input Type="Variable" Label="log(fabs((dR_cljet_ljet-3.14)/3.14))" Expression="log(fabs((dR_cljet_ljet-3.14)/3.14))"/>
          <Input Type="Variable" Label="log(dR_lep_cljet)" Expression="log(dR_lep_cljet)"/>
        </Input>
        <Output NOutputs="12">
          <Output Type="Variable" Label="fabs(lep_eta)" Expression="fabs(lep_eta)"/>
          <Output Type="Variable" Label="log(lep_pt/Mttbar)" Expression="log(lep_pt/Mttbar)"/>
          <Output Type="Variable" Label="log(lep_eta_err)" Expression="log(lep_eta_err)"/>
          <Output Type="Variable" Label="log(lep_pt_err)" Expression="log(lep_pt_err)"/>
          <Output Type="Variable" Label="fabs(ljet_eta)" Expression="fabs(ljet_eta)"/>
          <Output Type="Variable" Label="log(ljet_pt/Mttbar)" Expression="log(ljet_pt/Mttbar)"/>
          <Output Type="Variable" Label="fabs(fjet2_eta)" Expression="fabs(fjet2_eta)"/>
          <Output Type="Variable" Label="fabs(fjet3_eta)" Expression="fabs(fjet3_eta)"/>
          <Output Type="Variable" Label="lep_class" Expression="lep_class"/>
          <Output Type="Variable" Label="lep_fbrem" Expression="lep_fbrem"/>
          <Output Type="Variable" Label="log(fabs((dR_cljet_ljet-3.14)/3.14))" Expression="log(fabs((dR_cljet_ljet-3.14)/3.14))"/>
          <Output Type="Variable" Label="log(dR_lep_cljet)" Expression="log(dR_lep_cljet)"/>
        </Output>
      </Selection>
      <Class ClassIndex="0">
        <Ranges>
          <Range Index="0" Min="4.0966733649838716e-05" Max="2.5331180095672607e+00"/>
          <Range Index="1" Min="-4.4353027343750000e+00" Max="9.3755388259887695e-01"/>
          <Range Index="2" Min="-9.5498018264770508e+00" Max="-4.2592754364013672e+00"/>
          <Range Index="3" Min="-2.2780323028564453e+00" Max="6.9036211967468262e+00"/>
          <Range Index="4" Min="3.9457896491512656e-05" Max="2.3998625278472900e+00"/>
          <Range Index="5" Min="-3.4584875106811523e+00" Max="1.9121395349502563e+00"/>
          <Range Index="6" Min="3.7605807392537827e-06" Max="2.3993573188781738e+00"/>
          <Range Index="7" Min="0.0000000000000000e+00" Max="2.3997709751129150e+00"/>
          <Range Index="8" Min="0.0000000000000000e+00" Max="4.0000000000000000e+00"/>
          <Range Index="9" Min="-1.9952265918254852e-01" Max="9.9758756160736084e-01"/>
          <Range Index="10" Min="-1.4512470245361328e+01" Max="-8.2661755383014679e-02"/>
          <Range Index="11" Min="-6.5071578025817871e+00" Max="1.6658858060836792e+00"/>
        </Ranges>
      </Class>
      <Class ClassIndex="1">
        <Ranges>
          <Range Index="0" Min="6.5590575104579329e-04" Max="2.5249009132385254e+00"/>
          <Range Index="1" Min="-4.0190300941467285e+00" Max="6.1539554595947266e-01"/>
          <Range Index="2" Min="-1.0031356811523438e+01" Max="-3.0520913600921631e+00"/>
          <Range Index="3" Min="-2.5175716876983643e+00" Max="6.9070224761962891e+00"/>
          <Range Index="4" Min="7.3732255259528756e-05" Max="2.3990700244903564e+00"/>
          <Range Index="5" Min="-2.6185169219970703e+00" Max="1.0325745344161987e+00"/>
          <Range Index="6" Min="3.8398342439904809e-05" Max="2.3999009132385254e+00"/>
          <Range Index="7" Min="2.0471767129492946e-05" Max="2.3999958038330078e+00"/>
          <Range Index="8" Min="0.0000000000000000e+00" Max="4.0000000000000000e+00"/>
          <Range Index="9" Min="-1.9538347423076630e-01" Max="9.9633765220642090e-01"/>
          <Range Index="10" Min="-1.3593743324279785e+01" Max="-1.3928943872451782e-01"/>
          <Range Index="11" Min="-7.6033997535705566e+00" Max="1.6340945959091187e+00"/>
        </Ranges>
      </Class>
      <Class ClassIndex="2">
        <Ranges>
          <Range Index="0" Min="4.0966733649838716e-05" Max="2.5331180095672607e+00"/>
          <Range Index="1" Min="-4.4353027343750000e+00" Max="9.3755388259887695e-01"/>
          <Range Index="2" Min="-1.0031356811523438e+01" Max="-3.0520913600921631e+00"/>
          <Range Index="3" Min="-2.5175716876983643e+00" Max="6.9070224761962891e+00"/>
          <Range Index="4" Min="3.9457896491512656e-05" Max="2.3998625278472900e+00"/>
          <Range Index="5" Min="-3.4584875106811523e+00" Max="1.9121395349502563e+00"/>
          <Range Index="6" Min="3.7605807392537827e-06" Max="2.3999009132385254e+00"/>
          <Range Index="7" Min="0.0000000000000000e+00" Max="2.3999958038330078e+00"/>
          <Range Index="8" Min="0.0000000000000000e+00" Max="4.0000000000000000e+00"/>
          <Range Index="9" Min="-1.9952265918254852e-01" Max="9.9758756160736084e-01"/>
          <Range Index="10" Min="-1.4512470245361328e+01" Max="-8.2661755383014679e-02"/>
          <Range Index="11" Min="-7.6033997535705566e+00" Max="1.6658858060836792e+00"/>
        </Ranges>
      </Class>
    </Transform>
  </Transformations>
  <MVAPdfs/>
  <Weights>
    <Layout NLayers="3">
      <Layer Index="0" NNeurons="13">
        <Neuron NSynapses="22">
          2.0783840144080240e-01 2.6830132079946005e+00 6.1862542951422483e-01 2.3432307832427766e+00 -1.6038514807333195e+00 -1.1160006997215981e+00 -2.1946772856200827e-01 1.8739701053996942e+00 -5.7705355999424945e-01 3.6288549206747872e-01 -1.2204644917055230e+00 -1.6444097919531706e-01 -1.8409442106555878e+00 7.0679979228655498e-01 -8.1483742010106594e-02 2.1636364246798703e+00 -3.6978114660984124e-01 1.7851796016966477e+00 -2.3026223072500943e-01 1.6797618320880416e+00 -1.9077672387384501e-01 2.0530831466378577e-01 
        </Neuron>
        <Neuron NSynapses="22">
          4.5963487298699468e-01 -6.1012828178523435e-03 -7.4756325246337152e-01 -4.2158037745321508e-01 1.7127884290029094e+00 -1.4112675901751912e+00 -1.0171087656533953e+00 1.0851239317967883e-01 -2.7383183361318921e+00 -8.9599240564637272e-01 -2.6679235245728045e-01 -3.0576355111982167e-01 1.2700141404899732e+00 1.7984278418307171e+00 -8.9960827840707225e-01 7.2342500239737384e-01 -2.7293370628290519e+00 1.3719966148646654e+00 1.5124706176129674e+00 4.5334132892618517e-01 1.4141404052451645e+00 1.7149773532459534e+00 
        </Neuron>
        <Neuron NSynapses="22">
          2.6829496558819561e-02 -1.1809052053098728e+00 3.7996503543927307e-01 -2.0653983193896203e-01 1.8044564978793129e+00 1.3425859678612966e+00 2.0200714813066569e+00 1.3970240697133038e+00 -2.8260861758171973e+00 -2.6159860201515467e-01 -2.2077745420808230e+00 -1.2169120786243723e+00 -2.5742624981720330e+00 -2.9274177556042075e-02 2.3718315137862156e+00 1.0202893807322706e+00 -8.9004525667106804e-01 1.0963845799082190e+00 -1.8819868701352387e+00 2.4311638344643614e+00 1.9404750597552929e+00 -1.4061950026859833e+00 
        </Neuron>
        <Neuron NSynapses="22">
          7.5156518563862174e-01 -6.3714049559957675e-01 1.3890148136158229e+00 -5.6136722826997387e-01 -1.1663814620499464e+00 -4.9833117204281940e-01 7.1421069693670325e-01 1.1964254214921484e+00 2.1108013913981223e+00 -7.2483938715583651e-01 -2.0710501613861680e+00 -1.7324147284024962e+00 7.0816642958566489e-01 -2.1226664498229469e-01 2.5103404421272635e+00 8.6276149419080195e-01 5.8933879987922966e+00 -3.4923007113312582e-01 2.3395823025126769e-01 8.0455278592995150e-01 1.7698477447066259e+00 -3.8479995314943500e+00 
        </Neuron>
        <Neuron NSynapses="22">
          -1.6378365039669329e-01 -1.0409483538901652e+00 4.4005802146538270e-01 -2.6573438063443705e-01 9.0340901657229444e-01 -1.8941868187999500e+00 1.7065340538708690e-01 1.4121333390757556e+00 -6.6094018556983714e-02 1.9152856340711780e-01 -8.5465624445688126e-01 3.9553902779190675e-01 1.0137784102855427e-01 1.2978411577730926e+00 4.8035820326320880e-02 1.9451682433081912e+00 2.8532855813057195e-01 1.2548915644373702e+00 1.2381366473711695e-01 -1.1399138391545633e+00 1.2950056482517214e-01 -3.5742856466081491e-01 
        </Neuron>
        <Neuron NSynapses="22">
          -1.5680965882152493e+00 2.0818534250180012e-01 2.8403610410370961e-01 3.4662318179131291e-01 -2.0189749927244809e+00 1.8727261794838301e+00 4.0831494344819846e-01 -9.7084726974585744e-01 3.6583466092811658e+00 -1.6763724184734288e-01 -1.3167358570691416e+00 -4.1944556102437559e-02 -9.7863819720068279e-01 6.4678901357243168e+00 4.7752154386587764e-01 -5.9463025036167749e-01 2.0351247927349103e+00 -2.1833676162534243e-02 -4.4365506547709135e+00 -5.9533306236713612e-01 -5.6000333740909813e-01 -1.7374762246373050e+00 
        </Neuron>
        <Neuron NSynapses="22">
          2.3691853386339418e-01 -6.3184702622140398e-01 -2.3086321018870742e-01 4.9527929503572532e-01 1.0665596923672569e+00 -1.4530822317776890e+00 2.8833082523827519e-01 1.5135552115726749e+00 -1.4235776337901029e-02 3.8421339693811632e-02 -1.6780514319886590e+00 -2.6088574365846821e-02 -1.3275088657666281e-01 1.0228469880076798e+00 -4.2397337462799417e-01 -6.9516849141312465e-01 -4.8849663604677213e-02 -2.9966220358412704e-01 8.2683226101047114e-02 -3.1203146792005826e-01 1.3012287190196927e-02 -3.3549227466718018e-01 
        </Neuron>
        <Neuron NSynapses="22">
          1.6365989514814791e-01 -8.2986731391374108e-02 9.4163618329792986e-01 4.1220180244754290e-01 2.5991082059242238e-01 -2.0068222789675159e+00 4.6390766544814593e-01 5.7771245846537056e-01 1.0476517442748919e-01 1.8695399973145671e-01 1.9727564746857507e-01 9.5478201912133090e-02 2.4757545827012731e-01 3.8517709218471313e-01 -2.6623621870506653e-01 -8.8358232856130337e-01 8.4434774970611901e-02 2.5309564028976844e-01 5.9141002094125851e-02 3.7654850367485682e-01 2.1766031945912143e-01 2.0555081687621643e-01 
        </Neuron>
        <Neuron NSynapses="22">
          -9.0777960038996131e-02 -3.6229440871413682e-01 2.9290311943191594e-01 -1.1486483139951231e+00 -4.0386597738461172e-01 1.0267216332080040e+00 1.8741032602192336e+00 -1.8407768705428071e+00 1.7163619226224314e-01 8.8224680012469858e-02 2.5839024956638174e-01 1.2245405012476580e+00 -1.5147279644569639e-01 1.4408867477265044e-03 -2.4780572443574178e-01 3.6336460164280815e-01 2.5441586298409302e-01 7.9392982407369284e-01 1.7116931414705097e-01 1.2940618936094547e-01 -3.7328274389200383e-01 2.4007069584600801e-01 
        </Neuron>
        <Neuron NSynapses="22">
          5.3896068423455901e-01 -8.6859585432480257e-01 -3.3179763978729304e-01 3.7801466491483006e-02 2.2016103531555312e-01 -1.7206827775177633e+00 2.3576556534162618e+00 7.5142472849849140e-01 -2.6682891918348428e-01 3.4760539651236183e-02 1.0890188579841376e+00 1.4158761249444398e+00 1.7876809312274294e-01 -9.0577987274267871e-02 -2.3305633836855169e+00 -7.4543224666679717e-02 9.9648935724552537e-02 1.5990527878667724e+00 -2.0394111701305528e-01 -1.3645030113099824e-01 1.5931244345942506e+00 -1.2698133603616173e+00 
        </Neuron>
        <Neuron NSynapses="22">
          -1.5024134894635430e+00 -6.7607954994694164e-01 -1.0881393556056382e+00 1.4184171878973866e+00 1.0983027200448099e+00 -3.7749774572596639e-01 -4.0431571492091828e-01 -2.0775041698636684e-01 7.3427967312493349e-03 1.2872328868625371e-01 8.2096490034021374e-01 2.7597138804078486e-01 8.0985694068279612e-01 -3.9111467563489077e-01 1.1703920661380576e+00 -8.3650205051240734e-01 7.2237155346387416e-01 5.4737742423584111e-02 -2.2864519297528849e+00 -4.6300254755089115e-01 -1.3334480818284926e+00 -1.2011516060149445e+00 
        </Neuron>
        <Neuron NSynapses="22">
          -3.7202240389719390e+00 -1.8755750852379918e+00 -2.1602502345654484e+00 -3.7388831179935955e-01 -1.4175821312102117e+00 -1.4143989152856351e+00 1.4154269239364032e+00 -8.1230269715478010e-01 -1.3491382857319296e+00 -8.6801750985606940e+00 -7.1771268746799044e-01 1.8504789058944116e+00 2.7952718266000537e-01 -1.3175745699236796e-01 -4.2230188057295648e-01 -3.4057194077599101e-01 -4.1338597195857696e-01 -1.2130105859112696e+00 -8.5854472117062952e-01 1.7858658621537995e+00 2.5041410782052940e+00 4.6172453862011936e-01 
        </Neuron>
        <Neuron NSynapses="22">
          -2.8780251552866082e-01 -1.8132334471904050e+00 -1.7454725360666945e+00 1.2498021842401370e+00 1.5331380159994803e+00 -5.8461654206680491e-01 -1.1801773807026787e+00 7.8364920086712631e-01 -2.4574497783690630e+00 2.3148132122926888e+00 -2.1208998114242983e-01 3.4178789544810012e-01 4.5695896353324800e-01 3.9849601913673247e+00 1.4402176219366161e+00 -8.4982043672271218e-02 -2.5695696456644654e+00 -1.0241103133176238e-01 -7.1090287895512716e-01 -1.3748795090324286e+00 -9.1169876697034014e-01 7.1162758141274998e-02 
        </Neuron>
      </Layer>
      <Layer Index="1" NNeurons="23">
        <Neuron NSynapses="1">
          -2.2472714228651371e+00 
        </Neuron>
        <Neuron NSynapses="1">
          5.6652204954645169e-01 
        </Neuron>
        <Neuron NSynapses="1">
          -2.6074887431895015e+00 
        </Neuron>
        <Neuron NSynapses="1">
          2.2941913492012928e-01 
        </Neuron>
        <Neuron NSynapses="1">
          -1.3669252893113409e-01 
        </Neuron>
        <Neuron NSynapses="1">
          1.3331536245365325e-01 
        </Neuron>
        <Neuron NSynapses="1">
          -5.1757347378171270e-01 
        </Neuron>
        <Neuron NSynapses="1">
          7.8636477302214305e-02 
        </Neuron>
        <Neuron NSynapses="1">
          2.1937581228982412e+00 
        </Neuron>
        <Neuron NSynapses="1">
          -2.6541134717758230e+00 
        </Neuron>
        <Neuron NSynapses="1">
          6.6066280045767045e-01 
        </Neuron>
        <Neuron NSynapses="1">
          -5.3496253730338905e-01 
        </Neuron>
        <Neuron NSynapses="1">
          -1.4320702207362144e+00 
        </Neuron>
        <Neuron NSynapses="1">
          -3.0260686382378141e+00 
        </Neuron>
        <Neuron NSynapses="1">
          -5.7169548172999030e-01 
        </Neuron>
        <Neuron NSynapses="1">
          -6.1159757667780734e-01 
        </Neuron>
        <Neuron NSynapses="1">
          1.1846503410081208e+00 
        </Neuron>
        <Neuron NSynapses="1">
          3.9008016670491967e-02 
        </Neuron>
        <Neuron NSynapses="1">
          2.0623666291129310e+00 
        </Neuron>
        <Neuron NSynapses="1">
          -1.7682433575016694e+00 
        </Neuron>
        <Neuron NSynapses="1">
          -1.0114584822088690e+00 
        </Neuron>
        <Neuron NSynapses="1">
          -1.2239169656713833e+00 
        </Neuron>
        <Neuron NSynapses="1">
          -2.3106254352749994e-01 
        </Neuron>
      </Layer>
      <Layer Index="2" NNeurons="1">
        <Neuron NSynapses="0"/>
      </Layer>
    </Layout>
    <InverseHessian NElements="95481" NRows="309" NCols="309">
      <Row Index="0">
        1.4468207007074843e-01 -1.5163009487372686e-01 -1.0894067465830337e-01 -1.4887777198531869e-02 -1.6078447850447968e-02 4.4967966193258709e-03 -8.4793321710933435e-03 1.9834449679403482e-02 2.8997026200158187e-03 6.4826897720856834e-03 5.1228216167394326e-03 -1.7822449930000570e-02 1.9556972423298340e-02 -8.9218612383882071e-04 -4.9044685957603650e-03 -7.9872640524808053e-03 -3.9163729212149329e-03 1.9202396529323759e-01 7.6858862879996097e-03 -1.4142744362222997e-03 -1.5562950672626053e-03 4.3155143623568688e-03 1.4523977817701027e-02 2.3651737124652770e-02 -8.8134896796652762e-02 -7.6447804602966657e-03 1.1778303322984908e-02 1.9794791163561771e-02 -5.9505318922971721e-03 7.3493499395623857e-02 -1.7390032983772282e-02 8.7729864093983867e-03 1.6607091917723135e-03 1.3890754134271623e-03 -5.2975924914225262e-03 -2.6743157864055843e-03 4.7244587710932638e-03 -7.0646535864721935e-03 -1.5294496681760596e-03 9.7785561643048829e-02 1.6560917527736377e-02 3.6431005789408812e-03 5.4999270393064027e-03 -2.6703379059298616e-03 1.3045430881969472e-01 9.8314321931682602e-02 -4.8696242920599951e-02 -7.5052570645162464e-02 7.6073443816151970e-02 1.5166030864412549e-02 3.4068715992739175e-03 1.9740387397599965e-02 -1.0742398267126691e-02 6.8315413974919829e-03 -8.5675898835478083e-04 1.0218639938663151e-02 -1.3325009985993475e-02 1.2172736613526350e-03 1.5221958663673403e-02 -5.9645054500633496e-03 -3.6562175436397177e-03 6.4883503717174967e-02 -4.1753677444995030e-03 -1.0911489587587787e-02 9.1819694772350153e-03 -2.8570660194561677e-04 1.0495274314658073e-02 3.2406911919860337e-02 8.0349366021033736e-02 -5.5277956828622063e-03 -4.1725141261685472e-02 1.6979934155292458e-02 2.0580893326098667e-03 1.3988594706385494e-02 1.1962648411932814e-02 4.4919470103091394e-03 5.1328584411218358e-03 3.4312311452003350e-02 -3.0082970225617407e-03 -4.8135529430990559e-04 1.4228693442904646e-02 -9.4123130206517618e-03 3.6683051106772080e-03 1.3608735358993165e-03 -3.2620775918117311e-03 -6.4761083758431183e-03 5.8298881745782200e-03 3.0864670905740121e-03 1.2204387346822354e-02 5.9375803620453110e-02 5.6738312305626279e-03 1.0382043374578102e-02 4.1527387572563954e-02 1.7538146520946304e-02 -5.4228512628635653e-03 3.2404057971250844e-02 1.9585524370420680e-03 -1.9170670858413524e-03 -2.4216458855022783e-03 -6.7197834104162921e-03 -6.9225651237177013e-03 -4.2455448720873435e-04 -4.1442687309402272e-03 -1.9964814691222151e-03 -7.8770069507744917e-04 3.6111078833857335e-02 5.2366837290790478e-03 5.2579888302266391e-03 8.1393951218066210e-04 5.7617938682139849e-04 9.5289440008402976e-03 -6.9611888938693162e-02 7.1081216295253061e-02 -1.1951732145604379e-02 3.3658707083562070e-02 5.0134123656081289e-02 -9.2566618448579954e-03 -1.1174645332394501e-01 2.7074092004722487e-02 -3.4851769361746009e-03 1.0560396296127013e-03 -3.3884953349355790e-02 1.4999487436284636e-03 -6.1246741684949481e-04 -1.3867515840650081e-02 2.6177148767552248e-02 1.6888788166388819e-03 -6.5970052849647354e-03 -3.0817463288178703e-02 8.3483814294022050e-05 3.5513431060702825e-03 8.7653899322545914e-03 -1.9971139693009756e-02 3.7687479017035272e-02 -4.6829725596966615e-04 -1.8495812656190699e-02 2.2009357205734222e-02 9.3637125927880510e-04 1.6538575436389740e-04 2.3556033293900359e-02 -2.1368761070201265e-03 -7.1336439280533629e-04 1.2439940668827537e-03 1.2350074627594243e-03 -2.3185169078161405e-03 -1.9936284246504219e-04 5.0785711997539031e-04 2.7129591589455599e-03 8.1375995714592312e-04 -5.8948009938010817e-02 -1.2060986935912849e-03 2.3834640335085580e-03 -6.0648323198959507e-04 -9.6682752972261741e-04 -1.2142298816289136e-02 -4.9476908943365105e-03 1.2692975994657205e-01 1.3274948100720635e-03 1.1589259430566679e-02 7.3140227771727115e-03 1.6189739490075654e-03 2.6986903706382348e-02 -5.8103091011131136e-04 -7.7896524460920535e-04 -1.1204733384575726e-03 7.0402796682731382e-04 2.3735209823038802e-03 -4.7899385357965969e-04 1.6943581536738635e-04 9.1326633142466505e-03 -4.8522050858188181e-04 -3.5055608601328822e-02 -1.9538198946371255e-03 -3.3638629380960579e-03 -1.5028465797263762e-04 -1.4909194392745786e-03 6.9538667431490279e-03 2.7194259714550167e-02 8.3751887125815151e-03 2.2413701265048148e-03 -2.7322390923509559e-03 -2.9758537982925264e-03 3.2250113514192195e-03 -2.3752681767086139e-02 2.6647576900881683e-03 -9.1575725871705354e-04 -8.0106286773054796e-04 -1.3887550824624336e-02 -1.1803893259554124e-03 -1.3086757915662571e-04 -1.1837627202817049e-02 3.2076748597120478e-03 -2.5479681231801586e-03 3.7300484694152466e-02 4.2556378350797159e-03 -1.1774368631011234e-03 3.3667154909822021e-04 -2.0829029321859011e-04 -1.3310882190885998e-02 9.7710870891062881e-02 1.0219694103975191e-04 -1.2620810875774872e-02 -2.4593311569180154e-02 7.2526253164680449e-03 1.2858545490849612e-02 8.2650694593032897e-03 -6.0648614872272312e-03 8.8716150464005386e-05 4.9247174338238817e-04 2.1071106332613866e-02 -4.9407921680678576e-04 1.0337199821569992e-03 1.5956733841997681e-03 -7.1274121540601419e-03 2.2495322025257477e-03 -4.3993314154057300e-02 -1.0793362122794133e-02 9.9315367990331191e-04 1.5045826402565953e-03 -1.8671121581729346e-03 -7.5507233701323340e-02 2.1925967699551633e-02 3.7562025229408408e-02 -1.7032772399216640e-02 4.8664369951838142e-02 -1.7504847999540380e-03 4.0368136503095391e-03 -6.4341783074550851e-02 3.5739860458642381e-03 -5.9432670344610188e-04 4.9091636542883173e-03 2.2955284696113852e-03 -8.0745957922996152e-03 2.2553900662792888e-03 1.1221851853098569e-02 -1.0091058990701157e-02 -2.6964150034272621e-03 7.4209055044918329e-02 -1.9170035322227944e-02 -5.1498112001637768e-03 4.5631157355345790e-03 1.4063766254306500e-03 -1.6385546915548496e-01 5.0977142202167966e-02 5.8887378833122825e-03 6.4994053718161929e-02 1.4063883113291897e-01 1.2529194930496366e-02 -2.0966568013300272e-03 1.4292229231691003e-02 5.1900540207727398e-03 2.5594270438962001e-02 3.1379102026636778e-03 -3.3163214434978848e-02 1.1755913122023747e-02 -1.5453649233460385e-03 -2.7447982219494484e-02 5.7961631791773029e-02 -3.0088383659805447e-03 1.8317007264648855e-02 1.5950683249491476e-02 -5.3102524229996662e-03 -1.2783619911021426e-03 3.4284041832821910e-03 1.1550519229184457e-01 1.2221897400598725e-01 -2.3598277664891837e-01 -7.5814418464272351e-02 -6.5176085960029800e-02 1.1508584314705285e-02 -9.0184816971257062e-03 2.7657754337201759e-02 -1.4092956140446485e-02 -3.7926312184360183e-03 -8.5088753011031970e-03 4.7259118434505119e-03 -2.2561738393276257e-02 -2.2137147318449365e-03 1.5504367699941325e-02 -2.3797204187523638e-02 2.1226986797693980e-03 -1.3154420584982521e-01 -1.1125271158755946e-03 6.3653687545899146e-03 2.0451551074292607e-03 -3.5131709992671303e-03 4.5551290800182380e-02 4.0303005782897867e-02 -2.0695498625969502e-01 2.2661944196731469e-03 4.2802258349036969e-03 -3.5976062000059230e-07 5.0237010459012348e-04 -8.0053618967863068e-04 -1.6071508457651134e-02 -9.4910419274343814e-03 6.5096003659307592e-04 -4.8467385500125168e-04 -2.3212022443789247e-03 1.0614557405910635e-03 1.9602375166950427e-03 -5.0442313818344032e-03 1.2911575860887967e-04 1.4911880019034185e-03 -3.0610322912994068e-02 -1.2444389652392763e-02 4.6377193022845041e-03 -2.0980004499334746e-03 -1.8819439505561553e-01 
      </Row>
      <Row Index="1">
        -1.5163009487359841e-01 1.0172750006930286e+01 3.2814577711374149e-01 1.7650768150748214e-01 3.3438570803527173e-01 1.5232952504867142e-01 2.9141908085683114e-02 -3.1114683825815342e-01 5.8728668389343174e-02 -1.4652231988083693e-02 3.1704394048007525e-03 -4.1158461754224651e-01 2.2783282250018771e-01 -6.6537240367777533e-03 4.7500773230918863e-02 -1.5546455659556709e-02 1.3852845996282590e-02 6.9276556726988237e-01 3.7508043788316514e-02 7.5709761150445885e-03 4.7196814759011156e-02 -6.9577217807539643e-02 -6.2167355562653737e-02 3.5565785685818707e-01 2.9156546835651798e-01 -4.5685948070312227e-01 -1.1183535912941511e+00 -2.7247628920954314e-01 8.5628944216278785e-02 -3.3744104928643204e-01 2.0418879934663414e-03 -2.6100074257750627e-02 -3.2527151734653051e-02 1.3016067029766082e-01 -1.3013982744727284e-01 1.6623092665507135e-02 -7.5902121443721521e-02 1.0837985906541822e-02 4.5283113552199800e-02 1.1623796460968840e+00 -9.5552104133284615e-03 5.8386159287657370e-02 3.1266695075438874e-02 4.3212344161545103e-02 5.1344212119378840e-02 -4.5378418732410370e+00 1.5366083724937690e-01 -9.6440193921531053e-02 -1.0676005248457201e+00 7.6556426695793878e-01 -1.6903605662189258e-01 -4.3939602379381437e-01 -4.3655739753953905e-03 5.6452613487104987e-02 1.3696806874577101e-02 1.1434024402130414e+00 3.4446699819752602e-01 3.0911523926923493e-02 -1.1937267594160991e-01 3.2806996939610270e-02 -1.4899197478901664e-02 -4.6121359341071750e+00 6.5879990953226719e-02 3.4642594188221149e-01 -1.0019414864097376e-01 -1.1364298427116648e-02 7.3733343631044890e-02 -2.8066870025682231e+00 9.1901922183531992e-02 1.9086112986529530e-01 7.0849436191120130e-01 2.4523106010696891e-01 -8.9585895294997372e-02 -6.2866099614953952e-01 -5.4431613454194214e-02 5.5740933431901521e-03 1.6755472526300733e-02 7.1405006351530986e-01 -2.6159734665586163e-02 9.6166803879082097e-03 1.8699261434012040e-02 -6.2364421973327006e-02 -1.2924739733389556e-01 -1.5852600706357960e+00 -6.0970162198698639e-03 1.4305811807336849e-01 -1.3832038517780261e-02 -7.0134477279357219e-02 5.7469841687632792e-02 -3.3514887924090009e+00 8.5145450706988497e-03 2.5750028586427359e-01 -3.6421964210294638e-01 -1.4384106646850572e-01 8.4871263491701071e-03 -7.4279533253182572e-01 -2.4536849392545357e-02 1.4260680942879656e-02 1.8392039100897768e-02 1.3194939847520237e-01 1.2990898893025342e-02 2.0828558916662899e-02 -2.3155324103036976e-03 -2.1883714490672501e-02 -1.4731353304844314e-02 6.6990486200936605e-01 -1.1992657329490914e-02 -2.2116628056980645e-02 -2.6689141024970803e-02 7.4592191846045144e-03 -1.9980726498477906e-02 1.2231367427930777e+00 -3.3404755223482119e-01 1.5468298209950662e-01 1.2679758672623074e+00 -2.1105981645166128e-01 -7.1954343584979819e-03 1.1486872289306116e+00 4.6664575473788529e-03 6.4289916779122474e-03 1.5115583662516718e-01 -2.3557733724175467e-02 1.0983551425253821e-01 8.2383224370455574e-02 -3.3579386863737182e-02 4.5841281532536977e-02 -6.1012672284802963e-02 -1.3959977997108328e+00 2.6403956947821935e-02 -7.0400346861433979e-03 -4.4007813171948101e-02 -8.1941598186452691e-02 4.6791676957798248e-02 -2.2693151375700960e+00 -4.0154235687869091e-02 4.3349850162899412e-01 -5.1707444772947220e-01 -3.5409503887955801e-03 -3.1112818715419939e-02 -6.3859128471955151e-01 -1.3658500940283739e-02 1.8851082274319413e-03 2.7878460880121851e-02 1.1751361445768368e-01 9.5549106944248938e-02 1.0787944742217684e-02 -1.9963533208193360e-02 1.3942645538753490e-02 8.7486384098592902e-03 -5.4957097363184149e-01 1.6612034349310699e-03 1.2067541240275304e-02 -1.8620997163863697e-02 1.1414566420331175e-02 1.2144403743306578e-02 -3.6777410840412217e-01 1.0866663913811667e-01 2.3493825615402766e-01 -1.5588348989593465e-01 -1.0629111792683969e-01 2.6648942809776310e-03 -3.8566360590137605e-01 3.7742333565314971e-03 5.7872151395593052e-03 7.5868459079261928e-04 -4.6251761355899229e-03 -5.6178962517622999e-02 1.0906006345156663e-03 -2.0366957318265572e-02 1.6641407497635156e-02 -5.2019212910536516e-03 -8.3875290805282177e-01 2.9725921272754680e-03 5.0825800844276257e-02 -1.1463376947276503e-02 6.8417284899448989e-03 5.9063471967449988e-02 -6.3617931187995469e-01 4.9828415940787213e-01 -4.3888956514238175e-01 4.5778294216329021e-02 9.2195832008930445e-02 -1.9528101253433289e-01 6.5239272214291999e-01 9.0368724642292224e-04 1.1670603586931073e-02 -3.5489868469368233e-03 -2.7184046231500825e-01 1.1822689747426623e-01 1.7193867490530725e-02 -2.0120625444710785e-02 2.2049523838290872e-02 -1.4465708885974050e-02 -9.9140786857546404e-01 1.0773235557220628e-02 4.3483470965993212e-02 -7.9701695065899116e-03 9.2437049716241719e-03 9.9960318848522259e-02 -2.5840438433351700e+00 -1.3472273717305308e-01 2.7936949859582882e-01 -3.1939214514225867e-01 -1.9716796648111515e-01 -1.0214432752319857e-01 -1.8646629987186575e-01 3.3066864045769901e-03 2.4980353261180145e-03 -4.9077774698534388e-02 -1.5456623958301155e-01 3.3829099043559810e-02 1.5680313515832192e-03 1.2678745823425912e-02 4.1132557991745811e-02 -5.1557017638328394e-03 6.6242461916051987e-02 5.3255499003917323e-03 2.7795794017580019e-02 -1.4317166106725997e-02 -7.9059238245617718e-03 2.9991462894285260e-02 -2.5507196254125404e+00 -3.2402483257570092e-01 5.4351787410941288e-01 -8.0697646527399058e-01 -5.2667057026800046e-01 4.8153954375014796e-03 4.1725208200166120e-01 1.3256848462077274e-02 7.8145137535231743e-04 -3.4536875249473534e-02 8.2986334761212879e-02 -5.0690304645839734e-02 3.3253503570352897e-03 3.8851879548822466e-02 -8.3819734980783191e-03 1.6142357992853934e-03 -8.6409560846939526e-01 2.4842136481109903e-02 -2.4161909423418605e-02 -7.6746279912747475e-02 -6.9111057371604653e-02 1.4350946536451159e-01 -6.2300650045057440e+00 -2.4766624615827226e-01 1.1351534983944458e-01 1.6870295214527968e+00 -4.4560908634810617e-02 -5.4253598937788111e-02 1.2624430296985587e+00 -2.3597423934505417e-02 -8.2706618599188486e-02 -4.3921168320881408e-02 -4.0189144383783182e-01 2.1267898861793144e-01 3.5601906913211814e-02 2.1164947817104148e-02 3.8163033467705117e-02 -1.2003003461056762e-02 -1.0443600901479644e+00 5.8663395986176901e-03 3.1694746124401157e-01 -2.0848052088167899e-02 6.0349379228140917e-02 -7.5408636842637988e-02 -4.5306422745159818e+00 1.0308455412303916e-01 -3.8411098961288553e-02 -1.0316339184913714e+00 6.9343436614896992e-01 1.0534792732762302e-01 -1.1707030058064511e+00 1.0944415283898334e-02 4.6584016808598527e-02 5.3641400620835056e-02 2.9066193740410529e-01 -2.2862735707868537e-01 1.1364898714580683e-02 -1.1847317333946208e-01 9.1271739770699273e-03 3.3350325363380159e-02 -6.4005206201982079e-01 2.7713062479627668e-02 -9.4679093482890497e-02 1.8874039718388629e-02 -4.7172932105488848e-03 6.2082915396341642e-02 -1.8211782330819584e+00 1.0147211507841072e+00 -8.8350750676173095e-02 -1.0911785756719022e-01 -5.2118529961891515e-04 -5.2955766738347912e-02 6.3518501312167991e-02 -1.4353496820362934e-02 3.6036476312288283e-02 1.0716674478257620e-02 -1.9334978659414762e-01 -1.1501929259393551e-01 5.6236211435723993e-02 -9.1319332315429325e-03 -3.0098732704546702e-02 2.6242965372723432e-02 -2.3506398782316093e-03 1.8501730100351260e-02 2.1121928020227090e-01 1.0477796480174956e-02 4.6716722653881673e-02 -1.0608907830114808e-01 
      </Row>
      <Row Index="2">
        -1.0894067465720347e-01 3.2814577711708637e-01 3.4541598160998834e+00 1.3112511197510357e-01 4.9135530490506452e-02 -1.6474448591657201e-01 6.5229970465024052e-03 2.5709508033687589e-01 -2.3574505090000100e-02 3.9856627382949122e-03 -2.5849850499072576e-02 2.0928231312560615e-02 1.2423837250839377e-02 -1.0942185350415860e-02 2.5389312267463937e-03 2.5815297757102489e-02 -1.7198604145082362e-02 2.6939451005613280e-01 -2.3355321860968156e-02 7.7491892864860407e-03 -3.6583488633322170e-03 -4.5938404609633787e-04 -1.8246780784706754e-01 -3.6837395190219779e-02 -2.0288575510030356e+00 -4.5644588955711302e-02 -2.3544858040680927e-01 -2.4673299625467085e-01 -2.5982077478462696e-02 2.5937796275940611e-01 -5.3540601692454358e-02 -1.7327546430149533e-02 1.7211140190975756e-02 2.4753496684993093e-02 -1.4782207161947142e-02 -2.9470138060406874e-02 2.6231457634480503e-02 -5.7733208727115196e-03 -2.6631225638267735e-02 1.1919966344449207e+00 9.0360287503579106e-02 1.0347614980758549e-02 -2.2442305478032516e-02 7.2215935153709457e-03 -8.2851139152153433e-02 -5.3939101585567854e-02 2.7514488178640448e+00 -1.7786254139988938e-01 2.9538471708432743e-02 4.1994683571828423e-01 5.6946776354435159e-02 -2.0752256580506673e-01 -1.2457621359340521e-01 5.7622464014750498e-03 -5.5795252322753681e-02 -4.8101972985346284e-02 -5.2118987545581565e-02 1.2656322797409240e-04 -4.5026107772157570e-02 8.9604181143707259e-02 -1.3437003898282708e-02 1.3727569306093590e-02 -1.1255144892935463e-01 2.7794303275440420e-02 -3.8601287804494622e-02 1.4035934717541939e-02 8.0296530073389313e-02 1.2020260341945477e-02 3.3614154166594976e+00 -8.0368135411306385e-02 1.3672854074190915e-01 -6.7547967755139396e-02 -1.9333140293374542e-02 -2.1474242180133302e-01 7.5130344712999921e-03 9.3681864550338376e-03 -4.3733177769559622e-02 5.8212009993762304e-02 4.2002914533199320e-03 1.9534927000873947e-02 6.7661324481654780e-03 6.0495740904523178e-02 2.6488975217881332e-02 -7.9582790929529756e-01 -3.5226562317121832e-02 2.2196454496573037e-03 -1.9378169721402282e-02 2.3990696381437429e-03 4.3958125014525604e-02 2.3161095662729315e-02 1.3756338961970276e+00 -4.8373949968935598e-02 -4.8227911347399191e-02 -1.9645220420587334e-01 -4.9171294477099656e-03 1.7045966388490474e-01 -3.1890253485886901e-02 6.8495644983860970e-03 9.5968699337385978e-03 1.7509378112240515e-02 -2.1829308519031847e-03 -1.2386427826351246e-02 1.7763714335807083e-02 6.7686837590544821e-02 4.3586908315738490e-03 6.1200893615191254e-01 -2.2689657611189955e-02 9.2263273489526544e-03 -5.1881970674046872e-03 -4.5715107101650283e-03 1.8013077860427629e-01 3.5524319551540062e-02 1.8133703778268959e+00 5.5116340656399435e-02 1.5257669451201702e-01 1.5345535704220525e-01 5.9923882743984774e-04 -5.6604334585035332e-03 9.7686933796600497e-02 8.6395240323590555e-03 -5.6862023115100760e-02 -1.5923179619616569e-02 -3.5860399308450051e-02 -5.8814564733226771e-02 7.4119167526931068e-02 2.0961893647131261e-02 4.3549568750773284e-03 2.6514633485235628e-01 -1.9953898047436688e-01 -1.0297948433355908e-02 -1.0428644938662336e-02 -9.7945754883250434e-03 -4.1579958321202232e-02 -1.0549936357608436e-01 -8.5843156073865923e-01 5.3530558678539737e-02 -3.5774254987421650e-02 -3.0331415135707857e-01 4.0867677951749587e-03 -5.7921262117173779e-02 1.3818471576816383e-02 -1.0409618015298152e-02 -7.0735211894379021e-04 -7.0758470972485422e-03 -3.6181866096438031e-03 -9.8409653310137894e-03 2.4137680685727969e-03 -2.0798763842367150e-02 1.8291503854144589e-03 4.6883675081273724e-02 1.3659501930059050e-02 -7.3354053682607376e-03 1.6531518487115857e-03 -6.0938410625921251e-05 9.2966058003112126e-02 5.8722334537933546e-02 2.5567688610146537e+00 -8.7902545383186925e-03 -7.3595636675271719e-02 -8.0717406594769253e-02 7.3451911227202914e-03 -6.5509046371179658e-03 -6.2226773801903862e-02 2.2213641850866203e-02 1.8785363455865012e-02 1.6112174222862298e-02 1.5641959178068710e-02 -6.9490036493783831e-03 -2.2773875202812474e-02 2.9867292068903317e-03 -4.1090325780251732e-03 -4.7063736762068697e-01 -4.9753671005254095e-02 1.5750590318085768e-02 -6.2726420745767659e-03 -9.4434982355318976e-03 2.2459651955258970e-02 4.2489809718173295e-02 1.1314963130531763e+00 -6.4290128289523296e-02 -5.8307722215404749e-02 1.0539497819120693e-01 4.2654066903945881e-02 -3.3477052852564904e-01 -7.7213751839001407e-03 6.1719487855654356e-03 4.6033884712080014e-03 -4.0664904302564059e-03 -1.0768796655204298e-02 1.1527398763482514e-03 3.7885197550634004e-03 -8.7489117561811401e-03 -2.0737437998002602e-03 6.9433905889858261e-01 -6.1746573069598283e-03 7.3005976189822429e-03 4.6534716032359570e-03 9.9505898824203947e-03 -6.0075817283252175e-02 -3.5696625602389939e-02 -1.0877081111074156e+00 1.7999060908809525e-03 4.2088434604969381e-02 -2.5419245375493504e-01 1.5442457742093203e-02 2.9533192322553470e-01 1.8074568988147528e-02 -5.2964758908434044e-03 1.2995649334752377e-03 -4.3816709053276823e-02 -9.3170299191482758e-04 4.8824101381818082e-03 3.2690071363790180e-02 1.9083663239133377e-02 1.3823761171966216e-03 2.4057186189568212e+00 1.5175684759415392e-02 6.6042275090128473e-03 7.0458423912635746e-04 -8.0924212217882499e-03 1.1566391970022712e-01 -1.0791752534324310e-01 -3.2981177426475381e+00 1.7054848333989486e-01 -8.0368777057538962e-02 4.1459643098454527e-02 2.9331477821942141e-02 3.9089079311993263e-02 1.0759755356654273e-02 -5.5174191665512320e-03 -8.9333489002130610e-03 -3.2860923078366251e-03 -2.3247863121481138e-02 1.2292236624210879e-02 -5.1255172231333031e-02 4.5694824517055225e-04 2.5494687881656857e-02 -1.7441828441313173e-02 -7.1190414957000778e-02 -2.7497798872537942e-03 -6.2652857509929195e-03 -3.8895764066832266e-03 3.0029191435450914e-01 -2.6259795157009858e-01 -6.0564741962586917e+00 -6.9877310951989777e-02 5.6902478726707284e-02 -1.0119881548718718e-01 -7.1140965430697110e-04 7.9993096090172910e-03 -8.1420143366435493e-04 1.3525605997487648e-02 2.0848756966691025e-03 -4.0059915885190436e-02 -4.9995078155412719e-03 2.1811588451847970e-03 5.2386731695925851e-02 5.9708539231334221e-03 -1.0835185382954126e-02 7.3580849671116810e-01 2.1950484789120293e-02 6.2772743886631496e-03 -2.3202008016062058e-02 5.7612647705024729e-03 -1.0074794058790876e-01 -2.3369988805335348e-02 5.2071130926440272e+00 -5.1872403915683374e-02 -4.2231623548183023e-02 -7.1099561201592720e-03 -6.0950143638955866e-03 -1.1021548608094578e-01 -9.6887701319740838e-02 3.9666293882938269e-03 -1.4120478395008712e-03 -1.3797148677939741e-02 -6.0367504758943764e-03 -4.0848700030463647e-02 -3.0777818878911706e-02 2.6265864737369873e-02 -2.2411304148012210e-02 -1.4538338180385217e+00 -6.4173985306526043e-02 2.2042223384814976e-03 6.4979099210578529e-03 -8.9769181723473208e-04 -3.1936513930671251e-01 -2.9172034980414582e-02 3.1124943039268437e+01 -2.6596733174795169e-02 -6.6623425545166998e-03 -1.6689706088247901e-02 5.8854892570933907e-03 -5.8105658281234884e-03 -1.0808719754804823e-01 -1.3190318124214319e-02 -9.8438791161130981e-03 -6.4686949871070997e-03 -6.3925951364594072e-03 -3.5200227781344628e-02 -2.2624092433500033e-03 2.4003391053698725e-02 -1.9659805242560335e-03 -3.7182524427846794e-02 -1.2021285943396458e-01 8.8145736429561024e-03 -4.8577051437799727e-03 3.5369167601259316e-03 3.0582678176957167e+01 
      </Row>
      <Row Index="3">
        -1.4887777198609842e-02 1.7650768150871343e-01 1.3112511199060872e-01 1.2393727887981322e+01 3.3751983929179835e-01 -8.8047265106768025e-01 -1.2768870455328020e-02 -7.2051116063096199e-01 -2.1331528061711326e-03 -3.8213420953712575e-03 -1.4432479999043732e-01 -8.3936488768577955e-02 3.9008812339051147e-01 -9.7311100204360065e-03 2.5840397783920416e-03 -5.9738472275071633e-02 3.8788596081844734e-02 -9.2448188551492327e-01 9.6172266147556001e-04 6.5595453848714597e-02 -1.7684909920780711e-02 -5.4087576919184630e-02 8.4084343295289937e-03 1.1304608831647636e-01 1.7909059097425767e-02 -1.6626236795826521e+00 -1.0234810397558512e-01 -2.4648377364393066e+00 1.8353201844767786e-01 4.8052867420590140e-01 -1.5850730265294519e-01 7.6298698271917318e-04 -5.8000369963005845e-02 -1.3721553649899615e-01 -5.1041412508833893e-02 1.0213156752495109e-03 6.4971105356670458e-02 7.1089017031809185e-02 2.6444709129228458e-02 -2.1238202496520016e+00 4.8557006588137885e-02 3.6978402102513422e-02 -2.1365901309220739e-02 -4.1150289918100769e-02 -1.8492635148165509e-01 1.3520259147803956e-01 7.8466003444374544e-02 2.0603609416089075e+00 4.6349646508708703e-01 4.7185306980870922e-01 -2.2393570056636961e-01 -9.8573472337092416e-01 -2.5863983283953335e-01 8.3660291443321023e-03 -2.2299323211660016e-01 2.8079823856011865e-01 1.0004295347483456e-01 -7.5557391694429134e-03 -5.2477078390893084e-01 2.4689948375024726e-01 -2.7212724769194306e-02 -1.3035449336150549e+00 -2.9692806881609835e-01 1.3532600135493267e-01 -2.9495103260141639e-02 2.9007289176386131e-01 -2.8440201782880620e-02 -2.6405404652278686e-01 1.1867508783072102e-01 -2.6807208530994675e+00 5.7474547185518743e-01 -9.4433522090328448e-01 -1.1491962530588612e-01 -1.6694073685707473e+00 4.5226526717338518e-02 -1.8593497500134587e-02 -1.9459625988148677e-01 5.7085387573593060e-01 -4.8478359134103297e-02 2.3068273610089191e-02 -3.1187786355282726e-01 7.0271485223770996e-02 -1.0169555643745828e-01 1.3696294772147288e-02 1.5802343067072476e-02 8.8400552426793885e-02 -7.7546479811417268e-02 2.5291490662428334e-01 -7.7822945625282275e-03 -1.8330392267413642e-01 6.6198485327081696e-02 -1.4728873840126475e+00 -5.6927436047832597e-02 -2.8135736468963652e+00 -6.0136653247105931e-04 -1.3084387064110707e+00 -3.0871911866677440e-02 1.2614784195113526e-03 -9.5590092232902962e-02 4.4525438772481135e-02 -1.9423387094583470e-02 3.7139239728882652e-03 2.6720438050074985e-02 8.7830309448030691e-02 -1.5582716306598141e-02 -2.0045403238728756e+00 -4.7160427424269942e-03 -7.3135207968981431e-02 8.5697182032672820e-03 4.0716752535783253e-02 -7.3513315378635063e-02 -2.0510177150746545e-02 1.0203948462772111e-01 1.3165226203756584e+00 4.1299447418825980e-01 2.8262910916902122e+00 -1.9171745658339165e-01 3.3158791861019077e-01 1.0890562145749998e-01 -1.7565304151289356e-02 -6.5411809886947447e-02 -1.1100697807278639e-01 7.2571879637668979e-02 -3.5231679034019456e-02 -1.4055864826159697e-01 -1.4967579789516572e-03 1.0467400168158121e-02 -1.5499905157510840e+00 -2.9598350231660453e-01 -4.0947920807154425e-02 -1.1389731189392290e-02 1.0274037197979441e-01 -2.0964315449037849e-02 -4.2377517261572245e-01 -3.9406766602806551e-02 1.7535385134194801e+00 -2.3149224636474233e-01 -1.6430137252152215e+00 -2.3730963017182929e-02 -1.4411915793207428e+00 1.7685477223208290e-02 2.7569783365876091e-03 -2.3190577427289738e-01 4.0608899417386379e-02 4.6088484976822219e-02 -1.6509160159196418e-02 1.4492957100253827e-02 -2.0619338726148323e-02 8.4126963744597522e-03 5.8534647891043357e-01 2.6610727501468433e-02 -4.3399676175839980e-03 -1.9053582449822720e-02 -1.7692500200317963e-02 2.9932729649945606e-02 -1.8682135640419187e-01 -2.7142045088840196e-02 1.6255762068432007e+00 -1.3909504470675776e-01 -2.4106059198138015e+00 -5.2405683650316018e-02 -2.3173510316301399e-01 1.3804455667966863e-02 5.7533648779373205e-03 1.5437218941200894e-02 4.1476794519342497e-02 2.2853546404121447e-02 1.2858217361273287e-03 2.3833060449652395e-02 -1.8193028097876790e-02 3.1571773426935963e-03 -4.5474954503250675e-02 2.2291661364521251e-02 3.6534427042600189e-02 -3.7449325684445645e-02 -2.0594372211420523e-02 1.0462252442294817e-03 2.8130602316661474e-01 -1.0900304642114653e-01 -4.9122910873906740e+00 4.0885959150082513e-01 9.2408859096799700e-01 -8.9627278950445199e-02 1.3083113265843787e+00 -3.3868209088000908e-02 -1.3382034853891226e-03 6.6166356791185502e-02 -4.4258963167786325e-02 -1.1223883054554082e-02 1.0476437309197225e-02 1.0293836877315887e-02 -2.6840312468757992e-02 -2.3875883979434954e-02 -4.2654823848297063e-01 -4.2872779776416237e-02 -1.7423031315395961e-02 2.7869298847848546e-02 3.7041282165479424e-02 2.7726970366293104e-02 -3.5492228168934026e-01 5.4509235023080110e-03 -9.0737351680264700e-01 -1.2463022137348057e-01 -2.1113235476317485e+00 -3.4311374521756272e-01 -6.7041886421351660e-01 2.2560040628872520e-02 9.2655269158410762e-03 1.0825038570341491e-01 -1.9884793988634297e-01 6.4279650641716812e-02 -8.9459743396416158e-03 3.5867881774176574e-01 2.8473871736327878e-02 5.6770010653192302e-03 -2.4843202250732932e+00 1.2736103031900842e-02 2.6720577462265284e-02 -7.8986259870415951e-02 4.8164081114163926e-02 -1.3310770092787663e-02 -6.1461735699572850e-01 -1.3449686472741065e-01 5.5907782661204788e+00 -3.7866709362364448e-01 3.2571258282849141e-01 8.5632387810349611e-02 1.5306664681018711e+00 1.1190830599391230e-01 -3.6402053461135940e-03 3.4748753952532470e-02 -1.1072164775086347e-01 2.4646180718131485e-02 -9.2132346504806301e-03 -4.4227506166266217e-01 4.7789248847820903e-02 1.0006200658307261e-02 1.6050554013440741e+00 -6.2118261360619736e-02 -7.3325613578602650e-02 2.2658081713776829e-02 -8.3296170395999666e-02 -8.4236713243401901e-02 -3.5959808831369050e-01 -2.9477130155033193e-01 -2.2710658043410521e+00 5.7491784942464008e-01 -2.2817084400796235e+00 -2.3050131608652474e-01 9.6020771912763470e-01 -3.8952395895839938e-02 4.7540106415345021e-03 -2.9776893452840583e-02 -1.9575952443009409e-01 4.5590220745953147e-02 -1.7260181835773776e-02 4.2345592377125187e-02 3.9163591967934910e-02 -1.2429868536891230e-02 1.8107289927699994e+00 -7.0331361916946819e-02 1.7916110933238855e-01 -8.4915382939040635e-02 2.8746364459945682e-02 -7.5636274709016696e-02 5.1247447707485549e-01 2.1220013270124671e-01 7.8134427106168554e+00 -1.2595518800523800e-01 -9.7685802007397005e-01 1.2584612115828564e-01 -1.1375074817083668e+00 -2.2710500713504045e-01 7.5821655084296058e-03 -1.8347906301396238e-02 6.0892835340590867e-02 -3.1241127023022297e-01 -7.5519688219353592e-03 -1.1857474450861175e-01 6.8137474284759192e-02 1.8738652761836696e-02 -1.9176179380415730e+00 -1.4062902410147843e-01 -1.0312537394829246e-01 5.7707326587793532e-02 1.2279384083180157e-01 6.9792185291522688e-02 -1.7404088415259991e-01 8.7324545992324731e-01 -9.2469775738331972e-01 -2.7882798677444143e-02 -1.8553254335976219e-01 -9.4699340155596223e-02 8.4943943682744411e-02 -7.5391633306350014e-02 1.0723995250899541e-02 -7.3252494758462086e-02 -8.5846681724248447e-02 -4.8691919591644928e-03 -1.1219189571756660e-02 -1.1244861114132516e-01 5.6765772520473677e-03 1.0819511805468474e-02 5.8596029178560764e-02 -1.6492202568281430e-01 1.6841866701736044e-01 -5.3830779291664153e-02 -7.4570954239400536e-02 1.2567872551753037e+00 
      </Row>
      <Row Index="4">
        -1.6078447850494119e-02 3.3438570803547468e-01 4.9135530496019930e-02 3.3751983929199714e-01 1.3035602640352694e+01 -7.3459105996288965e-01 5.3590261149440280e-02 -2.0116639170820738e+00 -5.9001611080381627e-02 2.2396158813721468e-02 -1.4462721357818356e-01 9.4850568877275818e-02 2.1416925475407445e-01 1.2752484603825697e-02 1.5300449639440694e-01 -1.9163445580833263e-01 -6.3042709617799939e-02 -3.4428760308651052e+00 -7.9567664210704412e-03 -1.3227358623646554e-01 3.7825408139817107e-02 2.4547367262096550e-02 9.4247799245824770e-02 1.4474474194718306e-01 1.0721689119846083e-01 8.3556922761491542e-02 -1.0851683941974702e+01 -4.4264358116536706e-01 -7.8433369742752501e-03 3.8876981300632002e-01 -1.5211862095487091e-01 -2.6209240298710614e-02 1.0132104258520620e-01 -3.3011877160239395e-01 -2.3879171277518327e-01 3.9514088985537418e-03 -2.0920627011113885e-01 -9.1506537604180996e-02 -1.2481291251821601e-01 7.7882100547494193e-01 1.4591883610114327e-04 -2.1034576040935113e-01 -6.1000715080507598e-02 -5.5962286027542905e-02 7.2673350131932046e-02 2.7222113533154596e-01 -6.6356045204965020e-02 7.9301137773599062e-01 -1.3045549144008243e+01 1.8069148137683246e+00 -4.0722558238811662e-01 1.2336479908921223e+00 -1.4999521431054044e-01 4.1816855929017023e-02 5.8036833545747568e-02 6.1777485901036988e-02 4.4808252155904324e-02 -5.4293797182922446e-02 -2.8516719464249307e-01 -1.3437676084060091e-01 4.9729601662560005e-02 8.9713198884639023e-01 4.1363250123989670e-02 -3.6482384155875730e-01 -1.9195198665761748e-01 -5.2359705780000189e-02 -9.2029151346699270e-02 -5.3770483175207717e-02 6.4662638035144215e-02 -7.9638792316923834e-01 6.6840644063961712e+00 -6.4150230568898792e-01 3.5181052481904555e-02 -1.4608714871929820e+00 1.5276518017911855e-01 -2.7295459565522401e-02 -8.3673265562387744e-02 8.2912104225628414e-01 -2.6651111514311016e-03 1.7647389296477016e-02 7.5369094063169953e-02 -1.5764931224664841e-01 2.9193484459104674e-01 -5.3227042380046441e-01 2.4270352828801002e-02 -5.0510235838522113e-02 -4.9514653601342794e-02 9.1436823440494419e-03 -5.6537045112507464e-03 -1.0828494347830399e-01 4.5052320376832170e-02 1.1598431360234582e-01 -6.0397784035136404e+00 -1.1148845190786258e+00 -5.1715463495533465e-02 -6.9541321094177300e-01 2.2121441037311406e-02 1.4691595745408053e-02 8.0276124938069293e-03 -1.2764925652975875e-01 -2.1152130606218258e-02 2.3109134011949285e-02 -4.6991849159480521e-02 -2.8928528405465770e-01 4.7207705129391153e-02 -1.1533415456245506e+00 1.0240389651360888e-02 9.9046920499668650e-02 -4.5905751593598360e-02 -5.0110931474048423e-02 -1.2741235236280307e-01 1.0212549717955044e-03 -1.2556819214876114e-02 -2.2879132659490531e-01 1.4508778265479943e+01 6.4593220045580035e-01 1.3585605417234353e-01 1.6745821535750638e-01 1.9508296189307395e-01 -5.6504261203676152e-03 -8.5001181169548634e-02 2.7202964689063486e-01 2.3930650309068516e-01 2.4165360577363851e-01 2.4761535169131993e-01 1.0357294025272876e-01 1.0380612512144519e-01 -1.4021038727521655e+00 -1.4706276434769433e-02 2.0094837539272892e-01 9.6638904609556972e-02 8.2370020279375109e-02 1.5309715560622461e-02 7.6645903454238717e-02 4.0705198739227830e-02 5.4103793947404077e-01 -7.4546838063497338e+00 -6.0046507625346535e-01 -8.4721481895984149e-02 -1.2371487871708120e-01 4.3297082387818230e-02 -1.3171260287172281e-03 -3.9423919471670999e-03 -6.9895588634569503e-02 -1.5921791656309220e-02 4.7540947356516762e-03 -8.1180415792676389e-02 8.7419191646192121e-02 4.4487155576710631e-02 1.1084926951735052e+00 4.5103421907254342e-04 -2.7532618613767042e-02 -3.4808303458244108e-02 -4.1954344648475347e-02 2.9070998133526066e-02 -4.7291845584238351e-02 -8.9371360644816836e-02 2.7576256416155825e-01 -1.8376688359062132e+00 -1.2930840307552325e+00 -9.5591059483186941e-02 -1.4310281386476764e-01 7.8125986598502010e-03 1.7134589232924720e-02 2.8056898557313123e-02 -4.2674039219422255e-02 -2.2765568126610677e-02 1.9386239277780076e-03 -2.4022930236481006e-02 1.2396109996803870e-01 2.4593574698936506e-02 -5.1427068119342700e-01 -3.6796427697386412e-03 -6.4037349434760429e-02 -2.9353170301932144e-02 -2.5514813209466164e-02 -2.5682077187908280e-02 -2.7428374662833238e-02 1.2328012884578271e-01 -6.6527616701262859e-01 2.4443715499757981e+00 6.8600073374663340e-01 -2.1336556845948679e-01 6.9607906288696264e-01 -5.1489105924022328e-03 -8.4000412023338966e-03 3.6765512935316907e-02 -6.5404246288599449e-02 1.2575947851498612e-02 7.8822299819114733e-03 4.9071287243967601e-02 -2.6573838768214321e-02 -6.6876349526317352e-04 -1.2968186369217913e+00 -5.0434322801063388e-03 -1.3077446389304670e-02 5.5415394154896790e-03 1.5387879671113474e-02 2.1191473343095485e-02 -1.3666137960092969e-01 -3.0885790262741492e-02 8.3755064162945411e-02 -2.0923109540930831e+00 -1.1969446433883231e+00 -3.3449710525758036e-01 -8.6672636739190456e-02 -1.1042527642363634e-03 9.6850556892265072e-03 2.1440567023161453e-02 -2.5234865509513221e-01 -2.7810824870667161e-02 -1.8639812178354669e-03 1.3041146553896274e-01 2.0484556322199719e-02 1.9018413000616123e-02 -2.6718002080162759e+00 1.8644194024284851e-02 -9.2415069092548763e-03 -5.6760205103812952e-02 1.2939389611511153e-02 4.5195029688993749e-02 -2.8653590082161917e-01 -4.1752409622424450e-02 1.2307650156829397e+00 -7.6697103447857211e+00 -6.3995380048682826e-02 5.3987857397050955e-03 1.1845341393340114e+00 3.8160292084013669e-02 7.4926283744396558e-03 9.3368342686403941e-02 -4.2727863540947836e-01 -1.2829351885356735e-01 -1.6827402939668737e-02 -2.1275372418186325e-01 1.0213945677786027e-01 9.1089538980131488e-02 -8.5644258188921751e-01 3.6878634858474153e-02 3.9891147691728503e-02 -1.9785931803545591e-02 -5.0663935293993434e-02 1.1855442038075714e-01 -4.0934857605276104e-01 -4.0664639085132237e-02 -6.6706545456381405e-01 8.8394116054829937e+00 -1.0573239104170165e+00 -1.4187440648473582e-01 4.5995265297381316e-01 -1.4731540513599517e-01 -2.5043368226240281e-01 -2.4707180947047838e-02 -1.3228352154405468e-01 -1.0551998673820275e-01 8.9354187565220643e-03 1.4327130727711540e-01 2.0483983795284655e-02 -7.6271754596919830e-02 1.8235959843837566e+00 -1.3843350776177444e-02 -4.5367159970503335e-02 -5.8250783302314733e-03 1.0722192924558265e-01 3.6218636894870766e-02 2.9731517904339799e-01 -8.9565150456218268e-02 8.6365543763618835e-01 -8.6111804731211041e+00 4.6152939794292758e-01 2.6681099431475272e-02 -3.0067556802530460e-01 -1.1430279662239945e-01 1.0266644762964069e-01 8.7052340382756457e-03 6.5373895006930957e-03 9.1753075113198378e-03 4.7901317074530644e-02 -1.7212334517769451e-01 -2.2718296490079844e-02 -7.0682406883862431e-02 1.8465544767726603e+00 -1.4775818268978516e-02 -3.4415470602507797e-02 -4.3796210264122996e-02 -7.5737294693605628e-02 -7.6462212645368718e-02 -1.3827559117178509e-01 -1.2272005770440853e-02 -1.2463275894297056e-01 -9.2666842924059889e-01 -7.9053908222627561e-02 -8.7676172363791507e-02 6.9142874026304479e-02 -1.7357870296356362e-01 6.1114848877815396e-02 -2.3084980205033540e-02 -1.1152186163443185e-01 -1.1404403631481279e-01 4.9868361492912523e-02 -2.5513631759040090e-02 -8.8550846630912478e-02 -6.0354354770869430e-02 7.9993902058024244e-02 3.2516929337592496e-02 -2.6998229202006829e-01 -3.4163060221879912e-02 -1.1858496002198307e-02 -1.2241095781075083e-01 
      </Row>
      <Row Index="5">
        4.4967966193209530e-03 1.5232952504812491e-01 -1.6474448592042412e-01 -8.8047265106711059e-01 -7.3459105996264917e-01 6.8819138567827824e+00 -2.0981453191970423e-02 6.8932021555473877e-01 -1.9578591266041452e-02 1.2081800630825525e-03 2.4728437107651123e-03 4.1370438282681166e-02 -8.7867423137807099e-02 9.1571524127303620e-03 6.1164633084062345e-03 7.9256221064284621e-02 -7.6999045482045655e-03 2.0679186959702447e+00 1.3396550030426599e-02 1.3633117903387934e-02 8.5369717840791653e-03 -4.4962589555837609e-04 3.5816880173228302e-02 5.0177021948915324e-02 7.7248145281632305e-02 9.3522565463724561e-02 8.5477797457899340e-01 5.8763867977893511e+00 -8.2597827908339430e-02 9.5337953993162317e-01 -5.3239390738006029e-02 5.7685080318589056e-03 1.8361474918025828e-02 7.4936659035151898e-03 3.4276715504188947e-02 2.3585795678164191e-02 -4.6634409369750919e-02 7.3339076265532321e-02 3.5404591459017642e-02 2.3299311270543641e+00 -2.0285008353797235e-02 -1.0470612254672211e-02 1.4406056146585938e-02 -8.9671501018731670e-02 5.4810392470748759e-02 -2.9099496623377702e-01 -2.1093485443522580e-01 -4.6914962501266155e-01 1.6781434535273783e+00 -5.4059898157332142e+00 1.9127099826122157e-01 -2.0618811767274914e+00 -5.8890642163572204e-02 1.2222803572970242e-02 4.1961202636314351e-02 -2.0447332106123056e-01 1.0449049572686629e-02 3.6694067034869979e-03 2.0867786183794695e-01 -1.0890588956112196e-02 -1.6414290646515353e-02 2.4783785892413535e-02 7.1096583865853560e-02 6.3190290331460980e-02 4.5219010732951884e-02 1.3427021369164990e-01 -1.7671778740061192e-03 8.8402818674831296e-02 -2.0150541310345119e-01 2.6931906970664293e-01 -4.9716673636959513e-01 6.4513924851147342e-01 8.8968398995291076e-02 -8.7365416276905039e-01 5.8043259454353638e-02 -5.6778161514124473e-03 2.2695456709689692e-02 -3.1948534833101550e-01 4.8598724238522857e-02 -3.3014875629338233e-03 1.7143167735868989e-01 2.7448955847789010e-02 -3.4616375186262587e-02 -2.1753164125402744e+00 -2.3791851391703651e-02 3.5993872676647427e-03 7.2270252739766533e-02 2.0926433868611508e-01 -9.3570388630031323e-03 -7.2844685113784280e-03 -9.0953501292445144e-02 1.3229900494750896e-01 2.3193708600924323e-01 6.9706240704962976e+00 -4.2041273871358475e-02 1.7135813634355590e-01 1.0453077739421241e-02 -4.0112473094695324e-03 -5.1493483689522557e-03 2.7577514392111126e-02 -2.3367490261041429e-02 4.3377902761991133e-03 3.6825852069117065e-02 2.8716242961980457e-02 -3.3346139319721932e-03 1.0588781219735399e+00 -1.1388889294129151e-02 -2.2193928808998294e-02 8.4186592180723590e-03 -8.3710232746857360e-03 -2.9244065588905799e-02 -2.8256939724727870e-03 -1.9911173937047982e-01 -3.8396856739192986e-01 -1.2985379938222779e+00 -5.5612426549425882e+00 1.0128641862342794e-01 2.6103196879944529e-01 4.0992378078955359e-02 -2.4681438247253835e-02 3.1513439394911608e-02 1.0180446601593762e-01 2.8896443223160956e-02 4.7294267938346429e-02 6.3725414788866702e-02 -2.1523730898516807e-02 -2.7944961982343822e-02 -2.9818273317784305e-01 5.9734051166023025e-02 -1.1781460826327889e-02 3.2714400533234926e-02 1.0222666331198441e-01 -2.5615128835530590e-03 8.9882811901439430e-02 4.6445876417491365e-02 -1.8807613021335637e-03 4.0357957374099684e-01 4.5505271758311450e+00 -1.5425708115561515e-02 -1.6940781613074662e-01 7.5916002587049121e-03 -2.1239862031580460e-03 1.5284419198416860e-02 -4.8933104133531441e-02 -3.4760683343233900e-02 -5.7236979986445627e-03 8.7299795976226516e-03 -3.5207075014935821e-02 -3.6896929421492558e-03 -6.8748436864827589e-01 -2.0056138141617712e-02 -8.8781949302727675e-03 1.4630152096408597e-02 -6.0307936773738597e-03 -1.5886210363351652e-02 1.0770617793958825e-01 -1.4419342041397509e-02 6.3868881130911492e-02 -2.6906000378961042e-02 7.0093553281992964e+00 -4.2007549414174720e-02 4.6005733159754802e-01 2.6551574354833081e-02 -7.9982145976957159e-03 -4.8236843744068503e-02 -3.0069197222034785e-02 -4.3864431155006031e-02 -1.4341739942779305e-02 6.4070126343786615e-02 -5.1800997786926706e-02 1.2592798136025207e-03 8.5474834405441757e-01 -1.2216522741013522e-02 -2.1137401533970739e-02 3.3610896516987065e-02 -6.5108273954855009e-02 1.4482260485923701e-03 -1.5411902960649684e-01 -7.7091945381123350e-02 3.2072171755727685e-01 -8.5108186769917937e-02 -3.8420650178809082e+00 5.9535543988517847e-02 5.4044093645989677e-01 -8.2016808180433321e-03 -6.1655935332073919e-03 -4.0614189552668462e-02 1.8579001539031276e-01 2.8953384705350624e-02 7.5063653660836348e-03 -4.8124059569431554e-03 1.8496733077943417e-02 6.8581519619213341e-03 1.9996650770941504e-01 1.1004465076185299e-02 1.3998914262797122e-02 -9.3013455516467551e-03 8.2331513816582824e-03 1.4173885262766402e-03 -2.5698769217130102e-02 6.6630814848033515e-02 1.2646787214933330e-01 -1.8986055745286301e-01 4.8884526862384119e+00 1.5083879146298423e-01 3.2212630909571105e-02 1.9797524665477694e-02 -2.0116564973395295e-03 -8.7439965862341484e-03 1.5045083414386057e-01 -2.8506073091436490e-02 -7.8216799111517875e-03 -8.2866184543727156e-02 -5.5472874549449158e-02 -8.8770784685681323e-03 1.5516890078866805e+00 -1.8801500611238510e-02 -1.8018674306080992e-02 3.4875964969084808e-02 5.1494062141736310e-02 -3.3033457801117452e-02 6.5856953099437093e-02 1.6014935899340718e-01 -4.9321908576350909e-01 6.8883770647381748e-01 7.6309992934506998e-01 -5.9327750855133241e-02 -1.0712974447358725e-01 2.6835843409541097e-03 -1.0413638937037175e-02 2.9065864462094936e-02 1.0444552836575696e-01 -3.5991098780032704e-03 -2.5496687966232869e-02 1.4459374882962978e-01 -9.2308843812778527e-02 -1.8346584922792612e-02 -9.9645527632181197e-01 2.3312707639016876e-02 -8.4776594164323055e-03 -3.5914790959798978e-02 7.1649009615036091e-02 -8.1097623304545910e-02 -1.7736844498855525e-01 3.5706858289272225e-01 1.9615202950801411e-01 -8.1653162047705163e-01 4.1408999414268797e+00 9.1991145553779588e-02 5.2705787310491012e-02 1.4494010643938005e-02 9.2316164147691147e-03 -7.1292416207082761e-03 2.5263328488632791e-01 -8.5245375822371947e-03 -3.0872184652641259e-03 -5.7879555493366493e-02 -2.0701984585979463e-02 -5.7641660492714847e-03 -1.0374283709850640e+00 9.9106589435349439e-03 2.0820751780385945e-02 6.9081058707526163e-02 -6.9701509557002758e-02 2.9051610319798950e-02 -1.9341573603232409e-01 -2.7191235305960082e-01 -5.3359393584033843e-01 1.0098563393670443e+00 3.3216841812621585e+00 -3.0154619993167025e-02 -4.0439513835192098e-01 -5.7920657717632273e-02 1.2603451012389622e-02 1.0495483725867366e-03 -4.9459650990265759e-02 3.4993888805304033e-02 3.2375242385422234e-02 6.7635569215081029e-02 6.5541320078773280e-02 1.6831345948548036e-02 9.5661397820530458e-01 2.9249167030946745e-02 1.2137655763073442e-02 -3.6723541162790134e-02 1.3035775808334033e-02 3.6101021450957657e-02 -2.8339623361233107e-02 -1.2514138223366580e+00 8.5566184039111939e-02 8.6269144880224774e-02 2.7997821248426580e-01 5.0708155409834407e-02 3.1963091941332053e-02 -5.5844961232910550e-02 6.2353559784948621e-04 2.5388608909187702e-03 7.6598409208593274e-02 4.4921616610129375e-02 3.1773901480672731e-02 4.0775918382786235e-02 2.8229300656802965e-02 1.3110776563641242e-02 -5.2584746852093717e-02 3.3545538878920769e-02 3.8096927629634583e-02 3.1299537979105618e-02 -7.8307162112557463e-02 -1.3310245665673746e+00 
      </Row>
      <Row Index="6">
        -8.4793321710841512e-03 2.9141908085706825e-02 6.5229970453525576e-03 -1.2768870455418746e-02 5.3590261149393574e-02 -2.0981453191912164e-02 2.6463959899978295e-01 4.8380753944765792e-02 1.8244939655906241e-03 -2.2354961429806100e-03 1.5396632841767873e-03 2.7676451251968937e-02 -2.1343031166021348e-03 3.8297889323421009e-04 -3.7860280706462676e-02 -4.4725743317960646e-03 3.6226878197251362e-03 -1.0511660746813847e+00 1.5031783269021700e-03 6.1372896519626416e-03 3.6202189269081766e-03 -1.1154364161393579e-02 -9.0675644610552844e-03 -3.9713156782130922e-02 -1.0977682203671608e-02 -1.0166696817030002e-02 -6.1389201384956724e-02 -3.8264598613206052e-02 2.3283296824372868e-01 -3.8815265059051376e-02 1.2426917414802780e-03 -5.6010735021058049e-04 -1.0232424211936163e-02 -1.8452567796199915e-02 -4.4409891208448543e-03 4.3049587914745285e-03 5.3393192276690912e-02 -5.2579982183988344e-03 1.7386206168586740e-02 -1.2264914899045456e+00 9.6481103479135956e-04 1.9298694827691665e-03 -1.1710813046730576e-03 2.8101212543300154e-03 8.6141502680049629e-03 2.1564245602434588e-02 -2.7251836393810291e-02 8.3505779312055800e-02 -1.7867794239394233e-01 9.0683282359432640e-02 -2.6952705414959854e-01 8.2001537130037494e-02 1.2506116822635107e-02 2.9874988358024636e-04 2.0364842628379017e-02 4.5142837462975614e-02 9.3968792047594129e-03 -3.8632243368772205e-04 -1.8037233541487765e-01 -3.5801931525102221e-03 1.1187334456657896e-02 9.5908251526444266e-01 1.3550167701866980e-03 7.9921145539743194e-03 1.6260627943612174e-02 3.5365763420557800e-03 3.0734568261127655e-03 2.4186218520509568e-02 -8.4026273272119756e-04 4.2040515317049582e-04 2.3084884548474238e-02 -6.1993953643071954e-03 -1.8854848693263090e-01 5.3115077621309792e-02 2.4963713457765227e-03 8.1088017708897168e-04 9.4757403666541843e-03 3.3815417951491615e-02 2.5571545981847230e-03 -3.1890319127236169e-03 -1.3337681334668480e-01 4.5395316677455189e-03 -3.2148758341973512e-02 1.0519196179492520e+00 -3.6580726803242111e-03 2.4542822327034497e-03 6.3070469692340213e-03 -3.3219973887958429e-04 3.5706638687946863e-04 -4.3109772939733157e-02 1.4724002586042249e-02 -7.9199734423518308e-03 -2.5827728126714852e-02 -7.3673491363561494e-02 -5.7076829504083566e-03 1.2045190295932168e-02 4.2842385538193796e-04 -1.0206128645637736e-04 3.3460271844969192e-04 5.7559566938594087e-03 -1.0594318814019336e-04 6.6369588257009433e-04 -8.3752553700273610e-03 4.0116295817537086e-03 1.8698980627328011e-04 -6.7615629373418973e-01 1.3971168918804327e-04 -7.5017994366170411e-03 -8.2214870854907638e-04 -1.2104034130106345e-03 -1.4182374466966043e-03 -2.6046149828692515e-02 -2.2831323715095109e-03 1.0329977636822155e-02 8.7224379441075098e-02 6.5309223699997893e-02 1.5352412103631710e-02 9.1091148806246969e-02 -3.5588500424093019e-03 8.4036684235106948e-06 8.0092856472864255e-03 2.8921501615040396e-02 -4.2357715241848476e-03 2.3217824501955021e-04 -6.0481574486070021e-02 -5.3850508435417058e-03 -1.1324800090687245e-02 1.5464435955993192e-01 -1.5431833560955914e-03 -7.6355407594949709e-03 1.1709288952737911e-02 -6.4382778919747988e-03 -4.2775110073501785e-04 -1.4239932383672644e-02 -5.4769034994088398e-03 9.7355893211836277e-03 -5.3817163057474825e-02 -5.9374947865307795e-02 -6.2803402249508450e-02 8.5372771356428956e-02 -8.0542457569911154e-04 4.9934424416465050e-04 -8.1946057370044928e-03 -6.5965197548778021e-03 1.9737181495929849e-03 1.2225563925329975e-03 2.1668438351301673e-02 3.0936286230563714e-04 1.9269222885719005e-03 3.2088078596212577e-01 -1.7079239911324139e-04 -3.2043707048790217e-03 7.9548845197958094e-05 1.8674336292867208e-03 4.9553922851312566e-04 1.3148277564184751e-02 8.9299135368333636e-03 -4.0827412888404385e-03 -1.8941015613180900e-02 -6.3327067020089875e-02 -3.8470574530398469e-02 -9.3851182517929246e-04 -2.6874836062203340e-04 -6.4568110543938948e-04 -2.0251229718663828e-03 1.0930784851318542e-02 -6.4494980910584712e-04 -5.6432828305366493e-05 2.4909451986025021e-03 -1.0109792309491508e-03 5.9779809708583858e-04 1.8091515590801244e-04 -8.2033795454723767e-04 3.3495953385384546e-03 -1.8203794006821390e-03 2.2602792687676887e-04 5.4821380832558607e-03 1.2343760458649253e-02 -1.4733437081375922e-02 2.4348713403328632e-02 -5.8125210266602792e-03 3.2358792946107363e-02 -1.9340744006178986e-01 -1.2975328277590320e-03 -2.8047649392515164e-04 5.8809785337790230e-04 3.3231986257024372e-03 1.3318240509457166e-02 -1.8069157037137809e-03 -1.3540360386957472e-03 -4.5519367021725030e-02 2.4685966809282079e-03 -1.1675645920037076e-03 4.0398279818171456e-02 -2.1748532366671841e-03 -5.0163775793810213e-04 -4.2634651192298848e-03 1.9324629893803344e-03 5.7646942398990875e-04 5.3486414579191760e-02 -4.7529689368364207e-03 -7.5571097662802608e-03 -3.8291521595646964e-02 -3.2671357235916791e-02 -2.5493081873166068e-01 -7.0258678560012611e-02 9.8983171375831422e-04 1.1534148577599466e-03 3.2052027491456438e-03 7.3144638076836910e-03 3.9334298199970178e-03 -1.9444650574443234e-03 9.8114021974298832e-02 4.7014844948230442e-03 5.8667256448866056e-04 -5.7324697779868106e-01 -1.6087702573646312e-04 2.2714393074446384e-03 -1.6568636786572833e-03 3.8821567877399396e-03 5.3477573002776030e-03 -1.7505883426933919e-02 -2.5752091449491386e-02 1.0045313262308488e-02 -2.5713675300993430e-02 -3.8795525316295439e-02 -9.4774663890348360e-03 -3.4000602386732311e-02 6.7823373338749254e-04 -1.2589321441604344e-03 1.0348121981400693e-02 -6.2972565293447635e-03 1.4824111536264188e-03 -2.4980812582400839e-03 -4.7845341838230582e-02 -9.2857353247375474e-03 -1.0332573342579516e-02 2.2724912146211568e-01 -1.0103401500425424e-03 -4.4866205121546713e-03 4.9090231052799794e-03 -1.3608971204326185e-04 1.3885819714030802e-02 -1.3710251134026838e-02 -1.7849380940542670e-02 3.0855121822853215e-02 9.8950468207804981e-02 -2.7164349478232916e-02 -1.9188702943249264e-01 3.9913366074543544e-02 2.5000683979993152e-04 4.8931637146331286e-03 -4.9538354748398378e-03 6.7850238469515092e-03 -5.6811820493857324e-03 -1.0434672058719170e-05 7.5339000367760211e-04 1.3199203886844070e-02 5.0679864495292342e-03 1.4230187926098881e+00 -6.4323148003424977e-03 4.7808295720999311e-03 -4.0621544390825656e-03 5.7311202924456373e-03 -2.9480088389934734e-03 -2.9539070161864040e-02 1.2111569051247790e-02 6.4077773323250008e-03 -1.4034791388062906e-01 -5.5200290027511145e-03 1.9304339180426228e-01 3.6623589300514792e-02 5.6967857575081909e-03 -9.8405126953690983e-04 4.1939745844760731e-04 3.3524990899557489e-02 2.1053308025563303e-03 2.3197353118194633e-03 -7.3530281823746768e-02 -4.2989541016628880e-03 2.0741068287590522e-02 -1.2919371022764320e-01 4.6806894756148800e-03 -5.8801364831926198e-03 6.6893672520871679e-03 -5.9896148201365141e-03 -1.2654350879604027e-02 -1.7743484921676819e-02 8.4189918996377039e-02 5.0800134849615999e-05 -8.2628002133616745e-03 -4.4481268493677239e-03 -6.8615293912015804e-02 -4.8480626962577487e-03 4.2328200760508982e-03 -7.0332709857694317e-04 -1.4066746558561280e-03 -1.0600681382873034e-03 -5.6910849052605565e-03 8.5225888404173097e-03 -4.2351962814701792e-02 1.5560631766825313e-03 5.8762863762919348e-03 2.8894254036925540e-02 3.1954149193195391e-03 1.0647426360750965e-02 -3.0116698459277277e-04 1.5819835811736504e-03 7.6749305655971642e-02 
      </Row>
      <Row Index="7">
        1.9834449679659638e-02 -3.1114683825917133e-01 2.5709508031209216e-01 -7.2051116063309095e-01 -2.0116639170822523e+00 6.8932021555574252e-01 4.8380753944737620e-02 4.7613857536715592e+01 -2.1355021681279569e-03 -1.1583393783292092e-02 -7.3865442315185670e-01 3.0054840009212630e-01 4.1826007127128959e-02 2.5833440698869205e-03 5.1851519057021761e-02 3.1431898648695533e-01 -9.9408511780748471e-04 -1.7207924737353506e+00 1.0050976270719308e-03 -1.2851382685523865e-02 -3.5494931080553349e-02 -4.7603272275823796e-02 7.6383248051948474e-02 3.3718090951355834e-01 -3.3465934344516113e-01 4.1523743774210387e-01 1.7908920603077854e+00 2.1721119678440245e-01 2.2318743535075913e-01 3.0522180395941794e+00 6.1381681963774179e-02 7.5123186187574034e-03 -2.8204801866827572e-01 5.7125728976424861e-01 7.7059156693825362e-02 1.9111566741971075e-02 6.9050859425991418e-01 1.9609944637932669e-01 -6.5340046928202236e-02 -1.2410749438033680e-01 3.6405366882066352e-02 5.3886434449010166e-02 3.2044287605622745e-01 -1.8818208628847952e-01 1.6910677791239082e-01 3.0612746452292627e-01 1.0485375755107684e-01 2.9793917658047953e-02 1.3034676285900268e+00 3.8263100338615730e-01 -1.5409365206729467e-01 2.3558937387608825e+01 4.6905348867237129e-02 1.0141411292769743e-01 -1.5306273280766813e+00 2.2105296169213562e-01 1.7079480727445551e-01 -3.7366469153028999e-02 -5.8680453399416366e-01 1.7692071211200933e-01 -2.0992427117525123e-01 -2.6886867151382048e+00 4.2919844448559390e-02 1.2962647810097004e-02 3.0681184942421497e-01 2.2968510487886139e-02 3.1844590240911068e-02 3.6094850719371724e-01 6.3178026066099724e-01 1.0125968923959658e+00 -1.5150964164554925e+00 -3.4746706661577309e-02 -1.2322010472879784e-01 2.1146824482376768e+01 1.2446840303864592e-02 1.7411773541700100e-02 -1.4896072041717006e+00 2.5104191262229753e-01 8.5672300102601448e-02 -2.4833837256719001e-02 -6.9240944423709028e-01 9.3411951613603342e-02 9.9271718901612849e-02 1.4830137901617180e-01 -9.5943916997888221e-02 -1.7213197379911217e-02 2.3990932663789502e-01 3.1828927689665198e-01 -3.3761245979040115e-02 2.6021069399512198e-01 1.3756964229033553e-01 4.7892965546679400e-01 9.7299851604679577e-01 -1.9841663369536630e-01 -1.7742325194066072e-02 3.0613996874295257e+01 -1.6067916332440417e-02 -1.5310093587621330e-02 -3.5329127162085583e-01 -3.9703827854746576e-01 5.4917479025901446e-02 -1.8476983463016884e-02 -1.6978202019508334e-01 2.5848970520561643e-01 7.8286262176152817e-03 -1.5233939440006390e+00 -9.0609460197993395e-03 -3.1123639925814996e-03 -4.4343147890333501e-02 1.5588667763600191e-02 2.3611434769965987e-02 -1.3450998852092466e-01 5.0378964859257458e-01 1.3641271866116500e-01 -1.1279822012504688e+00 2.8862861998956235e-01 -7.9317218043417695e-03 -2.2042135413968413e+01 -7.7484618364530716e-02 2.4372382818072288e-02 -1.3721576087992495e+00 5.3219982247774533e-01 -7.1598366156153420e-02 3.8698375570019761e-02 -1.0195209174880249e-01 1.3619334043518394e-02 1.1336719583542099e-02 -6.6361492892740337e+00 -2.0001368943966741e-01 5.3253761312067854e-02 3.3804129883541437e-02 1.6401395961982826e-01 -2.4259539195276590e-02 2.0212339836745352e-01 -1.8368951681480380e-01 -3.4011465518309969e-01 1.0616434936850785e+00 2.1939910615352998e-02 -3.9005817146643709e-02 2.9922421170661853e+01 -2.1514638279204211e-02 -4.5354021410812760e-03 -1.0296560448509675e+00 -1.8406494064597120e-01 2.9147158395681091e-02 -1.7429872926882466e-02 -1.4957862707209946e-01 -1.8538419125112138e-01 -1.0243274704662807e-02 7.2232545717459506e-01 8.6327834664005135e-03 -6.8889380123903741e-03 -8.0584436975425985e-02 3.0834973307600912e-02 -2.0518538182135865e-02 -2.3314895687141686e-02 2.9555965104593113e-01 -2.9768063642801346e-01 2.9288557356504852e-01 -5.9642906229192483e-01 -6.1811659298275014e-02 1.3823672704253951e+01 -1.4579913148895812e-02 -3.0043244741592891e-03 3.8722814997103316e-01 -1.5332233764685474e-01 -4.1232119608481041e-02 3.2519790210629521e-04 -1.2458397072730092e-02 -2.0611860130260176e-01 3.2265485156937994e-02 6.5448289977161578e-01 -1.5841331682661101e-02 -6.6687739291452879e-04 -9.2792372574763970e-03 -1.8982931772396284e-02 2.9569986408703910e-02 -3.9225180244306346e-01 4.6580848170721606e-01 7.7643798983216150e-01 -1.3112675883281602e-01 -2.5133714645354899e-01 -4.2193709562392198e-02 -4.2092296503680053e+01 2.5674600264148160e-02 -1.8216624760244351e-02 -4.2334925710920013e-01 7.3209844261799550e-02 6.2079389153228054e-02 -2.1959184631914593e-02 1.4538613279712487e-01 1.0905150538612055e-01 -5.4965751833027043e-02 -3.0466935929898398e+00 -2.7163115169336637e-02 5.1261845878456044e-02 -3.4196755787234065e-03 4.9046597862204229e-02 -1.1766830738255145e-02 7.1102652509649200e-02 -4.0605811896084409e-01 -1.8137187580097408e-01 4.8819163611576649e-01 -7.1797454429336272e-01 -8.5369458172441598e-02 1.6733442252663615e+01 -4.3326196579767905e-03 7.6438883145974164e-03 1.2163772427084314e+00 -5.5574410892033765e-01 -1.1370828054239654e-01 3.0697849728594399e-02 3.3118424996394596e-01 -7.0346514691547554e-02 -1.6061203291955609e-02 1.3996938929195419e+00 2.5293972157986008e-02 9.9367367378449412e-03 2.5268031325250928e-01 7.1413546526860480e-02 -4.6833399898147388e-02 4.4388837514026530e-03 -3.4559119734317706e-01 -1.4519156947444163e+00 1.0869783455844306e+00 -1.1872195492903159e+00 -9.7590993626265297e-03 -4.1290032668103800e+00 -1.2059976229680601e-02 -2.9286819362696455e-02 6.8513647758368545e-01 -5.5437107725464285e-02 -2.2680205568961598e-01 -2.2663642599574013e-02 -2.6113484319523850e-01 -2.8091766479146346e-01 -1.6839267607782569e-02 -1.5700906596444475e+00 -6.0854884803265938e-02 2.0590519834365592e-02 -3.3158628635062354e-01 1.4758624456049885e-01 4.1849011299296870e-02 2.7546538660894659e-01 -7.8334956795697019e-01 2.4155330119512292e-01 -1.1394372730351743e+00 -1.2207815116750809e+00 -1.3612931387939137e-01 -2.2618241796442309e+01 4.0956754437163755e-02 -2.9632190724748389e-02 -8.7382158532059617e-01 3.1674142920876175e-01 -1.8444842487060831e-01 -2.4476271638233384e-02 2.0019778832779006e-01 1.1473470164022495e-01 1.2231509233477260e-02 1.5359349392273844e+00 6.8301328527893973e-03 4.9132703078868550e-02 6.2541884350288823e-01 -4.9020728386536622e-02 5.7283984342629463e-02 2.3059084674539082e-01 -6.4028339253042355e-02 -6.0311068719024785e-01 1.1881197966704953e+00 7.6091457961943076e-01 -1.4359421066825195e-02 2.0823933617961487e+01 -9.8355073250100400e-03 6.1944226203570207e-02 -7.4029900512221386e-02 -3.9044488273350902e-01 2.9655132615743601e-01 2.5486284016228114e-02 -3.1813578072994697e-01 8.9717413992493361e-02 -9.8431567551321320e-02 -1.2352170892090661e+00 2.8642065693879594e-02 -2.9359895786421376e-02 -1.8065496848056120e-01 -6.1103490228502887e-02 -7.1609083820566216e-02 1.8574012094627976e-01 2.1841678671166704e+00 1.4981692890640660e-01 1.5408594393216052e-01 -4.3938391569886479e-02 -7.3700083247708159e-02 -1.3471195069109536e+00 3.5660074112626367e-02 6.5920114045592195e-03 -6.6396152294169208e-01 -1.7768798249668687e-02 -3.0123643537606840e-02 -1.9760937769572023e-02 -1.3615013556100578e-01 1.0504886084337287e-01 -5.7655025811058191e-02 3.7603875175230742e-02 -5.9969451262040160e-02 9.8426834835578514e-04 2.2900216355544048e-01 -1.1785903081493410e-01 2.3027084417285257e+00 
      </Row>
      <Row Index="8">
        2.8997026199991116e-03 5.8728668389443239e-02 -2.3574505089845932e-02 -2.1331528059316263e-03 -5.9001611080288785e-02 -1.9578591266079415e-02 1.8244939655736037e-03 -2.1355021685036668e-03 5.2726614883949974e-02 1.9686159878765808e-03 -1.8545003831030860e-03 3.9390067399925153e-03 -7.8371662877704633e-03 9.4879514321587839e-04 -2.1406361857571107e-05 1.5018627947410849e-02 -5.2272600358376949e-03 1.3720566976700019e-01 2.6099029562142101e-03 7.1972047967093803e-03 -2.3802974166487407e-03 -2.6488152046648750e-03 -1.3194622599879186e-02 5.9974912002544414e-02 2.3587039522504495e-02 -4.8390651546038374e-02 1.5121891893223868e-01 6.0690538660314684e-03 -1.1826476372730443e-02 3.3513801977986896e-02 8.3659983661461060e-02 -4.6993986130589305e-03 1.5489801445444786e-02 -9.1987214793987811e-03 6.5209000894983632e-03 7.6998694856807021e-03 1.6319255634631668e-02 -1.3345605753047791e-02 -1.9528130095573245e-02 1.6361857235910568e-01 -6.4257987522360390e-03 -1.0145675772846157e-02 9.5885132360058883e-03 9.2804651852915914e-04 -6.9667603623802515e-03 8.3544129092363688e-03 -9.3053265749323377e-02 -1.1503390711127928e-01 8.9383371501246048e-02 4.7964024239463020e-02 -4.0300651494204649e-03 4.5845595993572380e-02 1.1732409542912985e-01 -2.4448345310306091e-03 9.8807386239364373e-03 -2.8253883893193527e-03 4.7994421060378973e-03 6.7092517424736653e-03 6.3741477744952788e-03 -2.4018458489812665e-03 8.0226231285530775e-03 6.1727472387389175e-02 -1.8535846723472418e-03 8.5987760463820256e-03 1.5624429930227857e-02 3.1106843056437823e-03 9.2667517807926165e-03 -4.4094438602471808e-02 -7.6369034748869774e-02 3.7252048726025493e-02 -1.4575450252736397e-01 -1.2685444837220977e-02 3.1416360518119464e-03 -3.7619480854867764e-02 -6.2793256292310112e-02 6.1736326132919156e-03 -2.3616036280121704e-04 -1.1981503697366391e-03 -1.0997140055811778e-02 -2.5266489977910987e-03 -1.7130297812937432e-02 1.9880896026196984e-02 5.2046075433699664e-02 -7.6736533001992513e-02 4.7550985499026557e-03 1.2167421599172737e-02 6.8748778491394490e-04 -1.3952338260849236e-03 5.5937735533311212e-04 -1.9196494297423802e-02 -3.6092073870432798e-02 -9.3463793074600281e-03 5.0437540998407845e-02 -1.6590276560078415e-02 4.2638637063646678e-04 -2.1718503827030528e-02 1.8059895922763981e-03 -6.8057997519048539e-04 4.1948169866499931e-03 1.5710454419320804e-03 1.7618255079047828e-03 2.1469282767443646e-03 7.3957376591255938e-04 1.8052213007099093e-02 1.9251905355040214e-03 1.1127534862086169e-01 3.7334711428748822e-04 -8.0012596914539914e-03 -7.0609364724672787e-04 1.1707031421928581e-03 2.4211347279818610e-02 -8.7967775505510812e-02 3.9695014054110744e-02 3.4149200947614741e-02 -1.3468662789803199e-01 -3.3911674923141871e-02 1.2183160363880681e-02 -6.6741189800639242e-02 -9.4658579684397851e-02 1.2490584154648572e-02 -2.2948325722454893e-02 2.4509417632389514e-02 -1.1310511979989273e-02 7.8282686507146534e-05 -8.1360519341666590e-03 1.8530228520178226e-02 4.9164952457706130e-04 -2.5270985753364966e-01 1.4924434153326886e-02 1.3020282250997715e-02 -1.2475469170238444e-02 1.6972199970019166e-03 -9.0093435130864531e-04 -1.0421056993078284e-02 2.3632436944815594e-02 2.1223005514960668e-02 5.6289606046417223e-02 -1.8359708198455258e-03 -2.6948944085318505e-04 -5.8971174211139149e-03 -4.5341277263911753e-03 -1.6718638669528342e-03 7.9304174167072021e-03 -2.9196619603643241e-03 1.9058515010416457e-03 2.0467131192204416e-03 5.7398282442797620e-03 -6.7529958377508586e-03 -5.3979387871917663e-04 -7.3588175169619394e-02 -1.5870641190581882e-03 -4.5859931576345495e-04 1.1921133107876142e-03 4.9544962701057607e-04 -2.4922645984169923e-03 3.8036272105435986e-04 -7.6539751131871309e-02 1.3778706682296908e-02 1.9512764653489847e-02 -2.2022842681462755e-02 1.9568877650017395e-03 -6.6216855473551772e-03 -2.3961953400851868e-03 -1.0595945408568769e-03 -5.3836026503277642e-04 -1.5332383654375666e-03 -1.0231534925149357e-03 9.3119181964906352e-04 3.9640465164873274e-04 -9.2208339728694563e-03 9.0351369944305577e-04 4.4807398202957538e-02 5.7257436498906692e-05 4.2210308567259981e-03 7.9595527910151457e-04 8.2764411961069883e-04 4.9076228502118249e-04 -1.4433666349716589e-02 -2.2969820954773727e-02 -2.8197715502428177e-02 -2.3322248773828526e-02 -9.9683873933205380e-04 9.0076516784190902e-03 -7.1460761092095870e-04 -6.5728166083207449e-03 1.1666488800106075e-04 -1.4318024450871020e-03 9.8846130373398955e-03 5.1325980615809022e-04 -4.2987334872119157e-04 1.6333149469078753e-04 6.5988143928704963e-04 -1.4866491943162086e-05 8.1573358135764162e-02 1.3782380947076215e-04 1.7563285008253826e-03 -4.1491086574084977e-05 -1.1185600247762810e-04 -1.9375197299194087e-03 -1.6599341136592310e-02 1.6957862881541566e-02 1.4615247231091368e-02 -3.6839859420896193e-03 9.0134106160630473e-03 9.2686434345839262e-03 7.4793144710586963e-03 -3.6515076637508373e-03 -1.6420515808466603e-03 2.2505539903249772e-03 -3.7464340610643410e-04 2.5082254417891948e-03 4.6151285841284831e-04 1.1581559648494499e-02 -2.9310452288911484e-03 1.3304730194501659e-04 1.1718320239769600e-01 -1.7395332225321690e-03 -9.5825944320580825e-04 5.0286602320638385e-03 1.2024111808227145e-03 4.9313721986854629e-03 -1.0617109356474638e-02 7.7545810430322715e-02 5.1158854775273134e-02 6.7450141000510153e-02 1.1110113755059697e-02 -4.2512488682550590e-03 2.3204022909373036e-02 -1.5099729620167493e-03 -1.5088078147107728e-03 -4.1715737507484066e-03 1.2454848109128332e-03 5.7681175097366614e-03 -1.3311853916518693e-03 -5.9929871123806482e-03 -8.1650739654199299e-03 8.9437925470196300e-03 3.1397686138524693e-02 2.5881186223998130e-03 -3.6256049601331225e-03 -2.3668810953705955e-03 -4.3478305396639993e-04 -4.7742252817215515e-03 -4.5402446961720709e-02 1.2704607563625148e-01 1.7808808907280906e-03 -1.4212573676947260e-01 1.4125964576396021e-02 1.1098405081229534e-03 6.8709371863664055e-03 1.8839543641497924e-02 2.4468944528907039e-02 1.0083394115671556e-02 -3.3914960242408289e-03 9.7207208668131425e-03 1.6787703391379790e-03 6.5091667468507317e-03 -1.0795465337960834e-02 2.7930143765065971e-03 -1.2611202858384110e-01 -3.8169546463357861e-03 8.2421020490884810e-03 6.5707644515013916e-03 -2.1226072609091809e-03 -6.9229630079727135e-03 -1.1165298668002125e-02 -5.3951724086578348e-02 -8.1142115496456779e-02 1.1817109219888820e-01 -5.9165566597430327e-03 -5.6387889059200218e-03 6.8094548898125634e-03 9.5435804094073581e-02 -8.2758287945275087e-03 -1.9476470261905465e-03 7.3882057200077983e-03 -7.4371523766273324e-03 6.0571663139380623e-03 7.7155702769228507e-04 4.2448141313511378e-04 -2.0569419025858935e-02 -9.4038513984720934e-03 1.7615810259244118e-03 -9.4195909864648042e-03 2.3744014012937412e-03 4.9078544134098226e-03 4.5954762916353351e-03 -1.2887174753361432e-02 -4.2443708658009299e-01 -7.4247042348322100e-03 1.2727694737344468e-02 -6.5235189485657297e-04 2.9324248213555377e-03 4.9834851734527276e-04 7.1290556756720941e-02 -8.0536568152645011e-03 2.2781302957947452e-03 4.7986856427538038e-03 4.0629695065885372e-03 7.7909967461088706e-03 -3.4738433776766967e-03 6.2877817149647811e-03 -1.3951882052681100e-02 -4.1454432469257467e-03 1.5754047116124472e-03 1.4352953300250545e-02 1.4512328544308598e-03 -3.0612847433465957e-04 -3.8943524564352278e-01 
      </Row>
      <Row Index="9">
        6.4826897720831177e-03 -1.4652231988098025e-02 3.9856627388413033e-03 -3.8213420953565613e-03 2.2396158813716018e-02 1.2081800630575658e-03 -2.2354961429791979e-03 -1.1583393783253362e-02 1.9686159878699698e-03 2.1313047115524029e-02 -1.3946546074371227e-03 -2.4144580189087795e-03 3.8243904555765973e-03 -7.0323001051242058e-04 -1.0829339271674397e-03 -1.5233814296996900e-04 -1.0876980629122871e-03 4.4898099100185634e-02 2.0264022446702082e-03 -1.2441152635934052e-03 3.7445265938505627e-04 6.9547614201771399e-04 3.2142762484248591e-03 4.7905350549086378e-03 -9.1548185814817988e-03 -8.1017392421517259e-03 -3.2368076892984467e-02 -2.5350651948775724e-03 1.1226830798288210e-03 -7.7720588977978448e-03 -7.1729333311703553e-03 -2.3906615732914001e-03 2.0880853487775792e-03 1.2487537487367987e-03 9.2514092028928106e-04 -1.9530379080196386e-03 -1.8305560387212984e-03 -1.8942813639407216e-03 -1.2486785387568924e-03 7.9939792253181791e-03 2.5298832667900342e-03 -1.1858410240515337e-03 2.7402500303457659e-03 1.6400319841545765e-03 1.2992549548513289e-02 1.1991108088660999e-02 -1.1340487338426649e-02 -5.3347763145356027e-03 -1.2565806791051261e-02 -6.0423701069287020e-03 -3.6496488560841525e-03 -2.3420183715491906e-02 -8.6036704756967935e-03 1.1453530468785812e-02 -6.0522472448677565e-03 2.5812260188594182e-03 5.3663785242101612e-04 9.1664235826325474e-04 6.7331124800752611e-03 -5.7193670094783846e-03 3.1303276603197004e-04 4.8875790587017826e-03 -3.4896529774001870e-03 -4.4962210256265685e-03 2.3409168211687603e-03 -3.7488493545151094e-03 -5.9593213717505054e-03 -4.7436238114461834e-04 1.3059217583892051e-02 1.0541883172116004e-02 1.2445368250658586e-02 3.2917537272022374e-03 -7.6427344901106855e-04 9.5272784258567111e-03 5.7265007939691741e-03 -8.8784986657832396e-03 -7.6127715429802970e-03 -1.7039678096791248e-03 -3.1727993089898047e-03 4.7706569987195752e-04 6.3383460286920079e-03 2.8107159683616158e-04 1.7970590889158139e-03 2.9883801966328435e-02 2.1583203899701222e-03 -2.9780277571390045e-04 5.2736314592826457e-03 -3.2582737994433300e-03 -3.6023998059367792e-04 8.8145128560942546e-03 2.0143596536451695e-03 -2.4114257148155020e-04 -1.5188174258970748e-02 -3.3465958116586890e-03 -8.8467166994159402e-04 -3.1131336974207710e-03 -2.5280483376065072e-04 2.5701676030374381e-03 -1.1627628864394849e-03 2.7406018927998207e-03 -2.5183356743364166e-03 -9.3040751030002897e-04 7.3843368613112081e-04 -9.0328291547802676e-04 -5.0463679565494269e-04 1.1351043248116185e-02 5.9580696380384689e-04 2.0279822298562601e-03 -4.0667059503236109e-04 -5.4486981366344686e-04 1.8205245155595746e-03 -6.3760303262386658e-03 9.3368854718079292e-03 3.7721613276552046e-03 1.1756346271773105e-02 1.3898925639195606e-02 1.6808192870519665e-03 2.4199556731451799e-02 1.2789350344782058e-02 1.3924678178270969e-03 -4.3205058909095680e-03 -5.5376033758170774e-03 4.1272937048405824e-03 -4.6413245214242177e-03 1.0376383680342320e-03 4.2735074309703481e-03 4.8284642764458564e-04 2.3102233703212315e-02 -2.4969901706985991e-03 3.6537534714774621e-03 -2.1118348952753893e-04 -9.9903263663490556e-04 -1.3455800546867810e-03 6.8410917644550822e-03 -6.1430202501409781e-03 -2.0299338340257558e-04 -1.4710209417070453e-02 -2.6075927330572110e-03 1.1972200191314596e-03 -2.7200149522149698e-03 -1.4825456179297497e-03 -7.5434253106083024e-03 -2.2320134928011885e-03 2.6069838441050656e-03 7.8676109373665079e-04 -1.2292822262947732e-03 3.8952201691928000e-04 4.1812749940381183e-04 9.8191929650645984e-05 6.4597445286711346e-03 -2.1027617695305824e-04 3.9198537899137395e-04 -1.2434683422726898e-03 -1.1502035432370955e-04 1.3354527218851124e-03 3.0175333545167126e-03 5.5665752132805554e-03 -7.1744566773232748e-04 -2.6314861287288520e-04 -5.8977630610838466e-03 -1.0126762351157397e-03 5.4203466233189264e-03 -4.6389677583270103e-04 -7.8346191492303821e-04 3.2596300455227308e-04 -3.8770924297695732e-04 4.4175791606653890e-04 -7.1197420933380949e-04 -1.1825709959519092e-03 1.3100756518058382e-03 -3.0176555687333256e-05 -3.5986152719169023e-02 -2.5950638250694339e-04 -1.2066304824861320e-03 2.8867398347812270e-04 3.1077167836522052e-05 -7.6280325835166411e-04 5.0546080154662137e-03 4.2778666478972844e-03 -3.4645055317931764e-03 -5.5735724319207125e-03 1.7066947060735793e-03 -2.5388085911862437e-03 -3.3970317395869316e-03 6.3600984177582319e-04 5.9627673705177462e-04 -6.3347898316038994e-04 3.6183680106165114e-03 3.8240655329933784e-04 -2.2194162329772316e-04 -9.4841821631560987e-04 4.8493785243461075e-04 -3.1778796882741221e-04 1.1046235957242068e-02 8.9605764571745901e-05 -3.4713715602380213e-04 -9.2925451404533409e-04 -5.6312548115077989e-05 -3.1893145772964844e-03 9.2534238919524201e-03 -2.6395839453193588e-04 -3.9658360141083884e-03 -1.3457455295245869e-03 -4.4156005516201337e-03 -1.5568178083176459e-03 7.2921561442913195e-03 -1.7162340671180889e-03 -4.0916562825716223e-03 1.8048325094872416e-03 2.7053665100451548e-03 -1.7136831200838948e-04 9.5059702545248172e-05 -3.7055590544696313e-03 1.4649225909944575e-06 9.9941628237031890e-04 -4.7032727948498332e-02 -1.2984802285925514e-03 -8.3197993764077107e-04 1.2923817338104408e-03 -7.3671065673826600e-04 7.6261065904708741e-03 2.2106531483045231e-03 -2.2550594823350905e-04 6.3153850050195097e-03 1.0721824973187400e-02 2.0049494543406673e-03 -8.3789897228150282e-04 -3.5250289850083875e-02 -2.7982452573990205e-04 -1.4384305650043368e-03 4.7668351643669355e-03 -8.3835624770990155e-03 -2.0156026229584665e-04 1.1246789100108929e-03 -1.5340216812141541e-03 -1.9770959000500669e-03 -6.1900574417706611e-05 -3.8289274137960749e-03 -5.1617131816919775e-03 -1.6511006387182790e-03 -5.9111526649944081e-04 -1.1972354404653799e-03 1.5701587372479127e-02 1.5699740929221280e-02 -1.5024838343454895e-02 1.8200999353111820e-02 2.3893403135263471e-02 1.0892863309165838e-02 -2.3854558598649677e-03 3.1216761632204819e-02 4.8852710625396341e-03 -5.1672595951562053e-02 1.3294936764120544e-03 2.9591653597181083e-03 1.5428556384114233e-02 -6.4769553561059309e-04 -6.0606605636321625e-03 5.1956488619746277e-03 7.8333710158825294e-04 -6.5791233187283110e-02 1.0711167667474875e-03 9.0052388466615920e-03 2.5044890082148745e-03 -1.3986233904430764e-03 9.2228562838023113e-03 1.7930851169346160e-02 -2.1481273336838295e-02 -2.0528108596254764e-02 -4.1137792143410339e-02 -1.2482809495259629e-02 2.3184012809719153e-03 -8.8370684709822359e-03 -8.9669061444685033e-03 2.7586538251449577e-02 -4.4575323568982880e-03 9.6692384049835503e-03 -1.2478025594514603e-02 -2.3321970045848033e-03 8.7969897424283287e-03 -4.8626647444742549e-03 -1.1802272170102115e-03 3.2516721022185724e-02 1.7101090523729949e-04 -5.2191394167382561e-03 -1.6581211160117799e-03 -3.8370669286081304e-04 -4.0516715794564149e-03 2.1060450754745567e-03 1.2803790023702270e-02 5.5837270048486815e-05 -1.7384933570106197e-03 -7.7526985003293974e-04 -8.6583881703921630e-04 -2.1838668093391940e-04 -9.3774971226054035e-03 1.0762530635652634e-02 -1.0347554901473737e-03 1.2908404045632618e-04 -2.0948788643662527e-03 -3.8255185088351467e-03 1.2573391163995121e-03 -1.4439899886815805e-03 5.1950305934983683e-04 8.1382176348926069e-04 -3.8713433987132557e-03 -3.9271622674130219e-03 2.8185648790442011e-03 8.9906522905997585e-04 1.1244720387676007e-02 
      </Row>
      <Row Index="10">
