<?xml version="1.0"?>
<MethodSetup Method="MLP::MLPBNN">
  <GeneralInfo>
    <Info name="TMVA Release" value="4.2.1 [262657]"/>
    <Info name="ROOT Release" value="6.05/02 [394498]"/>
    <Info name="Creator" value="karavdia"/>
    <Info name="Date" value="Mon May 23 09:47:17 2016"/>
    <Info name="Host" value="Linux lcgapp-slc6-x86-64-21.cern.ch 2.6.32-504.23.4.el6.x86_64 #1 SMP Wed Jun 10 07:47:59 CEST 2015 x86_64 x86_64 x86_64 GNU/Linux"/>
    <Info name="Dir" value="/afs/desy.de/user/k/karavdia/xxl/af-cms/HomemadeTTbarMVA"/>
    <Info name="Training events" value="4658"/>
    <Info name="TrainingTime" value="2.38187868e+02"/>
    <Info name="AnalysisType" value="Classification"/>
  </GeneralInfo>
  <Options>
    <Option name="NCycles" modified="Yes">2000</Option>
    <Option name="HiddenLayers" modified="Yes">N-22,N+2</Option>
    <Option name="NeuronType" modified="Yes">tanh</Option>
    <Option name="RandomSeed" modified="No">1</Option>
    <Option name="EstimatorType" modified="No">CE</Option>
    <Option name="NeuronInputType" modified="No">sum</Option>
    <Option name="V" modified="Yes">False</Option>
    <Option name="VerbosityLevel" modified="No">Default</Option>
    <Option name="VarTransform" modified="Yes">G,D</Option>
    <Option name="H" modified="Yes">True</Option>
    <Option name="CreateMVAPdfs" modified="No">False</Option>
    <Option name="IgnoreNegWeightsInTraining" modified="No">False</Option>
    <Option name="TrainingMethod" modified="Yes">BP</Option>
    <Option name="LearningRate" modified="Yes">1.000000e-02</Option>
    <Option name="DecayRate" modified="No">1.000000e-02</Option>
    <Option name="TestRate" modified="Yes">5</Option>
    <Option name="EpochMonitoring" modified="No">False</Option>
    <Option name="Sampling" modified="Yes">1.500000e-01</Option>
    <Option name="SamplingEpoch" modified="No">1.000000e+00</Option>
    <Option name="SamplingImportance" modified="Yes">1.000000e+00</Option>
    <Option name="SamplingTraining" modified="No">True</Option>
    <Option name="SamplingTesting" modified="No">False</Option>
    <Option name="ResetStep" modified="No">50</Option>
    <Option name="Tau" modified="No">3.000000e+00</Option>
    <Option name="BPMode" modified="No">sequential</Option>
    <Option name="BatchSize" modified="No">-1</Option>
    <Option name="ConvergenceImprove" modified="Yes">5.000000e-03</Option>
    <Option name="ConvergenceTests" modified="Yes">100</Option>
    <Option name="UseRegulator" modified="Yes">True</Option>
    <Option name="UpdateLimit" modified="No">10000</Option>
    <Option name="CalculateErrors" modified="No">False</Option>
    <Option name="WeightRange" modified="No">1.000000e+00</Option>
  </Options>
  <Variables NVar="24">
    <Variable VarIndex="0" Expression="lep_pt/Mttbar" Label="lep_pt/Mttbar" Title="lepton p_T/M_{tt}" Unit="" Internal="lep_pt_D_Mttbar" Type="F" Min="2.72147078e-03" Max="2.29714632e+00"/>
    <Variable VarIndex="1" Expression="fabs(lep_eta)" Label="fabs(lep_eta)" Title="|lepton #eta|" Unit="" Internal="fabs_lep_eta_" Type="F" Min="6.04821907e-05" Max="2.53311801e+00"/>
    <Variable VarIndex="2" Expression="lep_eta_err" Label="lep_eta_err" Title="#sigma (lepton #eta)" Unit="" Internal="lep_eta_err" Type="F" Min="7.12153778e-05" Max="3.54243703e-02"/>
    <Variable VarIndex="3" Expression="lep_pt_err" Label="lep_pt_err" Title="#sigma (lepton p_T)" Unit="" Internal="lep_pt_err" Type="F" Min="1.02485679e-01" Max="9.89608337e+02"/>
    <Variable VarIndex="4" Expression="lep_fbrem" Label="lep_fbrem" Title="lep fbrem" Unit="" Internal="lep_fbrem" Type="F" Min="-1.95954442e-01" Max="9.97762620e-01"/>
    <Variable VarIndex="5" Expression="lep_Nclusters" Label="lep_Nclusters" Title="Nclusters" Unit="" Internal="lep_Nclusters" Type="I" Min="1.00000000e+00" Max="1.80000000e+01"/>
    <Variable VarIndex="6" Expression="lep_full5x5_e5x5" Label="lep_full5x5_e5x5" Title="full5x5_e5x5" Unit="" Internal="lep_full5x5_e5x5" Type="F" Min="2.34907112e+01" Max="3.05027271e+03"/>
    <Variable VarIndex="7" Expression="lep_dB" Label="lep_dB" Title="dB" Unit="" Internal="lep_dB" Type="F" Min="2.46770611e-07" Max="5.97154331e+00"/>
    <Variable VarIndex="8" Expression="lep_mvaNonTrigV0" Label="lep_mvaNonTrigV0" Title="mvaNonTrigV0" Unit="" Internal="lep_mvaNonTrigV0" Type="F" Min="3.59072834e-01" Max="9.99867320e-01"/>
    <Variable VarIndex="9" Expression="fabs(lep_dPhiIn)" Label="fabs(lep_dPhiIn)" Title="fabs(dPhiIn)" Unit="" Internal="fabs_lep_dPhiIn_" Type="F" Min="3.57627869e-07" Max="2.54046202e-01"/>
    <Variable VarIndex="10" Expression="fabs(lep_dEtaInSeed)" Label="fabs(lep_dEtaInSeed)" Title="fabs(dEtaInSeed)" Unit="" Internal="fabs_lep_dEtaInSeed_" Type="F" Min="2.25296191e-07" Max="2.77199149e-02"/>
    <Variable VarIndex="11" Expression="lep_hcalOverEcal" Label="lep_hcalOverEcal" Title="hcalOverEcal" Unit="" Internal="lep_hcalOverEcal" Type="F" Min="0.00000000e+00" Max="6.60679519e-01"/>
    <Variable VarIndex="12" Expression="lep_dr03TkSumPt" Label="lep_dr03TkSumPt" Title="dr03TkSumPt" Unit="" Internal="lep_dr03TkSumPt" Type="F" Min="0.00000000e+00" Max="1.32894462e+06"/>
    <Variable VarIndex="13" Expression="lep_effArea" Label="lep_effArea" Title="effArea" Unit="" Internal="lep_effArea" Type="F" Min="1.41100004e-01" Max="2.68700004e-01"/>
    <Variable VarIndex="14" Expression="lep1__minDR_jet" Label="lep1__minDR_jet" Title="#Delta R(lep, jet)" Unit="" Internal="lep1__minDR_jet" Type="F" Min="3.78229830e-04" Max="4.74783754e+00"/>
    <Variable VarIndex="15" Expression="fabs(ljet_eta)" Label="fabs(ljet_eta)" Title="|jet1 #eta|" Unit="" Internal="fabs_ljet_eta_" Type="F" Min="3.15229190e-05" Max="2.39939380e+00"/>
    <Variable VarIndex="16" Expression="ljet_CSV" Label="ljet_CSV" Title="jet1 CSV" Unit="" Internal="ljet_CSV" Type="F" Min="2.74568759e-02" Max="9.98165846e-01"/>
    <Variable VarIndex="17" Expression="fabs(fjet2_eta)" Label="fabs(fjet2_eta)" Title="|jet2 #eta|" Unit="" Internal="fabs_fjet2_eta_" Type="F" Min="3.76058074e-06" Max="2.39896941e+00"/>
    <Variable VarIndex="18" Expression="fjet2_pt/Mttbar" Label="fjet2_pt/Mttbar" Title="jet2 p_T/M_{tt}" Unit="" Internal="fjet2_pt_D_Mttbar" Type="F" Min="1.46606257e-02" Max="4.08355045e+00"/>
    <Variable VarIndex="19" Expression="jet2_CSV" Label="jet2_CSV" Title="jet2 CSV" Unit="" Internal="jet2_CSV" Type="F" Min="2.24561822e-02" Max="9.99308228e-01"/>
    <Variable VarIndex="20" Expression="dR_lep_ljet" Label="dR_lep_ljet" Title="#Delta R(lep, lead jet)" Unit="" Internal="dR_lep_ljet" Type="F" Min="1.32962745e-02" Max="5.63214064e+00"/>
    <Variable VarIndex="21" Expression="log(lep_pt_ljet/Mttbar)" Label="log(lep_pt_ljet/Mttbar)" Title="log((p_{T, rel}(lep, lead jet)/M_{tt}))" Unit="" Internal="log_lep_pt_ljet_D_Mttbar_" Type="F" Min="-7.62809801e+00" Max="1.54524815e+00"/>
    <Variable VarIndex="22" Expression="cjet_CSV" Label="cjet_CSV" Title="jet0 CSV" Unit="" Internal="cjet_CSV" Type="F" Min="2.24561822e-02" Max="9.99442756e-01"/>
    <Variable VarIndex="23" Expression="lep_pt_cjet/Mttbar" Label="lep_pt_cjet/Mttbar" Title="(p_{T, rel}(lep, close jet)/M_{tt})" Unit="GeV/c" Internal="lep_pt_cjet_D_Mttbar" Type="F" Min="8.64454923e-05" Max="2.05144525e+00"/>
  </Variables>
  <Spectators NSpec="0"/>
  <Classes NClass="2">
    <Class Name="Signal" Index="0"/>
    <Class Name="Background" Index="1"/>
  </Classes>
  <Transformations NTransformations="2">
    <Transform Name="Gauss" FlatOrGauss="Gauss">
      <Selection>
        <Input NInputs="24">
          <Input Type="Variable" Label="lep_pt/Mttbar" Expression="lep_pt/Mttbar"/>
          <Input Type="Variable" Label="fabs(lep_eta)" Expression="fabs(lep_eta)"/>
          <Input Type="Variable" Label="lep_eta_err" Expression="lep_eta_err"/>
          <Input Type="Variable" Label="lep_pt_err" Expression="lep_pt_err"/>
          <Input Type="Variable" Label="lep_fbrem" Expression="lep_fbrem"/>
          <Input Type="Variable" Label="lep_Nclusters" Expression="lep_Nclusters"/>
          <Input Type="Variable" Label="lep_full5x5_e5x5" Expression="lep_full5x5_e5x5"/>
          <Input Type="Variable" Label="lep_dB" Expression="lep_dB"/>
          <Input Type="Variable" Label="lep_mvaNonTrigV0" Expression="lep_mvaNonTrigV0"/>
          <Input Type="Variable" Label="fabs(lep_dPhiIn)" Expression="fabs(lep_dPhiIn)"/>
          <Input Type="Variable" Label="fabs(lep_dEtaInSeed)" Expression="fabs(lep_dEtaInSeed)"/>
          <Input Type="Variable" Label="lep_hcalOverEcal" Expression="lep_hcalOverEcal"/>
          <Input Type="Variable" Label="lep_dr03TkSumPt" Expression="lep_dr03TkSumPt"/>
          <Input Type="Variable" Label="lep_effArea" Expression="lep_effArea"/>
          <Input Type="Variable" Label="lep1__minDR_jet" Expression="lep1__minDR_jet"/>
          <Input Type="Variable" Label="fabs(ljet_eta)" Expression="fabs(ljet_eta)"/>
          <Input Type="Variable" Label="ljet_CSV" Expression="ljet_CSV"/>
          <Input Type="Variable" Label="fabs(fjet2_eta)" Expression="fabs(fjet2_eta)"/>
          <Input Type="Variable" Label="fjet2_pt/Mttbar" Expression="fjet2_pt/Mttbar"/>
          <Input Type="Variable" Label="jet2_CSV" Expression="jet2_CSV"/>
          <Input Type="Variable" Label="dR_lep_ljet" Expression="dR_lep_ljet"/>
          <Input Type="Variable" Label="log(lep_pt_ljet/Mttbar)" Expression="log(lep_pt_ljet/Mttbar)"/>
          <Input Type="Variable" Label="cjet_CSV" Expression="cjet_CSV"/>
          <Input Type="Variable" Label="lep_pt_cjet/Mttbar" Expression="lep_pt_cjet/Mttbar"/>
        </Input>
        <Output NOutputs="24">
          <Output Type="Variable" Label="lep_pt/Mttbar" Expression="lep_pt/Mttbar"/>
          <Output Type="Variable" Label="fabs(lep_eta)" Expression="fabs(lep_eta)"/>
          <Output Type="Variable" Label="lep_eta_err" Expression="lep_eta_err"/>
          <Output Type="Variable" Label="lep_pt_err" Expression="lep_pt_err"/>
          <Output Type="Variable" Label="lep_fbrem" Expression="lep_fbrem"/>
          <Output Type="Variable" Label="lep_Nclusters" Expression="lep_Nclusters"/>
          <Output Type="Variable" Label="lep_full5x5_e5x5" Expression="lep_full5x5_e5x5"/>
          <Output Type="Variable" Label="lep_dB" Expression="lep_dB"/>
          <Output Type="Variable" Label="lep_mvaNonTrigV0" Expression="lep_mvaNonTrigV0"/>
          <Output Type="Variable" Label="fabs(lep_dPhiIn)" Expression="fabs(lep_dPhiIn)"/>
          <Output Type="Variable" Label="fabs(lep_dEtaInSeed)" Expression="fabs(lep_dEtaInSeed)"/>
          <Output Type="Variable" Label="lep_hcalOverEcal" Expression="lep_hcalOverEcal"/>
          <Output Type="Variable" Label="lep_dr03TkSumPt" Expression="lep_dr03TkSumPt"/>
          <Output Type="Variable" Label="lep_effArea" Expression="lep_effArea"/>
          <Output Type="Variable" Label="lep1__minDR_jet" Expression="lep1__minDR_jet"/>
          <Output Type="Variable" Label="fabs(ljet_eta)" Expression="fabs(ljet_eta)"/>
          <Output Type="Variable" Label="ljet_CSV" Expression="ljet_CSV"/>
          <Output Type="Variable" Label="fabs(fjet2_eta)" Expression="fabs(fjet2_eta)"/>
          <Output Type="Variable" Label="fjet2_pt/Mttbar" Expression="fjet2_pt/Mttbar"/>
          <Output Type="Variable" Label="jet2_CSV" Expression="jet2_CSV"/>
          <Output Type="Variable" Label="dR_lep_ljet" Expression="dR_lep_ljet"/>
          <Output Type="Variable" Label="log(lep_pt_ljet/Mttbar)" Expression="log(lep_pt_ljet/Mttbar)"/>
          <Output Type="Variable" Label="cjet_CSV" Expression="cjet_CSV"/>
          <Output Type="Variable" Label="lep_pt_cjet/Mttbar" Expression="lep_pt_cjet/Mttbar"/>
        </Output>
      </Selection>
      <Variable VarIndex="0">
        <CumulativePDF_cls0>
          <PDF Name="GaussTransform var0 cls0" MinNSmooth="0" MaxNSmooth="0" InterpolMethod="1" KDE_type="0" KDE_iter="1" KDE_border="1" KDE_finefactor="0.0000000000000000e+00">
            <Histogram Name="Cumulative_Var0_cls0_original" NBins="1933" XMin="2.6214707177132368e-03" XMax="2.2971463203430176e+00" HasEquidistantBins="0">
              3.75137432e-04 8.40825320e-04 1.35502231e-03 1.87568716e-03 2.39311811e-03 2.91054905e-03 3.42798000e-03 3.94541118e-03 4.46284190e-03 4.98027308e-03 5.49770379e-03 6.01513498e-03 6.53256569e-03 7.04999687e-03 7.56742759e-03 8.08485877e-03 8.60228948e-03 9.11972020e-03 9.63715184e-03 1.01545826e-02 1.06720133e-02 1.11894440e-02 1.17068756e-02 1.22243064e-02 1.27417371e-02 1.32591678e-02 1.37765994e-02 1.42940301e-02 1.48114609e-02 1.53288925e-02 1.58463232e-02 1.63637549e-02 1.68811847e-02 1.73986163e-02 1.79160461e-02 1.84334777e-02 1.89509094e-02 1.94683392e-02 1.99857708e-02 2.05032025e-02 2.10206322e-02 2.15380639e-02 2.20554937e-02 2.25729253e-02 2.30903570e-02 2.36077867e-02 2.41252184e-02 2.46426500e-02 2.51600798e-02 2.56775115e-02 2.61949413e-02 2.67123729e-02 2.72298045e-02 2.77472343e-02 2.82646660e-02 2.87820976e-02 2.92995274e-02 2.98169591e-02 3.03343888e-02 3.08518205e-02 3.13692503e-02 3.18866819e-02 3.24041136e-02 3.29215452e-02 3.34389769e-02 3.39564048e-02 3.44738364e-02 3.49912681e-02 3.55086997e-02 3.60261314e-02 3.65435630e-02 3.70609909e-02 3.75784226e-02 3.80958542e-02 3.86132859e-02 3.91307175e-02 3.96481454e-02 4.01655771e-02 4.06830087e-02 4.12004404e-02 4.17178720e-02 4.22352999e-02 4.27527316e-02 4.32701632e-02 4.37875949e-02 4.43050265e-02 4.48224582e-02 4.53398861e-02 4.58573177e-02 4.63747494e-02 4.68921810e-02 4.74096127e-02 4.79270406e-02 4.84444723e-02 4.89619039e-02 4.94793355e-02 4.99967672e-02 5.05141988e-02 5.10316268e-02 5.15490584e-02 5.20664901e-02 5.25839217e-02 5.31013533e-02 5.36187813e-02 5.41362129e-02 5.46536446e-02 5.51710762e-02 5.56885079e-02 5.62059358e-02 5.67233674e-02 5.72407991e-02 5.77582307e-02 5.82756624e-02 5.87930940e-02 5.93105219e-02 5.98279536e-02 6.03453852e-02 6.08628169e-02 6.13802485e-02 6.18976764e-02 6.24151081e-02 6.29325435e-02 6.34499714e-02 6.39673993e-02 6.44848347e-02 6.50022626e-02 6.55196980e-02 6.60371259e-02 6.65545538e-02 6.70719892e-02 6.75894171e-02 6.81068525e-02 6.86242804e-02 6.91417083e-02 6.96591437e-02 7.01765716e-02 7.06940070e-02 7.12114349e-02 7.17288628e-02 7.22462982e-02 7.27637261e-02 7.32811615e-02 7.37985894e-02 7.43160173e-02 7.48334527e-02 7.53508806e-02 7.58683160e-02 7.63857439e-02 7.69031793e-02 7.74206072e-02 7.79380351e-02 7.84554705e-02 7.89728984e-02 7.94903338e-02 8.00077617e-02 8.05251896e-02 8.10426250e-02 8.15600529e-02 8.20774883e-02 8.25949162e-02 8.31123441e-02 8.36297795e-02 8.41472074e-02 8.46646428e-02 8.51820707e-02 8.56994987e-02 8.62169340e-02 8.67343619e-02 8.72517973e-02 8.77692252e-02 8.82866532e-02 8.88040885e-02 8.93215165e-02 8.98389518e-02 9.03563797e-02 9.08738151e-02 9.13912430e-02 9.19086710e-02 9.24261063e-02 9.29435343e-02 9.34609696e-02 9.39783975e-02 9.44958255e-02 9.50132608e-02 9.55306888e-02 9.60481241e-02 9.65655521e-02 9.70829800e-02 9.76004153e-02 9.81178433e-02 9.86352786e-02 9.91527066e-02 9.96701345e-02 1.00187570e-01 1.00704998e-01 1.01222433e-01 1.01739861e-01 1.02257289e-01 1.02774724e-01 1.03292152e-01 1.03809588e-01 1.04327016e-01 1.04844451e-01 1.05361879e-01 1.05879307e-01 1.06396742e-01 1.06914170e-01 1.07431605e-01 1.07949033e-01 1.08466461e-01 1.08983897e-01 1.09501325e-01 1.10018760e-01 1.10536188e-01 1.11053616e-01 1.11571051e-01 1.12088479e-01 1.12605914e-01 1.13123342e-01 1.13640770e-01 1.14158206e-01 1.14675634e-01 1.15193069e-01 1.15710497e-01 1.16227925e-01 1.16745360e-01 1.17262788e-01 1.17780223e-01 1.18297651e-01 1.18815087e-01 1.19332515e-01 1.19849943e-01 1.20367378e-01 1.20884806e-01 1.21402241e-01 1.21919669e-01 1.22437097e-01 1.22954533e-01 1.23471960e-01 1.23989396e-01 1.24506824e-01 1.25024259e-01 1.25541687e-01 1.26059115e-01 1.26576543e-01 1.27093986e-01 1.27611414e-01 1.28128842e-01 1.28646269e-01 1.29163697e-01 1.29681140e-01 1.30198568e-01 1.30715996e-01 1.31233424e-01 1.31750852e-01 1.32268295e-01 1.32785723e-01 1.33303151e-01 1.33820578e-01 1.34338006e-01 1.34855449e-01 1.35372877e-01 1.35890305e-01 1.36407733e-01 1.36925161e-01 1.37442604e-01 1.37960032e-01 1.38477460e-01 1.38994887e-01 1.39512315e-01 1.40029758e-01 1.40547186e-01 1.41064614e-01 1.41582042e-01 1.42099470e-01 1.42616913e-01 1.43134341e-01 1.43651769e-01 1.44169196e-01 1.44686624e-01 1.45204067e-01 1.45721495e-01 1.46238923e-01 1.46756351e-01 1.47273779e-01 1.47791222e-01 1.48308650e-01 1.48826078e-01 1.49343506e-01 1.49860933e-01 1.50378376e-01 1.50895804e-01 1.51413232e-01 1.51930660e-01 1.52448088e-01 1.52965531e-01 1.53482959e-01 1.54000387e-01 1.54517815e-01 1.55035257e-01 1.55552685e-01 1.56070113e-01 1.56587541e-01 1.57104969e-01 1.57622412e-01 1.58139840e-01 1.58657268e-01 1.59174696e-01 1.59692124e-01 1.60209566e-01 1.60726994e-01 1.61244422e-01 1.61761850e-01 1.62279278e-01 1.62796721e-01 1.63314149e-01 1.63831577e-01 1.64349005e-01 1.64866433e-01 1.65383875e-01 1.65901303e-01 1.66418731e-01 1.66936159e-01 1.67453587e-01 1.67971030e-01 1.68488458e-01 1.69005886e-01 1.69523314e-01 1.70040742e-01 1.70558184e-01 1.71075612e-01 1.71593040e-01 1.72110468e-01 1.72627896e-01 1.73145339e-01 1.73662767e-01 1.74180195e-01 1.74697623e-01 1.75215051e-01 1.75732493e-01 1.76249921e-01 1.76767349e-01 1.77284777e-01 1.77802205e-01 1.78319648e-01 1.78837076e-01 1.79354504e-01 1.79871932e-01 1.80389360e-01 1.80906802e-01 1.81424230e-01 1.81941658e-01 1.82459086e-01 1.82976529e-01 1.83493957e-01 1.84011385e-01 1.84528813e-01 1.85046241e-01 1.85563684e-01 1.86081111e-01 1.86598539e-01 1.87115967e-01 1.87633395e-01 1.88150838e-01 1.88668266e-01 1.89185694e-01 1.89703122e-01 1.90220550e-01 1.90737993e-01 1.91255420e-01 1.91772848e-01 1.92290276e-01 1.92807704e-01 1.93325147e-01 1.93842575e-01 1.94360003e-01 1.94877431e-01 1.95394859e-01 1.95912302e-01 1.96429729e-01 1.96947157e-01 1.97464585e-01 1.97982013e-01 1.98499456e-01 1.99016884e-01 1.99534312e-01 2.00051740e-01 2.00569168e-01 2.01086611e-01 2.01604038e-01 2.02121466e-01 2.02638894e-01 2.03156322e-01 2.03673765e-01 2.04191193e-01 2.04708621e-01 2.05226049e-01 2.05743477e-01 2.06260920e-01 2.06778347e-01 2.07295775e-01 2.07813203e-01 2.08330631e-01 2.08848074e-01 2.09365502e-01 2.09882930e-01 2.10400358e-01 2.10917786e-01 2.11435229e-01 2.11952657e-01 2.12470084e-01 2.12987512e-01 2.13504955e-01 2.14022383e-01 2.14539811e-01 2.15057239e-01 2.15574667e-01 2.16092110e-01 2.16609538e-01 2.17126966e-01 2.17644393e-01 2.18161821e-01 2.18679264e-01 2.19196692e-01 2.19714120e-01 2.20231548e-01 2.20748976e-01 2.21266419e-01 2.21783847e-01 2.22301275e-01 2.22818702e-01 2.23336130e-01 2.23853573e-01 2.24371001e-01 2.24888429e-01 2.25405857e-01 2.25923285e-01 2.26440728e-01 2.26958156e-01 2.27475584e-01 2.27993011e-01 2.28510439e-01 2.29027882e-01 2.29545310e-01 2.30062738e-01 2.30580166e-01 2.31097594e-01 2.31615037e-01 2.32132465e-01 2.32649893e-01 2.33167320e-01 2.33684748e-01 2.34202191e-01 2.34719619e-01 2.35237047e-01 2.35754475e-01 2.36271903e-01 2.36789346e-01 2.37306774e-01 2.37824202e-01 2.38341630e-01 2.38859057e-01 2.39376500e-01 2.39893928e-01 2.40411356e-01 2.40928784e-01 2.41446227e-01 2.41963655e-01 2.42481083e-01 2.42998511e-01 2.43515939e-01 2.44033381e-01 2.44550809e-01 2.45068237e-01 2.45585665e-01 2.46103093e-01 2.46620536e-01 2.47137964e-01 2.47655392e-01 2.48172820e-01 2.48690248e-01 2.49207690e-01 2.49725118e-01 2.50242531e-01 2.50759989e-01 2.51277417e-01 2.51794845e-01 2.52312273e-01 2.52829701e-01 2.53347129e-01 2.53864557e-01 2.54381984e-01 2.54899412e-01 2.55416870e-01 2.55934298e-01 2.56451726e-01 2.56969154e-01 2.57486582e-01 2.58004010e-01 2.58521438e-01 2.59038866e-01 2.59556293e-01 2.60073721e-01 2.60591179e-01 2.61108607e-01 2.61626035e-01 2.62143463e-01 2.62660891e-01 2.63178319e-01 2.63695747e-01 2.64213175e-01 2.64730603e-01 2.65248030e-01 2.65765488e-01 2.66282916e-01 2.66800344e-01 2.67317772e-01 2.67835200e-01 2.68352628e-01 2.68870056e-01 2.69387484e-01 2.69904912e-01 2.70422339e-01 2.70939797e-01 2.71457225e-01 2.71974653e-01 2.72492081e-01 2.73009509e-01 2.73526937e-01 2.74044365e-01 2.74561793e-01 2.75079221e-01 2.75596648e-01 2.76114106e-01 2.76631534e-01 2.77148962e-01 2.77666390e-01 2.78183818e-01 2.78701246e-01 2.79218674e-01 2.79736102e-01 2.80253530e-01 2.80770957e-01 2.81288415e-01 2.81805843e-01 2.82323271e-01 2.82840699e-01 2.83358127e-01 2.83875555e-01 2.84392983e-01 2.84910411e-01 2.85427839e-01 2.85945296e-01 2.86462724e-01 2.86980152e-01 2.87497580e-01 2.88015008e-01 2.88532436e-01 2.89049864e-01 2.89567292e-01 2.90084720e-01 2.90602148e-01 2.91119605e-01 2.91637033e-01 2.92154461e-01 2.92671889e-01 2.93189317e-01 2.93706745e-01 2.94224173e-01 2.94741601e-01 2.95259029e-01 2.95776457e-01 2.96293914e-01 2.96811342e-01 2.97328770e-01 2.97846198e-01 2.98363626e-01 2.98881054e-01 2.99398482e-01 2.99915910e-01 3.00433338e-01 3.00950766e-01 3.01468223e-01 3.01985651e-01 3.02503079e-01 3.03020507e-01 3.03537935e-01 3.04055363e-01 3.04572791e-01 3.05090219e-01 3.05607647e-01 3.06125075e-01 3.06642532e-01 3.07159960e-01 3.07677388e-01 3.08194816e-01 3.08712244e-01 3.09229672e-01 3.09747100e-01 3.10264528e-01 3.10781956e-01 3.11299384e-01 3.11816841e-01 3.12334269e-01 3.12851697e-01 3.13369125e-01 3.13886553e-01 3.14403981e-01 3.14921409e-01 3.15438837e-01 3.15956265e-01 3.16473722e-01 3.16991150e-01 3.17508578e-01 3.18026006e-01 3.18543434e-01 3.19060862e-01 3.19578290e-01 3.20095718e-01 3.20613146e-01 3.21130574e-01 3.21648031e-01 3.22165459e-01 3.22682887e-01 3.23200315e-01 3.23717743e-01 3.24235171e-01 3.24752599e-01 3.25270027e-01 3.25787455e-01 3.26304883e-01 3.26822340e-01 3.27339768e-01 3.27857196e-01 3.28374624e-01 3.28892052e-01 3.29409480e-01 3.29926908e-01 3.30444336e-01 3.30961764e-01 3.31479192e-01 3.31996650e-01 3.32514077e-01 3.33031505e-01 3.33548933e-01 3.34066361e-01 3.34583789e-01 3.35101217e-01 3.35618645e-01 3.36136073e-01 3.36653501e-01 3.37170959e-01 3.37688386e-01 3.38205814e-01 3.38723242e-01 3.39240670e-01 3.39758098e-01 3.40275526e-01 3.40792954e-01 3.41310382e-01 3.41827840e-01 3.42345268e-01 3.42862695e-01 3.43380123e-01 3.43897551e-01 3.44414979e-01 3.44932407e-01 3.45449835e-01 3.45967263e-01 3.46484691e-01 3.47002149e-01 3.47519577e-01 3.48037004e-01 3.48554432e-01 3.49071860e-01 3.49589288e-01 3.50106716e-01 3.50624144e-01 3.51141572e-01 3.51659000e-01 3.52176458e-01 3.52693886e-01 3.53211313e-01 3.53728741e-01 3.54246169e-01 3.54763597e-01 3.55281025e-01 3.55798453e-01 3.56315881e-01 3.56833309e-01 3.57350767e-01 3.57868195e-01 3.58385623e-01 3.58903050e-01 3.59420478e-01 3.59937906e-01 3.60455334e-01 3.60972762e-01 3.61490190e-01 3.62007618e-01 3.62525076e-01 3.63042504e-01 3.63559932e-01 3.64077359e-01 3.64594787e-01 3.65112215e-01 3.65629643e-01 3.66147071e-01 3.66664499e-01 3.67181927e-01 3.67699385e-01 3.68216813e-01 3.68734241e-01 3.69251668e-01 3.69769096e-01 3.70286524e-01 3.70803952e-01 3.71321380e-01 3.71838808e-01 3.72356266e-01 3.72873694e-01 3.73391122e-01 3.73908550e-01 3.74425977e-01 3.74943405e-01 3.75460833e-01 3.75978261e-01 3.76495689e-01 3.77013117e-01 3.77530575e-01 3.78048003e-01 3.78565431e-01 3.79082859e-01 3.79600286e-01 3.80117714e-01 3.80635142e-01 3.81152570e-01 3.81669998e-01 3.82187426e-01 3.82704884e-01 3.83222312e-01 3.83739740e-01 3.84257168e-01 3.84774595e-01 3.85292023e-01 3.85809451e-01 3.86326879e-01 3.86844307e-01 3.87361735e-01 3.87879193e-01 3.88396621e-01 3.88914049e-01 3.89431477e-01 3.89948905e-01 3.90466332e-01 3.90983760e-01 3.91501188e-01 3.92018616e-01 3.92536044e-01 3.93053502e-01 3.93570930e-01 3.94088358e-01 3.94605786e-01 3.95123214e-01 3.95640641e-01 3.96158069e-01 3.96675497e-01 3.97192925e-01 3.97710353e-01 3.98227811e-01 3.98745239e-01 3.99262667e-01 3.99780095e-01 4.00297523e-01 4.00814950e-01 4.01332378e-01 4.01849806e-01 4.02367234e-01 4.02884692e-01 4.03402120e-01 4.03919548e-01 4.04436976e-01 4.04954404e-01 4.05471832e-01 4.05989259e-01 4.06506687e-01 4.07024115e-01 4.07541543e-01 4.08059001e-01 4.08576429e-01 4.09093857e-01 4.09611285e-01 4.10128713e-01 4.10646141e-01 4.11163568e-01 4.11680996e-01 4.12198424e-01 4.12715852e-01 4.13233310e-01 4.13750738e-01 4.14268166e-01 4.14785594e-01 4.15303022e-01 4.15820450e-01 4.16337878e-01 4.16855305e-01 4.17372733e-01 4.17890161e-01 4.18407619e-01 4.18925047e-01 4.19442475e-01 4.19959903e-01 4.20477331e-01 4.20994759e-01 4.21512187e-01 4.22029614e-01 4.22547042e-01 4.23064470e-01 4.23581928e-01 4.24099356e-01 4.24616784e-01 4.25134212e-01 4.25651640e-01 4.26169068e-01 4.26686496e-01 4.27203923e-01 4.27721351e-01 4.28238809e-01 4.28756237e-01 4.29273665e-01 4.29791093e-01 4.30308521e-01 4.30825949e-01 4.31343377e-01 4.31860805e-01 4.32378232e-01 4.32895660e-01 4.33413118e-01 4.33930546e-01 4.34447974e-01 4.34965402e-01 4.35482830e-01 4.36000258e-01 4.36517686e-01 4.37035114e-01 4.37552541e-01 4.38069969e-01 4.38587427e-01 4.39104855e-01 4.39622283e-01 4.40139711e-01 4.40657139e-01 4.41174567e-01 4.41691995e-01 4.42209423e-01 4.42726851e-01 4.43244278e-01 4.43761736e-01 4.44279164e-01 4.44796592e-01 4.45314020e-01 4.45831448e-01 4.46348876e-01 4.46866304e-01 4.47383732e-01 4.47901160e-01 4.48418587e-01 4.48936045e-01 4.49453473e-01 4.49970901e-01 4.50488329e-01 4.51005757e-01 4.51523185e-01 4.52040613e-01 4.52558041e-01 4.53075469e-01 4.53592896e-01 4.54110354e-01 4.54627782e-01 4.55145210e-01 4.55662638e-01 4.56180066e-01 4.56697494e-01 4.57214922e-01 4.57732350e-01 4.58249778e-01 4.58767235e-01 4.59284663e-01 4.59802091e-01 4.60319519e-01 4.60836947e-01 4.61354375e-01 4.61871803e-01 4.62389231e-01 4.62906659e-01 4.63424087e-01 4.63941544e-01 4.64458972e-01 4.64976400e-01 4.65493828e-01 4.66011256e-01 4.66528684e-01 4.67046112e-01 4.67563540e-01 4.68080968e-01 4.68598396e-01 4.69115853e-01 4.69633281e-01 4.70150709e-01 4.70668137e-01 4.71185565e-01 4.71702993e-01 4.72220421e-01 4.72737849e-01 4.73255277e-01 4.73772705e-01 4.74290162e-01 4.74807590e-01 4.75325018e-01 4.75842446e-01 4.76359874e-01 4.76877302e-01 4.77394730e-01 4.77912158e-01 4.78429586e-01 4.78947014e-01 4.79464471e-01 4.79981899e-01 4.80499327e-01 4.81016755e-01 4.81534183e-01 4.82051611e-01 4.82569039e-01 4.83086467e-01 4.83603895e-01 4.84121352e-01 4.84638780e-01 4.85156208e-01 4.85673636e-01 4.86191064e-01 4.86708492e-01 4.87225920e-01 4.87743348e-01 4.88260776e-01 4.88778204e-01 4.89295661e-01 4.89813089e-01 4.90330517e-01 4.90847945e-01 4.91365373e-01 4.91882801e-01 4.92400229e-01 4.92917657e-01 4.93435085e-01 4.93952513e-01 4.94469970e-01 4.94987398e-01 4.95504826e-01 4.96022254e-01 4.96539682e-01 4.97057110e-01 4.97574538e-01 4.98091966e-01 4.98609394e-01 4.99126822e-01 4.99644279e-01 5.00161707e-01 5.00679135e-01 5.01196563e-01 5.01713991e-01 5.02231419e-01 5.02748847e-01 5.03266275e-01 5.03783703e-01 5.04301131e-01 5.04818559e-01 5.05335987e-01 5.05853415e-01 5.06370842e-01 5.06888270e-01 5.07405758e-01 5.07923186e-01 5.08440614e-01 5.08958042e-01 5.09475470e-01 5.09992898e-01 5.10510325e-01 5.11027753e-01 5.11545181e-01 5.12062609e-01 5.12580037e-01 5.13097465e-01 5.13614893e-01 5.14132321e-01 5.14649749e-01 5.15167177e-01 5.15684605e-01 5.16202033e-01 5.16719460e-01 5.17236948e-01 5.17754376e-01 5.18271804e-01 5.18789232e-01 5.19306660e-01 5.19824088e-01 5.20341516e-01 5.20858943e-01 5.21376371e-01 5.21893799e-01 5.22411227e-01 5.22928655e-01 5.23446083e-01 5.23963511e-01 5.24480939e-01 5.24998367e-01 5.25515795e-01 5.26033223e-01 5.26550651e-01 5.27068079e-01 5.27585566e-01 5.28102994e-01 5.28620422e-01 5.29137850e-01 5.29655278e-01 5.30172706e-01 5.30690134e-01 5.31207561e-01 5.31724989e-01 5.32242417e-01 5.32759845e-01 5.33277273e-01 5.33794701e-01 5.34312129e-01 5.34829557e-01 5.35346985e-01 5.35864413e-01 5.36381841e-01 5.36899269e-01 5.37416697e-01 5.37934184e-01 5.38451612e-01 5.38969040e-01 5.39486468e-01 5.40003896e-01 5.40521324e-01 5.41038752e-01 5.41556180e-01 5.42073607e-01 5.42591035e-01 5.43108463e-01 5.43625891e-01 5.44143319e-01 5.44660747e-01 5.45178175e-01 5.45695603e-01 5.46213031e-01 5.46730459e-01 5.47247887e-01 5.47765374e-01 5.48282802e-01 5.48800230e-01 5.49317658e-01 5.49835086e-01 5.50352514e-01 5.50869942e-01 5.51387370e-01 5.51904798e-01 5.52422225e-01 5.52939653e-01 5.53457081e-01 5.53974509e-01 5.54491937e-01 5.55009365e-01 5.55526793e-01 5.56044221e-01 5.56561649e-01 5.57079077e-01 5.57596505e-01 5.58113992e-01 5.58631420e-01 5.59148848e-01 5.59666276e-01 5.60183704e-01 5.60701132e-01 5.61218560e-01 5.61735988e-01 5.62253416e-01 5.62770844e-01 5.63288271e-01 5.63805699e-01 5.64323127e-01 5.64840555e-01 5.65357983e-01 5.65875411e-01 5.66392839e-01 5.66910267e-01 5.67427695e-01 5.67945123e-01 5.68462610e-01 5.68980038e-01 5.69497466e-01 5.70014894e-01 5.70532322e-01 5.71049750e-01 5.71567178e-01 5.72084606e-01 5.72602034e-01 5.73119462e-01 5.73636889e-01 5.74154317e-01 5.74671745e-01 5.75189173e-01 5.75706601e-01 5.76224029e-01 5.76741457e-01 5.77258885e-01 5.77776313e-01 5.78293800e-01 5.78811228e-01 5.79328656e-01 5.79846084e-01 5.80363512e-01 5.80880940e-01 5.81398368e-01 5.81915796e-01 5.82433224e-01 5.82950652e-01 5.83468080e-01 5.83985507e-01 5.84502935e-01 5.85020363e-01 5.85537791e-01 5.86055219e-01 5.86572647e-01 5.87090075e-01 5.87607503e-01 5.88124931e-01 5.88642418e-01 5.89159846e-01 5.89677274e-01 5.90194702e-01 5.90712130e-01 5.91229558e-01 5.91746986e-01 5.92264414e-01 5.92781842e-01 5.93299270e-01 5.93816698e-01 5.94334126e-01 5.94851553e-01 5.95368981e-01 5.95886409e-01 5.96403837e-01 5.96921265e-01 5.97438693e-01 5.97956121e-01 5.98473549e-01 5.98991036e-01 5.99508464e-01 6.00025892e-01 6.00543320e-01 6.01060748e-01 6.01578176e-01 6.02095604e-01 6.02613032e-01 6.03130460e-01 6.03647888e-01 6.04165316e-01 6.04682744e-01 6.05200171e-01 6.05717599e-01 6.06235027e-01 6.06752455e-01 6.07269883e-01 6.07787311e-01 6.08304739e-01 6.08822227e-01 6.09339654e-01 6.09857082e-01 6.10374510e-01 6.10891938e-01 6.11409366e-01 6.11926794e-01 6.12444222e-01 6.12961650e-01 6.13479078e-01 6.13996506e-01 6.14513934e-01 6.15031362e-01 6.15548790e-01 6.16066217e-01 6.16583645e-01 6.17101073e-01 6.17618501e-01 6.18135929e-01 6.18653357e-01 6.19170845e-01 6.19688272e-01 6.20205700e-01 6.20723128e-01 6.21240556e-01 6.21757984e-01 6.22275412e-01 6.22792840e-01 6.23310268e-01 6.23827696e-01 6.24345124e-01 6.24862552e-01 6.25379980e-01 6.25897408e-01 6.26414835e-01 6.26932263e-01 6.27449691e-01 6.27967119e-01 6.28484547e-01 6.29002035e-01 6.29519463e-01 6.30036891e-01 6.30554318e-01 6.31071746e-01 6.31589174e-01 6.32106602e-01 6.32624030e-01 6.33141458e-01 6.33658886e-01 6.34176314e-01 6.34693742e-01 6.35211170e-01 6.35728598e-01 6.36246026e-01 6.36763453e-01 6.37280881e-01 6.37798309e-01 6.38315737e-01 6.38833165e-01 6.39350653e-01 6.39868081e-01 6.40385509e-01 6.40902936e-01 6.41420364e-01 6.41937792e-01 6.42455220e-01 6.42972648e-01 6.43490076e-01 6.44007504e-01 6.44524932e-01 6.45042360e-01 6.45559788e-01 6.46077216e-01 6.46594644e-01 6.47112072e-01 6.47629499e-01 6.48146927e-01 6.48664355e-01 6.49181783e-01 6.49699271e-01 6.50216699e-01 6.50734127e-01 6.51251554e-01 6.51768982e-01 6.52286410e-01 6.52803838e-01 6.53321266e-01 6.53838694e-01 6.54356122e-01 6.54873550e-01 6.55390978e-01 6.55908406e-01 6.56425834e-01 6.56943262e-01 6.57460690e-01 6.57978117e-01 6.58495545e-01 6.59012973e-01 6.59530461e-01 6.60047889e-01 6.60565317e-01 6.61082745e-01 6.61600173e-01 6.62117600e-01 6.62635028e-01 6.63152456e-01 6.63669884e-01 6.64187312e-01 6.64704740e-01 6.65222168e-01 6.65739596e-01 6.66257024e-01 6.66774452e-01 6.67291880e-01 6.67809308e-01 6.68326735e-01 6.68844163e-01 6.69361591e-01 6.69879079e-01 6.70396507e-01 6.70913935e-01 6.71431363e-01 6.71948791e-01 6.72466218e-01 6.72983646e-01 6.73501074e-01 6.74018502e-01 6.74535930e-01 6.75053358e-01 6.75570786e-01 6.76088214e-01 6.76605642e-01 6.77123070e-01 6.77640498e-01 6.78157926e-01 6.78675354e-01 6.79192781e-01 6.79710209e-01 6.80227697e-01 6.80745125e-01 6.81262553e-01 6.81779981e-01 6.82297409e-01 6.82814837e-01 6.83332264e-01 6.83849692e-01 6.84367120e-01 6.84884548e-01 6.85401976e-01 6.85919404e-01 6.86436832e-01 6.86954260e-01 6.87471688e-01 6.87989116e-01 6.88506544e-01 6.89023972e-01 6.89541399e-01 6.90058887e-01 6.90576315e-01 6.91093743e-01 6.91611171e-01 6.92128599e-01 6.92646027e-01 6.93163455e-01 6.93680882e-01 6.94198310e-01 6.94715738e-01 6.95233166e-01 6.95750594e-01 6.96268022e-01 6.96785450e-01 6.97302878e-01 6.97820306e-01 6.98337734e-01 6.98855162e-01 6.99372590e-01 6.99890018e-01 7.00407505e-01 7.00924933e-01 7.01442361e-01 7.01959789e-01 7.02477217e-01 7.02994645e-01 7.03512073e-01 7.04029500e-01 7.04546928e-01 7.05064356e-01 7.05581784e-01 7.06099212e-01 7.06616640e-01 7.07134068e-01 7.07651496e-01 7.08168924e-01 7.08686352e-01 7.09203780e-01 7.09721208e-01 7.10238636e-01 7.10756123e-01 7.11273551e-01 7.11790979e-01 7.12308407e-01 7.12825835e-01 7.13343263e-01 7.13860691e-01 7.14378119e-01 7.14895546e-01 7.15412974e-01 7.15930402e-01 7.16447830e-01 7.16965258e-01 7.17482686e-01 7.18000114e-01 7.18517542e-01 7.19034970e-01 7.19552398e-01 7.20069826e-01 7.20587313e-01 7.21104741e-01 7.21622169e-01 7.22139597e-01 7.22657025e-01 7.23174453e-01 7.23691881e-01 7.24209309e-01 7.24726737e-01 7.25244164e-01 7.25761592e-01 7.26279020e-01 7.26796448e-01 7.27313876e-01 7.27831304e-01 7.28348732e-01 7.28866160e-01 7.29383588e-01 7.29901016e-01 7.30418444e-01 7.30935931e-01 7.31453359e-01 7.31970787e-01 7.32488215e-01 7.33005643e-01 7.33523071e-01 7.34040499e-01 7.34557927e-01 7.35075355e-01 7.35592782e-01 7.36110210e-01 7.36627638e-01 7.37145066e-01 7.37662494e-01 7.38179922e-01 7.38697350e-01 7.39214778e-01 7.39732206e-01 7.40249634e-01 7.40767062e-01 7.41284549e-01 7.41801977e-01 7.42319405e-01 7.42836833e-01 7.43354261e-01 7.43871689e-01 7.44389117e-01 7.44906545e-01 7.45423973e-01 7.45941401e-01 7.46458828e-01 7.46976256e-01 7.47493684e-01 7.48011112e-01 7.48528540e-01 7.49045968e-01 7.49563396e-01 7.50080824e-01 7.50598252e-01 7.51115739e-01 7.51633167e-01 7.52150595e-01 7.52668023e-01 7.53185451e-01 7.53702879e-01 7.54220307e-01 7.54737735e-01 7.55255163e-01 7.55772591e-01 7.56290019e-01 7.56807446e-01 7.57324874e-01 7.57842302e-01 7.58359730e-01 7.58877158e-01 7.59394586e-01 7.59912014e-01 7.60429442e-01 7.60946870e-01 7.61464357e-01 7.61981785e-01 7.62499213e-01 7.63016641e-01 7.63534069e-01 7.64051497e-01 7.64568925e-01 7.65086353e-01 7.65603781e-01 7.66121209e-01 7.66638637e-01 7.67156065e-01 7.67673492e-01 7.68190920e-01 7.68708348e-01 7.69225776e-01 7.69743204e-01 7.70260632e-01 7.70778060e-01 7.71295547e-01 7.71812975e-01 7.72330403e-01 7.72847831e-01 7.73365259e-01 7.73882687e-01 7.74400115e-01 7.74917543e-01 7.75434971e-01 7.75952399e-01 7.76469827e-01 7.76987255e-01 7.77504683e-01 7.78022110e-01 7.78539538e-01 7.79056966e-01 7.79574394e-01 7.80091822e-01 7.80609250e-01 7.81126678e-01 7.81644166e-01 7.82161593e-01 7.82679021e-01 7.83196449e-01 7.83713877e-01 7.84231305e-01 7.84748733e-01 7.85266161e-01 7.85783589e-01 7.86301017e-01 7.86818445e-01 7.87335873e-01 7.87853301e-01 7.88370728e-01 7.88888156e-01 7.89405584e-01 7.89923012e-01 7.90440440e-01 7.90957868e-01 7.91475296e-01 7.91992784e-01 7.92510211e-01 7.93027639e-01 7.93545067e-01 7.94062495e-01 7.94579923e-01 7.95097351e-01 7.95614779e-01 7.96132207e-01 7.96649635e-01 7.97167063e-01 7.97684491e-01 7.98201919e-01 7.98719347e-01 7.99236774e-01 7.99754202e-01 8.00271630e-01 8.00789058e-01 8.01306486e-01 8.01823974e-01 8.02341402e-01 8.02858829e-01 8.03376257e-01 8.03893685e-01 8.04411113e-01 8.04928541e-01 8.05445969e-01 8.05963397e-01 8.06480825e-01 8.06998253e-01 8.07515681e-01 8.08033109e-01 8.08550537e-01 8.09067965e-01 8.09585392e-01 8.10102820e-01 8.10620248e-01 8.11137676e-01 8.11655104e-01 8.12172592e-01 8.12690020e-01 8.13207448e-01 8.13724875e-01 8.14242303e-01 8.14759731e-01 8.15277159e-01 8.15794587e-01 8.16312015e-01 8.16829443e-01 8.17346871e-01 8.17864299e-01 8.18381727e-01 8.18899155e-01 8.19416583e-01 8.19934011e-01 8.20451438e-01 8.20968866e-01 8.21486294e-01 8.22003722e-01 8.22521210e-01 8.23038638e-01 8.23556066e-01 8.24073493e-01 8.24590921e-01 8.25108349e-01 8.25625777e-01 8.26143205e-01 8.26660633e-01 8.27178061e-01 8.27695489e-01 8.28212917e-01 8.28730345e-01 8.29247773e-01 8.29765201e-01 8.30282629e-01 8.30800056e-01 8.31317484e-01 8.31834912e-01 8.32352400e-01 8.32869828e-01 8.33387256e-01 8.33904684e-01 8.34422112e-01 8.34939539e-01 8.35456967e-01 8.35974395e-01 8.36491823e-01 8.37009251e-01 8.37526679e-01 8.38044107e-01 8.38561535e-01 8.39078963e-01 8.39596391e-01 8.40113819e-01 8.40631247e-01 8.41148674e-01 8.41666102e-01 8.42183530e-01 8.42701018e-01 8.43218446e-01 8.43735874e-01 8.44253302e-01 8.44770730e-01 8.45288157e-01 8.45805585e-01 8.46323013e-01 8.46840441e-01 8.47357869e-01 8.47875297e-01 8.48392725e-01 8.48910153e-01 8.49427581e-01 8.49945009e-01 8.50462437e-01 8.50979865e-01 8.51497293e-01 8.52014720e-01 8.52532148e-01 8.53049636e-01 8.53567064e-01 8.54084492e-01 8.54601920e-01 8.55119348e-01 8.55636775e-01 8.56154203e-01 8.56671631e-01 8.57189059e-01 8.57706487e-01 8.58223915e-01 8.58741343e-01 8.59258771e-01 8.59776199e-01 8.60293627e-01 8.60811055e-01 8.61328483e-01 8.61845911e-01 8.62363338e-01 8.62880826e-01 8.63398254e-01 8.63915682e-01 8.64433110e-01 8.64950538e-01 8.65467966e-01 8.65985394e-01 8.66502821e-01 8.67020249e-01 8.67537677e-01 8.68055105e-01 8.68572533e-01 8.69089961e-01 8.69607389e-01 8.70124817e-01 8.70642245e-01 8.71159673e-01 8.71677101e-01 8.72194529e-01 8.72711957e-01 8.73229444e-01 8.73746872e-01 8.74264300e-01 8.74781728e-01 8.75299156e-01 8.75816584e-01 8.76334012e-01 8.76851439e-01 8.77368867e-01 8.77886295e-01 8.78403723e-01 8.78921151e-01 8.79438579e-01 8.79956007e-01 8.80473435e-01 8.80990863e-01 8.81508291e-01 8.82025719e-01 8.82543147e-01 8.83060575e-01 8.83578062e-01 8.84095490e-01 8.84612918e-01 8.85130346e-01 8.85647774e-01 8.86165202e-01 8.86682630e-01 8.87200058e-01 8.87717485e-01 8.88234913e-01 8.88752341e-01 8.89269769e-01 8.89787197e-01 8.90304625e-01 8.90822053e-01 8.91339481e-01 8.91856909e-01 8.92374337e-01 8.92891765e-01 8.93409252e-01 8.93926680e-01 8.94444108e-01 8.94961536e-01 8.95478964e-01 8.95996392e-01 8.96513820e-01 8.97031248e-01 8.97548676e-01 8.98066103e-01 8.98583531e-01 8.99100959e-01 8.99618387e-01 9.00135815e-01 9.00653243e-01 9.01170671e-01 9.01688099e-01 9.02205527e-01 9.02722955e-01 9.03240383e-01 9.03757870e-01 9.04275298e-01 9.04792726e-01 9.05310154e-01 9.05827582e-01 9.06345010e-01 9.06862438e-01 9.07379866e-01 9.07897294e-01 9.08414721e-01 9.08932149e-01 9.09449577e-01 9.09967005e-01 9.10484433e-01 9.11001861e-01 9.11519289e-01 9.12036717e-01 9.12554145e-01 9.13071573e-01 9.13589001e-01 9.14106488e-01 9.14623916e-01 9.15141344e-01 9.15658772e-01 9.16176200e-01 9.16693628e-01 9.17211056e-01 9.17728484e-01 9.18245912e-01 9.18763340e-01 9.19280767e-01 9.19798195e-01 9.20315623e-01 9.20833051e-01 9.21350479e-01 9.21867907e-01 9.22385335e-01 9.22902763e-01 9.23420191e-01 9.23937678e-01 9.24455106e-01 9.24972534e-01 9.25489962e-01 9.26007390e-01 9.26524818e-01 9.27042246e-01 9.27559674e-01 9.28077102e-01 9.28594530e-01 9.29111958e-01 9.29629385e-01 9.30146813e-01 9.30664241e-01 9.31181669e-01 9.31699097e-01 9.32216525e-01 9.32733953e-01 9.33251381e-01 9.33768809e-01 9.34286296e-01 9.34803724e-01 9.35321152e-01 9.35838580e-01 9.36356008e-01 9.36873436e-01 9.37390864e-01 9.37908292e-01 9.38425720e-01 9.38943148e-01 9.39460576e-01 9.39978004e-01 9.40495431e-01 9.41012859e-01 9.41530287e-01 9.42047715e-01 9.42565143e-01 9.43082571e-01 9.43599999e-01 9.44117486e-01 9.44634914e-01 9.45152342e-01 9.45669770e-01 9.46187198e-01 9.46704626e-01 9.47222054e-01 9.47739482e-01 9.48256910e-01 9.48774338e-01 9.49291766e-01 9.49809194e-01 9.50326622e-01 9.50844049e-01 9.51361477e-01 9.51878905e-01 9.52396333e-01 9.52913761e-01 9.53431189e-01 9.53948617e-01 9.54466105e-01 9.54983532e-01 9.55500960e-01 9.56018388e-01 9.56535816e-01 9.57053244e-01 9.57570672e-01 9.58088100e-01 9.58605528e-01 9.59122956e-01 9.59640384e-01 9.60157812e-01 9.60675240e-01 9.61192667e-01 9.61710095e-01 9.62227523e-01 9.62744951e-01 9.63262379e-01 9.63779807e-01 9.64297235e-01 9.64814723e-01 9.65332150e-01 9.65849578e-01 9.66367006e-01 9.66884434e-01 9.67401862e-01 9.67919290e-01 9.68436718e-01 9.68954146e-01 9.69471574e-01 9.69989002e-01 9.70506430e-01 9.71023858e-01 9.71541286e-01 9.72058713e-01 9.72576141e-01 9.73093569e-01 9.73610997e-01 9.74128425e-01 9.74645913e-01 9.75163341e-01 9.75680768e-01 9.76198196e-01 9.76715624e-01 9.77233052e-01 9.77750480e-01 9.78267908e-01 9.78785336e-01 9.79302764e-01 9.79820192e-01 9.80337620e-01 9.80855048e-01 9.81372476e-01 9.81889904e-01 9.82407331e-01 9.82924759e-01 9.83442187e-01 9.83959615e-01 9.84477043e-01 9.84994531e-01 9.85511959e-01 9.86029387e-01 9.86546814e-01 9.87064242e-01 9.87581670e-01 9.88099098e-01 9.88616526e-01 9.89133954e-01 9.89651382e-01 9.90168810e-01 9.90686238e-01 9.91203666e-01 9.91721094e-01 9.92238522e-01 9.92755949e-01 9.93273377e-01 9.93790805e-01 9.94308233e-01 9.94825661e-01 9.95343149e-01 9.95860577e-01 9.96378005e-01 9.96895432e-01 9.97412860e-01 9.97930288e-01 9.98447716e-01 9.98965144e-01 9.99482572e-01 1.00000000e+00 
            </Histogram>
            <HistogramBinning NBins="1933">
              2.62147072e-03 2.72147078e-03 1.29894372e-02 1.34977307e-02 1.40652098e-02 1.46066798e-02 1.49789900e-02 1.52589390e-02 1.54648796e-02 1.58849545e-02 1.61650572e-02 1.64499283e-02 1.67045575e-02 1.70102455e-02 1.73313823e-02 1.75619610e-02 1.77441109e-02 1.78656932e-02 1.81722194e-02 1.83693562e-02 1.87554434e-02 1.89495217e-02 1.93029325e-02 1.94509979e-02 1.96501426e-02 1.99506637e-02 2.02978663e-02 2.05920786e-02 2.07306445e-02 2.11075973e-02 2.12156828e-02 2.14971676e-02 2.16084030e-02 2.17791721e-02 2.19045244e-02 2.21352559e-02 2.23229174e-02 2.24609431e-02 2.25846134e-02 2.27216464e-02 2.28604972e-02 2.30427962e-02 2.31622104e-02 2.33413987e-02 2.35258881e-02 2.36789677e-02 2.38644816e-02 2.40669865e-02 2.42775120e-02 2.45065428e-02 2.46418603e-02 2.47978941e-02 2.48825364e-02 2.50215530e-02 2.51471270e-02 2.52571777e-02 2.53825560e-02 2.54848804e-02 2.56030858e-02 2.57060938e-02 2.58107074e-02 2.59707253e-02 2.60301121e-02 2.61551607e-02 2.63343863e-02 2.64546257e-02 2.66899150e-02 2.67590508e-02 2.68814173e-02 2.69767120e-02 2.71080565e-02 2.72337496e-02 2.73332838e-02 2.74628736e-02 2.75606122e-02 2.76464149e-02 2.77101230e-02 2.78066043e-02 2.78886668e-02 2.79741827e-02 2.80725975e-02 2.81750187e-02 2.82136071e-02 2.83200946e-02 2.84412280e-02 2.85719261e-02 2.86771599e-02 2.87727043e-02 2.88919322e-02 2.89913174e-02 2.90964283e-02 2.91500092e-02 2.92610563e-02 2.93812882e-02 2.94493511e-02 2.95736436e-02 2.96684764e-02 2.98180971e-02 2.99943201e-02 3.01079359e-02 3.02086454e-02 3.02519761e-02 3.03409230e-02 3.04068401e-02 3.04603763e-02 3.05315107e-02 3.06038894e-02 3.07038575e-02 3.08462847e-02 3.10200192e-02 3.11228670e-02 3.12086996e-02 3.12940329e-02 3.13789509e-02 3.14293131e-02 3.15688141e-02 3.16309705e-02 3.17582786e-02 3.18833180e-02 3.20326909e-02 3.21072862e-02 3.21652256e-02 3.23106833e-02 3.24557684e-02 3.25872228e-02 3.26822996e-02 3.27339657e-02 3.28951739e-02 3.29782777e-02 3.30452658e-02 3.32147479e-02 3.32989469e-02 3.33754420e-02 3.35011706e-02 3.36202681e-02 3.37283798e-02 3.38417813e-02 3.39803435e-02 3.40482183e-02 3.41321677e-02 3.41931768e-02 3.42825092e-02 3.43583301e-02 3.45229842e-02 3.46138403e-02 3.47747430e-02 3.48578282e-02 3.49512845e-02 3.50288302e-02 3.51051614e-02 3.52101140e-02 3.53125446e-02 3.53806429e-02 3.54454331e-02 3.54988128e-02 3.56191956e-02 3.56736742e-02 3.57597023e-02 3.58316004e-02 3.59198116e-02 3.59902643e-02 3.61255147e-02 3.61881740e-02 3.62679362e-02 3.64126451e-02 3.64712626e-02 3.65366712e-02 3.67089994e-02 3.68139446e-02 3.69067863e-02 3.70098576e-02 3.70948464e-02 3.72117348e-02 3.72952782e-02 3.74097340e-02 3.75107154e-02 3.76246423e-02 3.77330817e-02 3.78247797e-02 3.79377194e-02 3.79959270e-02 3.80526856e-02 3.81230302e-02 3.81927006e-02 3.82648818e-02 3.83997522e-02 3.84832472e-02 3.85557711e-02 3.86605598e-02 3.87390852e-02 3.87889631e-02 3.89110930e-02 3.89956981e-02 3.90753858e-02 3.91473360e-02 3.92423198e-02 3.93186472e-02 3.94192450e-02 3.94850112e-02 3.95991802e-02 3.96578088e-02 3.97204049e-02 3.97822261e-02 3.98579165e-02 3.99231464e-02 3.99786830e-02 4.00896817e-02 4.01751585e-02 4.02547829e-02 4.03294265e-02 4.03959267e-02 4.04979400e-02 4.05736528e-02 4.07045297e-02 4.08491865e-02 4.10151333e-02 4.10998687e-02 4.11953367e-02 4.13224362e-02 4.13964242e-02 4.15191501e-02 4.16602157e-02 4.17647064e-02 4.18877676e-02 4.19809781e-02 4.20509949e-02 4.21003737e-02 4.21883538e-02 4.22760807e-02 4.23716493e-02 4.24535424e-02 4.24938425e-02 4.26032245e-02 4.26868051e-02 4.27963622e-02 4.28964607e-02 4.29886729e-02 4.30640690e-02 4.31634076e-02 4.32860367e-02 4.33813892e-02 4.34890762e-02 4.35569733e-02 4.36266735e-02 4.37329784e-02 4.38051298e-02 4.38891090e-02 4.39501777e-02 4.41229790e-02 4.41975482e-02 4.42631394e-02 4.43254597e-02 4.43953201e-02 4.44773324e-02 4.46035154e-02 4.47286963e-02 4.48556580e-02 4.49476577e-02 4.50050496e-02 4.50679101e-02 4.51099761e-02 4.52578068e-02 4.53584157e-02 4.54370715e-02 4.55358215e-02 4.56373952e-02 4.57278639e-02 4.58090529e-02 4.59170938e-02 4.59871106e-02 4.60738726e-02 4.61632200e-02 4.62439135e-02 4.63091098e-02 4.64452505e-02 4.65414375e-02 4.66322079e-02 4.66946661e-02 4.67564948e-02 4.68484573e-02 4.69437912e-02 4.70022410e-02 4.70978282e-02 4.71856855e-02 4.72698137e-02 4.73380499e-02 4.74286862e-02 4.75010090e-02 4.75681722e-02 4.76361997e-02 4.77340855e-02 4.78180498e-02 4.79277000e-02 4.80802171e-02 4.81186397e-02 4.82010767e-02 4.83328700e-02 4.84632254e-02 4.85432148e-02 4.86448668e-02 4.88102734e-02 4.88973521e-02 4.89912592e-02 4.90804613e-02 4.91115116e-02 4.92030196e-02 4.93017696e-02 4.93880361e-02 4.94547375e-02 4.94978204e-02 4.96017821e-02 4.96947579e-02 4.97810878e-02 4.98272590e-02 4.99093160e-02 4.99908216e-02 5.00580221e-02 5.01466990e-02 5.02453186e-02 5.03728390e-02 5.04726246e-02 5.05725704e-02 5.06789163e-02 5.07892631e-02 5.08872941e-02 5.09706289e-02 5.10693714e-02 5.11445701e-02 5.12835570e-02 5.13293706e-02 5.13923578e-02 5.14522158e-02 5.15167005e-02 5.16088158e-02 5.16958982e-02 5.17755635e-02 5.18482737e-02 5.19433543e-02 5.20439409e-02 5.21130413e-02 5.21931350e-02 5.22659458e-02 5.23255393e-02 5.23940362e-02 5.25015146e-02 5.25776073e-02 5.26475608e-02 5.27635366e-02 5.28326109e-02 5.29406890e-02 5.30385599e-02 5.31214029e-02 5.32239638e-02 5.33154719e-02 5.33938222e-02 5.34927957e-02 5.35566099e-02 5.36288954e-02 5.36665730e-02 5.37233464e-02 5.37810586e-02 5.38643785e-02 5.39497510e-02 5.40227741e-02 5.40918931e-02 5.41890487e-02 5.42760417e-02 5.43394387e-02 5.44123687e-02 5.44872507e-02 5.46089336e-02 5.46729118e-02 5.47148399e-02 5.47726415e-02 5.48611805e-02 5.49450815e-02 5.50108962e-02 5.51018417e-02 5.52004650e-02 5.53025641e-02 5.53604290e-02 5.54336458e-02 5.55021241e-02 5.56107163e-02 5.57114407e-02 5.58055826e-02 5.58561981e-02 5.59296533e-02 5.60352467e-02 5.61413951e-02 5.62112778e-02 5.62891103e-02 5.63524477e-02 5.64890280e-02 5.65474555e-02 5.66560924e-02 5.67429811e-02 5.68376072e-02 5.69126271e-02 5.70892468e-02 5.71627989e-02 5.72277866e-02 5.72911389e-02 5.73767088e-02 5.74994497e-02 5.75428382e-02 5.76686077e-02 5.77285737e-02 5.77838346e-02 5.78463785e-02 5.79213873e-02 5.80307096e-02 5.80890030e-02 5.81663251e-02 5.82434833e-02 5.83085641e-02 5.83885163e-02 5.84816672e-02 5.85419610e-02 5.85928783e-02 5.86690679e-02 5.87090291e-02 5.88291213e-02 5.88967465e-02 5.89761101e-02 5.90366274e-02 5.91458231e-02 5.92516102e-02 5.92964254e-02 5.93687035e-02 5.94577678e-02 5.95263094e-02 5.96682578e-02 5.97458929e-02 5.98191954e-02 5.98733090e-02 5.99613711e-02 6.00180961e-02 6.01462908e-02 6.02264777e-02 6.03097789e-02 6.03949726e-02 6.04797229e-02 6.05781265e-02 6.06534667e-02 6.07087687e-02 6.07388951e-02 6.08152859e-02 6.09759912e-02 6.10498153e-02 6.11202046e-02 6.12105355e-02 6.13256395e-02 6.13985136e-02 6.14765957e-02 6.16062172e-02 6.16957881e-02 6.17630482e-02 6.18432499e-02 6.19035885e-02 6.19738586e-02 6.20871186e-02 6.21517487e-02 6.22218214e-02 6.23205826e-02 6.24103658e-02 6.24787211e-02 6.25069290e-02 6.26334995e-02 6.27067387e-02 6.27956912e-02 6.28508404e-02 6.29701689e-02 6.30391911e-02 6.31112382e-02 6.31878376e-02 6.33208081e-02 6.34012073e-02 6.35027438e-02 6.36512786e-02 6.37892336e-02 6.38959333e-02 6.39835447e-02 6.40654936e-02 6.41505048e-02 6.41979203e-02 6.42960519e-02 6.44134805e-02 6.45219311e-02 6.46296367e-02 6.47373870e-02 6.47966638e-02 6.48544654e-02 6.49134293e-02 6.49576113e-02 6.50226697e-02 6.51546195e-02 6.52284473e-02 6.53043911e-02 6.53612539e-02 6.54454380e-02 6.55735433e-02 6.56486675e-02 6.57297894e-02 6.57968447e-02 6.58759028e-02 6.59740269e-02 6.60471693e-02 6.61004037e-02 6.62089437e-02 6.62633479e-02 6.64038360e-02 6.65009841e-02 6.65624440e-02 6.66479021e-02 6.67525828e-02 6.68570697e-02 6.69452995e-02 6.70496821e-02 6.71365038e-02 6.72366172e-02 6.73186630e-02 6.73751011e-02 6.74966723e-02 6.76038712e-02 6.76691905e-02 6.78002536e-02 6.78887442e-02 6.79737628e-02 6.80494830e-02 6.81010261e-02 6.81639016e-02 6.82061911e-02 6.82941899e-02 6.83787912e-02 6.85042664e-02 6.85764626e-02 6.87016174e-02 6.87616244e-02 6.88776523e-02 6.89515173e-02 6.90582097e-02 6.91689700e-02 6.92402422e-02 6.93473965e-02 6.94203153e-02 6.94685578e-02 6.95711896e-02 6.96469545e-02 6.97119385e-02 6.97725788e-02 6.99001700e-02 6.99816868e-02 7.00389072e-02 7.01268241e-02 7.02084824e-02 7.02904612e-02 7.04198405e-02 7.04809204e-02 7.05773234e-02 7.07424954e-02 7.07892701e-02 7.08753765e-02 7.09605291e-02 7.09963143e-02 7.11197704e-02 7.11752772e-02 7.12403059e-02 7.13258758e-02 7.14323968e-02 7.15175644e-02 7.15808347e-02 7.16571733e-02 7.17851594e-02 7.18306899e-02 7.18917400e-02 7.19641149e-02 7.20181167e-02 7.20828846e-02 7.21610785e-02 7.22699761e-02 7.24286437e-02 7.25179017e-02 7.26412386e-02 7.27308691e-02 7.28434697e-02 7.29568899e-02 7.30452761e-02 7.31727481e-02 7.32671544e-02 7.33830556e-02 7.34736025e-02 7.35545009e-02 7.36571923e-02 7.37244189e-02 7.37764388e-02 7.38833398e-02 7.39607885e-02 7.40828514e-02 7.42536336e-02 7.43391365e-02 7.44276196e-02 7.45163560e-02 7.46010840e-02 7.46895820e-02 7.47449026e-02 7.48634711e-02 7.49692544e-02 7.50434101e-02 7.50884712e-02 7.52149001e-02 7.52808899e-02 7.53337219e-02 7.54413754e-02 7.55462348e-02 7.56196231e-02 7.56922811e-02 7.58304149e-02 7.59468377e-02 7.60291070e-02 7.60923326e-02 7.61867538e-02 7.63074979e-02 7.63915405e-02 7.64923915e-02 7.65866563e-02 7.66576454e-02 7.67437145e-02 7.68433139e-02 7.69228935e-02 7.70029128e-02 7.70809650e-02 7.71887749e-02 7.73158520e-02 7.74006993e-02 7.75588378e-02 7.76644126e-02 7.77219608e-02 7.78313279e-02 7.79007152e-02 7.80035332e-02 7.81105235e-02 7.81881958e-02 7.82736391e-02 7.83614740e-02 7.84779266e-02 7.85691068e-02 7.86232054e-02 7.86899030e-02 7.87742361e-02 7.88983703e-02 7.90290534e-02 7.91313350e-02 7.92495385e-02 7.92810470e-02 7.94113055e-02 7.95753002e-02 7.96670094e-02 7.97787011e-02 7.98521787e-02 7.99724609e-02 8.01036879e-02 8.01633820e-02 8.02482814e-02 8.03294703e-02 8.03803429e-02 8.04688558e-02 8.05663615e-02 8.06675926e-02 8.07593316e-02 8.08700919e-02 8.09315294e-02 8.10509622e-02 8.11880603e-02 8.12896639e-02 8.13662559e-02 8.14831182e-02 8.15565661e-02 8.16285238e-02 8.16872865e-02 8.18312764e-02 8.19370598e-02 8.19618478e-02 8.20401162e-02 8.20989907e-02 8.22494328e-02 8.23209882e-02 8.24479312e-02 8.26068744e-02 8.27605948e-02 8.28252211e-02 8.29059929e-02 8.29671621e-02 8.30628946e-02 8.31848457e-02 8.32449794e-02 8.33078325e-02 8.34059045e-02 8.35367069e-02 8.36345330e-02 8.36863369e-02 8.38130936e-02 8.38733613e-02 8.39615986e-02 8.40625092e-02 8.41116756e-02 8.42179134e-02 8.43099356e-02 8.43967646e-02 8.45245719e-02 8.46412852e-02 8.47323909e-02 8.47936422e-02 8.48826095e-02 8.49852264e-02 8.51069018e-02 8.51795152e-02 8.52375478e-02 8.53462517e-02 8.54593515e-02 8.55740085e-02 8.56849179e-02 8.57646540e-02 8.58379677e-02 8.59264657e-02 8.59859064e-02 8.60402957e-02 8.61386061e-02 8.62675309e-02 8.63835663e-02 8.64495486e-02 8.65329355e-02 8.66473317e-02 8.67172629e-02 8.67983475e-02 8.69283527e-02 8.70189071e-02 8.71085823e-02 8.72256756e-02 8.73172954e-02 8.74518082e-02 8.75521973e-02 8.76236483e-02 8.77544656e-02 8.78513455e-02 8.79063830e-02 8.79893154e-02 8.80890340e-02 8.81840289e-02 8.82258266e-02 8.83141235e-02 8.83968920e-02 8.84774178e-02 8.85771737e-02 8.86123255e-02 8.86482671e-02 8.87770876e-02 8.88172463e-02 8.88928622e-02 8.89762640e-02 8.90704095e-02 8.91583413e-02 8.92201811e-02 8.93022195e-02 8.94076005e-02 8.95424336e-02 8.96080881e-02 8.96895304e-02 8.98093656e-02 8.98625702e-02 8.99403617e-02 9.00981128e-02 9.01781991e-02 9.02990103e-02 9.04174373e-02 9.05254483e-02 9.07637700e-02 9.09218863e-02 9.10202414e-02 9.10978690e-02 9.12282541e-02 9.13356617e-02 9.15080458e-02 9.15799513e-02 9.16885212e-02 9.18053538e-02 9.19367149e-02 9.20153558e-02 9.21228230e-02 9.22955051e-02 9.23433751e-02 9.24163386e-02 9.25126448e-02 9.25954059e-02 9.27231237e-02 9.29256976e-02 9.30098370e-02 9.31099877e-02 9.32034776e-02 9.32989344e-02 9.33655202e-02 9.35033932e-02 9.36388299e-02 9.37622264e-02 9.38496217e-02 9.39084142e-02 9.40080807e-02 9.41676348e-02 9.42917466e-02 9.43835303e-02 9.44758579e-02 9.46422741e-02 9.48097557e-02 9.48997140e-02 9.50564593e-02 9.51015651e-02 9.52513665e-02 9.53889564e-02 9.54828411e-02 9.56209525e-02 9.57531556e-02 9.58540961e-02 9.59628522e-02 9.60338041e-02 9.61805359e-02 9.62644368e-02 9.63608548e-02 9.64799076e-02 9.65526700e-02 9.66515169e-02 9.67984423e-02 9.68860462e-02 9.69495848e-02 9.70759988e-02 9.71902907e-02 9.72429514e-02 9.73587260e-02 9.74318013e-02 9.75437015e-02 9.76779833e-02 9.77697596e-02 9.79001746e-02 9.79521573e-02 9.80863944e-02 9.81699005e-02 9.83121097e-02 9.83422101e-02 9.84008461e-02 9.84864235e-02 9.85994637e-02 9.87025946e-02 9.88520682e-02 9.89880636e-02 9.90803316e-02 9.92369950e-02 9.93064195e-02 9.93615165e-02 9.94699895e-02 9.95238274e-02 9.95858014e-02 9.96946245e-02 9.97584313e-02 9.99019146e-02 9.99958888e-02 1.00097366e-01 1.00145765e-01 1.00279838e-01 1.00405186e-01 1.00499541e-01 1.00594528e-01 1.00720614e-01 1.00815885e-01 1.00988969e-01 1.01102710e-01 1.01219304e-01 1.01378553e-01 1.01500802e-01 1.01654902e-01 1.01788849e-01 1.01929419e-01 1.02136873e-01 1.02248415e-01 1.02339238e-01 1.02488779e-01 1.02592133e-01 1.02674730e-01 1.02751963e-01 1.02806129e-01 1.02905326e-01 1.03017919e-01 1.03175335e-01 1.03295982e-01 1.03437230e-01 1.03525363e-01 1.03667833e-01 1.03725858e-01 1.03816494e-01 1.03952304e-01 1.04049809e-01 1.04125984e-01 1.04220070e-01 1.04296282e-01 1.04359694e-01 1.04455709e-01 1.04523443e-01 1.04614861e-01 1.04705416e-01 1.04852900e-01 1.04977265e-01 1.05120324e-01 1.05193287e-01 1.05285689e-01 1.05362467e-01 1.05446242e-01 1.05527095e-01 1.05637059e-01 1.05854951e-01 1.05979361e-01 1.06026173e-01 1.06092542e-01 1.06256030e-01 1.06349610e-01 1.06514998e-01 1.06623106e-01 1.06736086e-01 1.06869727e-01 1.06971227e-01 1.07082784e-01 1.07239828e-01 1.07427500e-01 1.07505709e-01 1.07584700e-01 1.07806318e-01 1.07864313e-01 1.07942015e-01 1.08099885e-01 1.08225942e-01 1.08279094e-01 1.08372182e-01 1.08516164e-01 1.08597390e-01 1.08713150e-01 1.08785726e-01 1.08901806e-01 1.09033398e-01 1.09135754e-01 1.09253436e-01 1.09348550e-01 1.09455399e-01 1.09567814e-01 1.09678268e-01 1.09817289e-01 1.09918997e-01 1.10032059e-01 1.10133849e-01 1.10197030e-01 1.10246167e-01 1.10363908e-01 1.10432155e-01 1.10569477e-01 1.10665120e-01 1.10831372e-01 1.10984102e-01 1.11094795e-01 1.11211069e-01 1.11308999e-01 1.11427024e-01 1.11543983e-01 1.11624658e-01 1.11702412e-01 1.11785352e-01 1.11833461e-01 1.11962661e-01 1.12051360e-01 1.12173840e-01 1.12256728e-01 1.12407476e-01 1.12533167e-01 1.12631604e-01 1.12687439e-01 1.12783462e-01 1.12929307e-01 1.13042571e-01 1.13164820e-01 1.13263741e-01 1.13320462e-01 1.13438524e-01 1.13525152e-01 1.13720901e-01 1.13930866e-01 1.14002638e-01 1.14145853e-01 1.14257224e-01 1.14351794e-01 1.14450157e-01 1.14575364e-01 1.14685588e-01 1.14762031e-01 1.14905618e-01 1.15003988e-01 1.15086980e-01 1.15203790e-01 1.15285635e-01 1.15485154e-01 1.15569353e-01 1.15676969e-01 1.15817711e-01 1.15962662e-01 1.16096713e-01 1.16230465e-01 1.16330646e-01 1.16468199e-01 1.16637319e-01 1.16728604e-01 1.16927259e-01 1.17043689e-01 1.17121637e-01 1.17323987e-01 1.17399111e-01 1.17477827e-01 1.17558479e-01 1.17701180e-01 1.17914952e-01 1.18025199e-01 1.18099794e-01 1.18253157e-01 1.18347652e-01 1.18467405e-01 1.18539035e-01 1.18773550e-01 1.18856162e-01 1.18948303e-01 1.19023338e-01 1.19099520e-01 1.19178362e-01 1.19335383e-01 1.19443715e-01 1.19587749e-01 1.19694486e-01 1.19843431e-01 1.20022245e-01 1.20140307e-01 1.20264754e-01 1.20362855e-01 1.20467298e-01 1.20697744e-01 1.20872222e-01 1.21008158e-01 1.21178895e-01 1.21240556e-01 1.21343635e-01 1.21503003e-01 1.21652357e-01 1.21879660e-01 1.21961996e-01 1.22086957e-01 1.22232914e-01 1.22383840e-01 1.22502126e-01 1.22598581e-01 1.22742020e-01 1.22871660e-01 1.22977816e-01 1.23077661e-01 1.23145215e-01 1.23370193e-01 1.23445429e-01 1.23556808e-01 1.23679161e-01 1.23811178e-01 1.23917811e-01 1.24124095e-01 1.24316677e-01 1.24431536e-01 1.24594823e-01 1.24771707e-01 1.24895543e-01 1.25069514e-01 1.25190496e-01 1.25262618e-01 1.25368536e-01 1.25472650e-01 1.25597969e-01 1.25727162e-01 1.25923350e-01 1.26024812e-01 1.26170948e-01 1.26317516e-01 1.26421660e-01 1.26533002e-01 1.26631215e-01 1.26790732e-01 1.26914233e-01 1.26983881e-01 1.27118453e-01 1.27200708e-01 1.27401471e-01 1.27475291e-01 1.27595440e-01 1.27750933e-01 1.27815977e-01 1.27979353e-01 1.28146157e-01 1.28314242e-01 1.28479540e-01 1.28560290e-01 1.28730252e-01 1.28878355e-01 1.28970012e-01 1.29034817e-01 1.29199564e-01 1.29302099e-01 1.29457518e-01 1.29595771e-01 1.29706666e-01 1.29876271e-01 1.29982099e-01 1.30160064e-01 1.30243972e-01 1.30367681e-01 1.30482405e-01 1.30558237e-01 1.30702451e-01 1.30822778e-01 1.30914584e-01 1.31071717e-01 1.31180823e-01 1.31251156e-01 1.31394535e-01 1.31464049e-01 1.31638214e-01 1.31711885e-01 1.31811440e-01 1.31919205e-01 1.32021919e-01 1.32155567e-01 1.32283524e-01 1.32406533e-01 1.32529765e-01 1.32598564e-01 1.32723391e-01 1.32829979e-01 1.32903159e-01 1.33108780e-01 1.33208498e-01 1.33355200e-01 1.33526921e-01 1.33661777e-01 1.33868843e-01 1.33958280e-01 1.34108856e-01 1.34275183e-01 1.34518176e-01 1.34611934e-01 1.34748116e-01 1.34900823e-01 1.35016292e-01 1.35141566e-01 1.35325864e-01 1.35493651e-01 1.35636955e-01 1.35742113e-01 1.35889634e-01 1.36057347e-01 1.36216745e-01 1.36308715e-01 1.36485785e-01 1.36669993e-01 1.36844277e-01 1.36965290e-01 1.37107387e-01 1.37289688e-01 1.37385234e-01 1.37560323e-01 1.37681305e-01 1.37821659e-01 1.37897506e-01 1.38038546e-01 1.38175771e-01 1.38289347e-01 1.38397858e-01 1.38593957e-01 1.38680786e-01 1.38828620e-01 1.38933063e-01 1.39067382e-01 1.39131054e-01 1.39244810e-01 1.39376327e-01 1.39528304e-01 1.39754251e-01 1.39840558e-01 1.39959529e-01 1.40110210e-01 1.40234351e-01 1.40335158e-01 1.40430465e-01 1.40540570e-01 1.40750900e-01 1.40925676e-01 1.41094700e-01 1.41253084e-01 1.41353369e-01 1.41597673e-01 1.41736254e-01 1.41878471e-01 1.42116278e-01 1.42367870e-01 1.42517671e-01 1.42722145e-01 1.42877996e-01 1.42969817e-01 1.43215984e-01 1.43310055e-01 1.43429324e-01 1.43624336e-01 1.43812791e-01 1.44000083e-01 1.44107237e-01 1.44213423e-01 1.44525811e-01 1.44655257e-01 1.44781932e-01 1.45034194e-01 1.45226002e-01 1.45347863e-01 1.45465329e-01 1.45626649e-01 1.45743430e-01 1.45911843e-01 1.46137491e-01 1.46279350e-01 1.46461576e-01 1.46626532e-01 1.46813884e-01 1.46987692e-01 1.47122368e-01 1.47267252e-01 1.47493437e-01 1.47610277e-01 1.47727489e-01 1.47822604e-01 1.48034230e-01 1.48137242e-01 1.48311883e-01 1.48508117e-01 1.48776963e-01 1.48891643e-01 1.49044067e-01 1.49211645e-01 1.49335057e-01 1.49443358e-01 1.49578184e-01 1.49699032e-01 1.49858028e-01 1.50094077e-01 1.50260061e-01 1.50396302e-01 1.50495738e-01 1.50647312e-01 1.50793135e-01 1.50882810e-01 1.50993869e-01 1.51159048e-01 1.51233420e-01 1.51327759e-01 1.51497111e-01 1.51709870e-01 1.51926905e-01 1.52055815e-01 1.52230650e-01 1.52361810e-01 1.52496696e-01 1.52652264e-01 1.52783856e-01 1.52883083e-01 1.53065890e-01 1.53216764e-01 1.53502315e-01 1.53709561e-01 1.53918162e-01 1.54081210e-01 1.54259846e-01 1.54514879e-01 1.54714808e-01 1.54897422e-01 1.55048192e-01 1.55142218e-01 1.55321151e-01 1.55489802e-01 1.55591980e-01 1.55733794e-01 1.55839786e-01 1.55947879e-01 1.56058595e-01 1.56289682e-01 1.56459838e-01 1.56663015e-01 1.56831175e-01 1.57044142e-01 1.57229066e-01 1.57335505e-01 1.57541290e-01 1.57689705e-01 1.57886147e-01 1.57997191e-01 1.58183798e-01 1.58348233e-01 1.58473894e-01 1.58622399e-01 1.58783242e-01 1.58946291e-01 1.59118101e-01 1.59316093e-01 1.59424305e-01 1.59530848e-01 1.59631401e-01 1.59846887e-01 1.59984976e-01 1.60168782e-01 1.60277337e-01 1.60449550e-01 1.60611629e-01 1.60708383e-01 1.60936669e-01 1.61123708e-01 1.61296710e-01 1.61458835e-01 1.61654726e-01 1.61849916e-01 1.62040517e-01 1.62224859e-01 1.62337646e-01 1.62460357e-01 1.62637100e-01 1.62779346e-01 1.62955135e-01 1.63186893e-01 1.63363189e-01 1.63499683e-01 1.63686872e-01 1.63820609e-01 1.63966134e-01 1.64190188e-01 1.64444238e-01 1.64610475e-01 1.64760366e-01 1.65008724e-01 1.65176257e-01 1.65367290e-01 1.65522680e-01 1.65632099e-01 1.65854037e-01 1.66080102e-01 1.66225925e-01 1.66316167e-01 1.66523293e-01 1.66642681e-01 1.66751936e-01 1.66878819e-01 1.67013764e-01 1.67200804e-01 1.67507932e-01 1.67730272e-01 1.67893827e-01 1.68050215e-01 1.68200895e-01 1.68527380e-01 1.68750182e-01 1.68916062e-01 1.69041246e-01 1.69172630e-01 1.69340268e-01 1.69478551e-01 1.69640481e-01 1.69790581e-01 1.69925034e-01 1.70035198e-01 1.70283109e-01 1.70528919e-01 1.70703128e-01 1.70902908e-01 1.71052590e-01 1.71209976e-01 1.71382084e-01 1.71561524e-01 1.71743497e-01 1.71886638e-01 1.72025681e-01 1.72201857e-01 1.72433734e-01 1.72714934e-01 1.72859594e-01 1.73176363e-01 1.73355594e-01 1.73594922e-01 1.73693344e-01 1.73919588e-01 1.74153715e-01 1.74297556e-01 1.74450606e-01 1.74709946e-01 1.74875379e-01 1.75146848e-01 1.75262824e-01 1.75450429e-01 1.75650150e-01 1.75868198e-01 1.76080883e-01 1.76235154e-01 1.76456898e-01 1.76683664e-01 1.76917776e-01 1.77173316e-01 1.77376270e-01 1.77625552e-01 1.77826762e-01 1.78057700e-01 1.78241819e-01 1.78384945e-01 1.78689972e-01 1.78811342e-01 1.78994671e-01 1.79246008e-01 1.79401308e-01 1.79537296e-01 1.79651454e-01 1.79907903e-01 1.80069163e-01 1.80252954e-01 1.80438235e-01 1.80733174e-01 1.80885643e-01 1.81025490e-01 1.81173369e-01 1.81385815e-01 1.81777745e-01 1.82087585e-01 1.82303175e-01 1.82449102e-01 1.82768762e-01 1.82947129e-01 1.83183640e-01 1.83453113e-01 1.83600008e-01 1.83799788e-01 1.84088156e-01 1.84265837e-01 1.84445366e-01 1.84593439e-01 1.84830725e-01 1.85110524e-01 1.85292840e-01 1.85500085e-01 1.85685754e-01 1.85965210e-01 1.86219603e-01 1.86513737e-01 1.86919451e-01 1.87057883e-01 1.87304497e-01 1.87653914e-01 1.87992975e-01 1.88191369e-01 1.88635573e-01 1.88744590e-01 1.89093679e-01 1.89252317e-01 1.89457223e-01 1.89926162e-01 1.90131783e-01 1.90327272e-01 1.90766439e-01 1.91039011e-01 1.91204801e-01 1.91346034e-01 1.91508621e-01 1.91763476e-01 1.91870123e-01 1.92128837e-01 1.92498714e-01 1.92794874e-01 1.93127096e-01 1.93343371e-01 1.93578988e-01 1.93924636e-01 1.94116056e-01 1.94423705e-01 1.94913000e-01 1.95348933e-01 1.95469916e-01 1.95652857e-01 1.95951104e-01 1.96143359e-01 1.96414068e-01 1.96614325e-01 1.96969852e-01 1.97112575e-01 1.97438419e-01 1.97730795e-01 1.97954506e-01 1.98337659e-01 1.98595658e-01 1.98789403e-01 1.98974714e-01 1.99071184e-01 1.99216068e-01 1.99458852e-01 1.99588552e-01 1.99743852e-01 2.00081155e-01 2.00302869e-01 2.00504407e-01 2.00766250e-01 2.01118365e-01 2.01308563e-01 2.01554030e-01 2.01848954e-01 2.02020362e-01 2.02310458e-01 2.02430665e-01 2.02790797e-01 2.02997923e-01 2.03309178e-01 2.03453884e-01 2.03675538e-01 2.03892902e-01 2.04075068e-01 2.04271987e-01 2.04451382e-01 2.04662010e-01 2.04986319e-01 2.05204248e-01 2.05527082e-01 2.05876857e-01 2.06259936e-01 2.06453621e-01 2.06854358e-01 2.07008541e-01 2.07279027e-01 2.07542539e-01 2.07716435e-01 2.08109558e-01 2.08345369e-01 2.08662763e-01 2.08800182e-01 2.09072813e-01 2.09331527e-01 2.09762007e-01 2.10066676e-01 2.10428700e-01 2.10685000e-01 2.10939378e-01 2.11245507e-01 2.11552083e-01 2.11758852e-01 2.12065011e-01 2.12315053e-01 2.12503240e-01 2.12805435e-01 2.13174105e-01 2.13331655e-01 2.13609532e-01 2.13900894e-01 2.14100778e-01 2.14454979e-01 2.14750439e-01 2.15026736e-01 2.15331644e-01 2.15638414e-01 2.16101944e-01 2.16365069e-01 2.16552898e-01 2.16764867e-01 2.17084303e-01 2.17356548e-01 2.17630491e-01 2.18024477e-01 2.18331575e-01 2.18496650e-01 2.18812123e-01 2.18939334e-01 2.19215646e-01 2.19423115e-01 2.19773412e-01 2.20077425e-01 2.20348179e-01 2.20554546e-01 2.20898762e-01 2.21199796e-01 2.21401110e-01 2.21820578e-01 2.22134605e-01 2.22424597e-01 2.22892746e-01 2.23049566e-01 2.23332003e-01 2.23715037e-01 2.24134445e-01 2.24389449e-01 2.24631503e-01 2.24941283e-01 2.25528926e-01 2.25759551e-01 2.26028860e-01 2.26297498e-01 2.26449281e-01 2.26754114e-01 2.26960540e-01 2.27293566e-01 2.27580398e-01 2.27853879e-01 2.28142381e-01 2.28424713e-01 2.28642240e-01 2.28928462e-01 2.29259536e-01 2.29608819e-01 2.29870170e-01 2.30268568e-01 2.30623409e-01 2.31160924e-01 2.31408477e-01 2.31827706e-01 2.32092276e-01 2.32500955e-01 2.32723355e-01 2.32940346e-01 2.33114704e-01 2.33509362e-01 2.33807012e-01 2.34042466e-01 2.34363928e-01 2.34656543e-01 2.35113293e-01 2.35416040e-01 2.35597000e-01 2.35910743e-01 2.36371279e-01 2.36965194e-01 2.37401307e-01 2.37728298e-01 2.38101736e-01 2.38541767e-01 2.38968134e-01 2.39434451e-01 2.39877358e-01 2.40228072e-01 2.40828678e-01 2.41163254e-01 2.41801143e-01 2.42355213e-01 2.42668331e-01 2.43083462e-01 2.43335515e-01 2.43958727e-01 2.44486183e-01 2.44778112e-01 2.45261028e-01 2.45856106e-01 2.46388450e-01 2.47090578e-01 2.47449160e-01 2.47642845e-01 2.48004943e-01 2.48210117e-01 2.48545572e-01 2.48772711e-01 2.49461278e-01 2.49849483e-01 2.50293106e-01 2.50641495e-01 2.51075655e-01 2.51400858e-01 2.52083361e-01 2.52388030e-01 2.52806246e-01 2.53072381e-01 2.53381371e-01 2.53953874e-01 2.54348636e-01 2.54689872e-01 2.55041122e-01 2.55500823e-01 2.55750358e-01 2.56092042e-01 2.56478488e-01 2.56738901e-01 2.57476807e-01 2.57794112e-01 2.58210182e-01 2.58550614e-01 2.58988649e-01 2.59398401e-01 2.59993494e-01 2.60388285e-01 2.60733366e-01 2.61532426e-01 2.61943579e-01 2.62466252e-01 2.62821794e-01 2.63244927e-01 2.64080286e-01 2.64349878e-01 2.64598340e-01 2.64967680e-01 2.65526175e-01 2.65998214e-01 2.66868770e-01 2.67356873e-01 2.67806828e-01 2.68495679e-01 2.69051880e-01 2.69325972e-01 2.69796371e-01 2.70564348e-01 2.71014512e-01 2.71295339e-01 2.71698982e-01 2.72503197e-01 2.73040026e-01 2.73486167e-01 2.74193913e-01 2.74663568e-01 2.74975032e-01 2.75578380e-01 2.75980264e-01 2.76319116e-01 2.76857972e-01 2.77445644e-01 2.78500050e-01 2.79109687e-01 2.79728681e-01 2.80355483e-01 2.81007349e-01 2.81558335e-01 2.82073170e-01 2.82786280e-01 2.83070773e-01 2.83956856e-01 2.84377754e-01 2.85270959e-01 2.85799295e-01 2.86440521e-01 2.86758035e-01 2.87449777e-01 2.87881494e-01 2.88658202e-01 2.89233834e-01 2.89655387e-01 2.90160924e-01 2.90694565e-01 2.91331291e-01 2.91736394e-01 2.92185456e-01 2.92645276e-01 2.93109924e-01 2.93662459e-01 2.94047028e-01 2.94569880e-01 2.95405716e-01 2.96056241e-01 2.96711057e-01 2.97474980e-01 2.98368663e-01 2.99066961e-01 2.99436152e-01 3.00005376e-01 3.00463438e-01 3.01051021e-01 3.01948488e-01 3.02769482e-01 3.03420544e-01 3.04005653e-01 3.04759115e-01 3.05384189e-01 3.05931270e-01 3.06724787e-01 3.07530046e-01 3.08184355e-01 3.09022903e-01 3.09837848e-01 3.10596526e-01 3.11213166e-01 3.11922550e-01 3.12551439e-01 3.13462108e-01 3.14100832e-01 3.14891756e-01 3.15810770e-01 3.16694587e-01 3.17423731e-01 3.18732738e-01 3.19438130e-01 3.20572078e-01 3.21516573e-01 3.22474986e-01 3.23221356e-01 3.23780239e-01 3.24499190e-01 3.25256974e-01 3.26299727e-01 3.27273011e-01 3.28255594e-01 3.28858912e-01 3.29944432e-01 3.31166059e-01 3.31821203e-01 3.32787722e-01 3.34074974e-01 3.35267842e-01 3.36062044e-01 3.37141395e-01 3.38486731e-01 3.39318126e-01 3.40289980e-01 3.41664106e-01 3.42061341e-01 3.43176812e-01 3.44582915e-01 3.45947802e-01 3.47002447e-01 3.47696662e-01 3.49178612e-01 3.50310117e-01 3.51302326e-01 3.52214545e-01 3.53313178e-01 3.54232550e-01 3.56034398e-01 3.57181489e-01 3.59463185e-01 3.60917598e-01 3.61877739e-01 3.63703310e-01 3.65537733e-01 3.67422163e-01 3.68626833e-01 3.70436609e-01 3.71375620e-01 3.72536510e-01 3.74039322e-01 3.75531554e-01 3.76449019e-01 3.78808141e-01 3.79738986e-01 3.81463766e-01 3.82923722e-01 3.84182215e-01 3.86770338e-01 3.88344556e-01 3.89886409e-01 3.92910928e-01 3.94081801e-01 3.96807879e-01 3.98732454e-01 4.00199801e-01 4.03467059e-01 4.06422824e-01 4.09079552e-01 4.11785215e-01 4.15442556e-01 4.17452633e-01 4.19251770e-01 4.21031207e-01 4.23095882e-01 4.24388468e-01 4.26955909e-01 4.28339541e-01 4.30375993e-01 4.31854069e-01 4.35032904e-01 4.36990112e-01 4.40114290e-01 4.42579389e-01 4.45008188e-01 4.46951687e-01 4.49478716e-01 4.52865750e-01 4.55930501e-01 4.59022135e-01 4.64219868e-01 4.66818333e-01 4.71580446e-01 4.75459695e-01 4.78886515e-01 4.82820868e-01 4.87120539e-01 4.91903096e-01 4.97107029e-01 4.98897493e-01 5.05550683e-01 5.12765586e-01 5.20341754e-01 5.27663827e-01 5.30723512e-01 5.37054300e-01 5.40522277e-01 5.44906318e-01 5.48217475e-01 5.53665161e-01 5.59748471e-01 5.64507365e-01 5.67961991e-01 5.75951159e-01 5.80033720e-01 5.90204000e-01 6.00523353e-01 6.05721235e-01 6.19133472e-01 6.32247567e-01 6.36939526e-01 6.50508881e-01 6.62988901e-01 6.71332479e-01 6.84793711e-01 6.91683590e-01 7.07585156e-01 7.21003532e-01 7.38347173e-01 7.53794730e-01 7.77050197e-01 7.91241825e-01 8.28053355e-01 8.43742490e-01 8.75393808e-01 8.94314408e-01 9.17838097e-01 9.61153269e-01 1.02468610e+00 1.10863423e+00 1.29816830e+00 1.62955236e+00 2.29714632e+00 
            </HistogramBinning>
          </PDF>
        </CumulativePDF_cls0>
        <CumulativePDF_cls1>
          <PDF Name="GaussTransform var0 cls1" MinNSmooth="0" MaxNSmooth="0" InterpolMethod="1" KDE_type="0" KDE_iter="1" KDE_border="1" KDE_finefactor="0.0000000000000000e+00">
            <Histogram Name="Cumulative_Var0_cls1_original" NBins="1176" XMin="2.0622363314032555e-02" XMax="1.8503884077072144e+00" HasEquidistantBins="0">
              6.16693229e-04 1.38224347e-03 2.22753850e-03 3.08346632e-03 3.93407745e-03 4.78468882e-03 5.63530019e-03 6.48591155e-03 7.33652292e-03 8.18713475e-03 9.03774612e-03 9.88835748e-03 1.07389688e-02 1.15895802e-02 1.24401916e-02 1.32908029e-02 1.41414143e-02 1.49920257e-02 1.58426370e-02 1.66932475e-02 1.75438598e-02 1.83944702e-02 1.92450825e-02 2.00956929e-02 2.09463052e-02 2.17969157e-02 2.26475280e-02 2.34981384e-02 2.43487507e-02 2.51993611e-02 2.60499734e-02 2.69005839e-02 2.77511962e-02 2.86018085e-02 2.94524189e-02 3.03030312e-02 3.11536416e-02 3.20042521e-02 3.28548662e-02 3.37054767e-02 3.45560871e-02 3.54066975e-02 3.62573117e-02 3.71079221e-02 3.79585326e-02 3.88091430e-02 3.96597572e-02 4.05103676e-02 4.13609780e-02 4.22115885e-02 4.30622026e-02 4.39128131e-02 4.47634235e-02 4.56140339e-02 4.64646481e-02 4.73152585e-02 4.81658690e-02 4.90164794e-02 4.98670936e-02 5.07177040e-02 5.15683144e-02 5.24189249e-02 5.32695390e-02 5.41201495e-02 5.49707599e-02 5.58213703e-02 5.66719845e-02 5.75225949e-02 5.83732054e-02 5.92238158e-02 6.00744300e-02 6.09250404e-02 6.17756508e-02 6.26262650e-02 6.34768754e-02 6.43274859e-02 6.51780963e-02 6.60287067e-02 6.68793172e-02 6.77299276e-02 6.85805455e-02 6.94311559e-02 7.02817664e-02 7.11323768e-02 7.19829872e-02 7.28335977e-02 7.36842081e-02 7.45348185e-02 7.53854364e-02 7.62360469e-02 7.70866573e-02 7.79372677e-02 7.87878782e-02 7.96384886e-02 8.04890990e-02 8.13397095e-02 8.21903273e-02 8.30409378e-02 8.38915482e-02 8.47421587e-02 8.55927691e-02 8.64433795e-02 8.72939900e-02 8.81446004e-02 8.89952183e-02 8.98458287e-02 9.06964391e-02 9.15470496e-02 9.23976600e-02 9.32482705e-02 9.40988809e-02 9.49494913e-02 9.58001092e-02 9.66507196e-02 9.75013301e-02 9.83519405e-02 9.92025509e-02 1.00053161e-01 1.00903772e-01 1.01754382e-01 1.02605000e-01 1.03455611e-01 1.04306221e-01 1.05156831e-01 1.06007442e-01 1.06858052e-01 1.07708663e-01 1.08559281e-01 1.09409891e-01 1.10260502e-01 1.11111112e-01 1.11961722e-01 1.12812333e-01 1.13662943e-01 1.14513554e-01 1.15364172e-01 1.16214782e-01 1.17065392e-01 1.17916003e-01 1.18766613e-01 1.19617224e-01 1.20467834e-01 1.21318445e-01 1.22169062e-01 1.23019673e-01 1.23870283e-01 1.24720894e-01 1.25571504e-01 1.26422122e-01 1.27272725e-01 1.28123343e-01 1.28973946e-01 1.29824564e-01 1.30675167e-01 1.31525785e-01 1.32376403e-01 1.33227006e-01 1.34077623e-01 1.34928226e-01 1.35778844e-01 1.36629447e-01 1.37480065e-01 1.38330668e-01 1.39181286e-01 1.40031904e-01 1.40882507e-01 1.41733125e-01 1.42583728e-01 1.43434346e-01 1.44284949e-01 1.45135567e-01 1.45986184e-01 1.46836787e-01 1.47687405e-01 1.48538008e-01 1.49388626e-01 1.50239229e-01 1.51089847e-01 1.51940450e-01 1.52791068e-01 1.53641686e-01 1.54492289e-01 1.55342907e-01 1.56193510e-01 1.57044128e-01 1.57894731e-01 1.58745348e-01 1.59595966e-01 1.60446569e-01 1.61297187e-01 1.62147790e-01 1.62998408e-01 1.63849011e-01 1.64699629e-01 1.65550232e-01 1.66400850e-01 1.67251468e-01 1.68102071e-01 1.68952689e-01 1.69803292e-01 1.70653909e-01 1.71504512e-01 1.72355130e-01 1.73205748e-01 1.74056351e-01 1.74906969e-01 1.75757572e-01 1.76608190e-01 1.77458793e-01 1.78309411e-01 1.79160029e-01 1.80010632e-01 1.80861250e-01 1.81711853e-01 1.82562470e-01 1.83413073e-01 1.84263691e-01 1.85114294e-01 1.85964912e-01 1.86815530e-01 1.87666133e-01 1.88516751e-01 1.89367354e-01 1.90217972e-01 1.91068575e-01 1.91919193e-01 1.92769811e-01 1.93620414e-01 1.94471031e-01 1.95321634e-01 1.96172252e-01 1.97022855e-01 1.97873473e-01 1.98724076e-01 1.99574694e-01 2.00425312e-01 2.01275915e-01 2.02126533e-01 2.02977136e-01 2.03827754e-01 2.04678357e-01 2.05528975e-01 2.06379592e-01 2.07230195e-01 2.08080813e-01 2.08931416e-01 2.09782034e-01 2.10632637e-01 2.11483255e-01 2.12333858e-01 2.13184476e-01 2.14035094e-01 2.14885697e-01 2.15736315e-01 2.16586918e-01 2.17437536e-01 2.18288139e-01 2.19138756e-01 2.19989374e-01 2.20839977e-01 2.21690595e-01 2.22541198e-01 2.23391816e-01 2.24242419e-01 2.25093037e-01 2.25943640e-01 2.26794258e-01 2.27644876e-01 2.28495479e-01 2.29346097e-01 2.30196700e-01 2.31047317e-01 2.31897920e-01 2.32748538e-01 2.33599156e-01 2.34449759e-01 2.35300377e-01 2.36150980e-01 2.37001598e-01 2.37852201e-01 2.38702819e-01 2.39553422e-01 2.40404040e-01 2.41254658e-01 2.42105260e-01 2.42955878e-01 2.43806481e-01 2.44657099e-01 2.45507702e-01 2.46358320e-01 2.47208938e-01 2.48059541e-01 2.48910159e-01 2.49760762e-01 2.50611365e-01 2.51461983e-01 2.52312601e-01 2.53163218e-01 2.54013836e-01 2.54864424e-01 2.55715042e-01 2.56565660e-01 2.57416278e-01 2.58266866e-01 2.59117484e-01 2.59968102e-01 2.60818720e-01 2.61669338e-01 2.62519926e-01 2.63370544e-01 2.64221162e-01 2.65071779e-01 2.65922368e-01 2.66772985e-01 2.67623603e-01 2.68474221e-01 2.69324839e-01 2.70175427e-01 2.71026045e-01 2.71876663e-01 2.72727281e-01 2.73577899e-01 2.74428487e-01 2.75279105e-01 2.76129723e-01 2.76980340e-01 2.77830929e-01 2.78681546e-01 2.79532164e-01 2.80382782e-01 2.81233400e-01 2.82083988e-01 2.82934606e-01 2.83785224e-01 2.84635842e-01 2.85486430e-01 2.86337048e-01 2.87187666e-01 2.88038284e-01 2.88888901e-01 2.89739490e-01 2.90590107e-01 2.91440725e-01 2.92291343e-01 2.93141931e-01 2.93992549e-01 2.94843167e-01 2.95693785e-01 2.96544403e-01 2.97394991e-01 2.98245609e-01 2.99096227e-01 2.99946845e-01 3.00797462e-01 3.01648051e-01 3.02498668e-01 3.03349286e-01 3.04199904e-01 3.05050492e-01 3.05901110e-01 3.06751728e-01 3.07602346e-01 3.08452964e-01 3.09303552e-01 3.10154170e-01 3.11004788e-01 3.11855406e-01 3.12705994e-01 3.13556612e-01 3.14407229e-01 3.15257847e-01 3.16108465e-01 3.16959053e-01 3.17809671e-01 3.18660289e-01 3.19510907e-01 3.20361495e-01 3.21212113e-01 3.22062731e-01 3.22913349e-01 3.23763967e-01 3.24614555e-01 3.25465173e-01 3.26315790e-01 3.27166408e-01 3.28017026e-01 3.28867614e-01 3.29718232e-01 3.30568850e-01 3.31419468e-01 3.32270056e-01 3.33120674e-01 3.33971292e-01 3.34821910e-01 3.35672528e-01 3.36523116e-01 3.37373734e-01 3.38224351e-01 3.39074969e-01 3.39925557e-01 3.40776175e-01 3.41626793e-01 3.42477411e-01 3.43328029e-01 3.44178617e-01 3.45029235e-01 3.45879853e-01 3.46730471e-01 3.47581089e-01 3.48431677e-01 3.49282295e-01 3.50132912e-01 3.50983530e-01 3.51834118e-01 3.52684736e-01 3.53535354e-01 3.54385972e-01 3.55236590e-01 3.56087178e-01 3.56937796e-01 3.57788414e-01 3.58639032e-01 3.59489620e-01 3.60340238e-01 3.61190856e-01 3.62041473e-01 3.62892091e-01 3.63742679e-01 3.64593297e-01 3.65443915e-01 3.66294533e-01 3.67145121e-01 3.67995739e-01 3.68846357e-01 3.69696975e-01 3.70547593e-01 3.71398181e-01 3.72248799e-01 3.73099416e-01 3.73950034e-01 3.74800652e-01 3.75651240e-01 3.76501858e-01 3.77352476e-01 3.78203094e-01 3.79053682e-01 3.79904300e-01 3.80754918e-01 3.81605536e-01 3.82456154e-01 3.83306742e-01 3.84157360e-01 3.85007977e-01 3.85858595e-01 3.86709183e-01 3.87559801e-01 3.88410419e-01 3.89261037e-01 3.90111655e-01 3.90962243e-01 3.91812861e-01 3.92663479e-01 3.93514097e-01 3.94364685e-01 3.95215303e-01 3.96065921e-01 3.96916538e-01 3.97767156e-01 3.98617744e-01 3.99468362e-01 4.00318980e-01 4.01169598e-01 4.02020216e-01 4.02870804e-01 4.03721422e-01 4.04572040e-01 4.05422658e-01 4.06273246e-01 4.07123864e-01 4.07974482e-01 4.08825099e-01 4.09675717e-01 4.10526305e-01 4.11376923e-01 4.12227541e-01 4.13078159e-01 4.13928747e-01 4.14779365e-01 4.15629983e-01 4.16480601e-01 4.17331219e-01 4.18181807e-01 4.19032425e-01 4.19883043e-01 4.20733660e-01 4.21584278e-01 4.22434866e-01 4.23285484e-01 4.24136102e-01 4.24986720e-01 4.25837308e-01 4.26687926e-01 4.27538544e-01 4.28389162e-01 4.29239780e-01 4.30090368e-01 4.30940986e-01 4.31791604e-01 4.32642221e-01 4.33492810e-01 4.34343427e-01 4.35194045e-01 4.36044663e-01 4.36895281e-01 4.37745869e-01 4.38596487e-01 4.39447105e-01 4.40297723e-01 4.41148311e-01 4.41998929e-01 4.42849547e-01 4.43700165e-01 4.44550782e-01 4.45401371e-01 4.46251988e-01 4.47102606e-01 4.47953224e-01 4.48803842e-01 4.49654430e-01 4.50505048e-01 4.51355666e-01 4.52206284e-01 4.53056872e-01 4.53907490e-01 4.54758108e-01 4.55608726e-01 4.56459343e-01 4.57309932e-01 4.58160549e-01 4.59011167e-01 4.59861785e-01 4.60712373e-01 4.61562991e-01 4.62413609e-01 4.63264227e-01 4.64114845e-01 4.64965433e-01 4.65816051e-01 4.66666669e-01 4.67517287e-01 4.68367875e-01 4.69218493e-01 4.70069110e-01 4.70919728e-01 4.71770346e-01 4.72620934e-01 4.73471552e-01 4.74322170e-01 4.75172788e-01 4.76023406e-01 4.76873994e-01 4.77724612e-01 4.78575230e-01 4.79425848e-01 4.80276436e-01 4.81127053e-01 4.81977671e-01 4.82828289e-01 4.83678907e-01 4.84529495e-01 4.85380113e-01 4.86230731e-01 4.87081349e-01 4.87931937e-01 4.88782555e-01 4.89633173e-01 4.90483791e-01 4.91334409e-01 4.92184997e-01 4.93035614e-01 4.93886232e-01 4.94736850e-01 4.95587468e-01 4.96438056e-01 4.97288674e-01 4.98139292e-01 4.98989910e-01 4.99840498e-01 5.00691116e-01 5.01541734e-01 5.02392352e-01 5.03242970e-01 5.04093587e-01 5.04944205e-01 5.05794764e-01 5.06645381e-01 5.07495999e-01 5.08346617e-01 5.09197235e-01 5.10047853e-01 5.10898471e-01 5.11749089e-01 5.12599707e-01 5.13450265e-01 5.14300883e-01 5.15151501e-01 5.16002119e-01 5.16852736e-01 5.17703354e-01 5.18553972e-01 5.19404590e-01 5.20255208e-01 5.21105766e-01 5.21956384e-01 5.22807002e-01 5.23657620e-01 5.24508238e-01 5.25358856e-01 5.26209474e-01 5.27060091e-01 5.27910709e-01 5.28761268e-01 5.29611886e-01 5.30462503e-01 5.31313121e-01 5.32163739e-01 5.33014357e-01 5.33864975e-01 5.34715593e-01 5.35566211e-01 5.36416829e-01 5.37267387e-01 5.38118005e-01 5.38968623e-01 5.39819241e-01 5.40669858e-01 5.41520476e-01 5.42371094e-01 5.43221712e-01 5.44072330e-01 5.44922888e-01 5.45773506e-01 5.46624124e-01 5.47474742e-01 5.48325360e-01 5.49175978e-01 5.50026596e-01 5.50877213e-01 5.51727831e-01 5.52578390e-01 5.53429008e-01 5.54279625e-01 5.55130243e-01 5.55980861e-01 5.56831479e-01 5.57682097e-01 5.58532715e-01 5.59383333e-01 5.60233891e-01 5.61084509e-01 5.61935127e-01 5.62785745e-01 5.63636363e-01 5.64486980e-01 5.65337598e-01 5.66188216e-01 5.67038834e-01 5.67889392e-01 5.68740010e-01 5.69590628e-01 5.70441246e-01 5.71291864e-01 5.72142482e-01 5.72993100e-01 5.73843718e-01 5.74694335e-01 5.75544894e-01 5.76395512e-01 5.77246130e-01 5.78096747e-01 5.78947365e-01 5.79797983e-01 5.80648601e-01 5.81499219e-01 5.82349837e-01 5.83200455e-01 5.84051013e-01 5.84901631e-01 5.85752249e-01 5.86602867e-01 5.87453485e-01 5.88304102e-01 5.89154720e-01 5.90005338e-01 5.90855956e-01 5.91706514e-01 5.92557132e-01 5.93407750e-01 5.94258368e-01 5.95108986e-01 5.95959604e-01 5.96810222e-01 5.97660840e-01 5.98511457e-01 5.99362016e-01 6.00212634e-01 6.01063251e-01 6.01913869e-01 6.02764487e-01 6.03615105e-01 6.04465723e-01 6.05316341e-01 6.06166959e-01 6.07017517e-01 6.07868135e-01 6.08718753e-01 6.09569371e-01 6.10419989e-01 6.11270607e-01 6.12121224e-01 6.12971842e-01 6.13822460e-01 6.14673018e-01 6.15523636e-01 6.16374254e-01 6.17224872e-01 6.18075490e-01 6.18926108e-01 6.19776726e-01 6.20627344e-01 6.21477962e-01 6.22328520e-01 6.23179138e-01 6.24029756e-01 6.24880373e-01 6.25730991e-01 6.26581609e-01 6.27432227e-01 6.28282845e-01 6.29133463e-01 6.29984081e-01 6.30834639e-01 6.31685257e-01 6.32535875e-01 6.33386493e-01 6.34237111e-01 6.35087729e-01 6.35938346e-01 6.36788964e-01 6.37639582e-01 6.38490140e-01 6.39340758e-01 6.40191376e-01 6.41041994e-01 6.41892612e-01 6.42743230e-01 6.43593848e-01 6.44444466e-01 6.45295084e-01 6.46145642e-01 6.46996260e-01 6.47846878e-01 6.48697495e-01 6.49548113e-01 6.50398731e-01 6.51249349e-01 6.52099967e-01 6.52950585e-01 6.53801143e-01 6.54651761e-01 6.55502379e-01 6.56352997e-01 6.57203615e-01 6.58054233e-01 6.58904850e-01 6.59755468e-01 6.60606086e-01 6.61456645e-01 6.62307262e-01 6.63157880e-01 6.64008498e-01 6.64859116e-01 6.65709734e-01 6.66560352e-01 6.67410970e-01 6.68261588e-01 6.69112146e-01 6.69962764e-01 6.70813382e-01 6.71664000e-01 6.72514617e-01 6.73365235e-01 6.74215853e-01 6.75066471e-01 6.75917089e-01 6.76767647e-01 6.77618265e-01 6.78468883e-01 6.79319501e-01 6.80170119e-01 6.81020737e-01 6.81871355e-01 6.82721972e-01 6.83572590e-01 6.84423208e-01 6.85273767e-01 6.86124384e-01 6.86975002e-01 6.87825620e-01 6.88676238e-01 6.89526856e-01 6.90377474e-01 6.91228092e-01 6.92078710e-01 6.92929268e-01 6.93779886e-01 6.94630504e-01 6.95481122e-01 6.96331739e-01 6.97182357e-01 6.98032975e-01 6.98883593e-01 6.99734211e-01 7.00584769e-01 7.01435387e-01 7.02286005e-01 7.03136623e-01 7.03987241e-01 7.04837859e-01 7.05688477e-01 7.06539094e-01 7.07389712e-01 7.08240271e-01 7.09090889e-01 7.09941506e-01 7.10792124e-01 7.11642742e-01 7.12493360e-01 7.13343978e-01 7.14194596e-01 7.15045214e-01 7.15895772e-01 7.16746390e-01 7.17597008e-01 7.18447626e-01 7.19298244e-01 7.20148861e-01 7.20999479e-01 7.21850097e-01 7.22700715e-01 7.23551273e-01 7.24401891e-01 7.25252509e-01 7.26103127e-01 7.26953745e-01 7.27804363e-01 7.28654981e-01 7.29505599e-01 7.30356216e-01 7.31206834e-01 7.32057393e-01 7.32908010e-01 7.33758628e-01 7.34609246e-01 7.35459864e-01 7.36310482e-01 7.37161100e-01 7.38011718e-01 7.38862336e-01 7.39712894e-01 7.40563512e-01 7.41414130e-01 7.42264748e-01 7.43115366e-01 7.43965983e-01 7.44816601e-01 7.45667219e-01 7.46517837e-01 7.47368395e-01 7.48219013e-01 7.49069631e-01 7.49920249e-01 7.50770867e-01 7.51621485e-01 7.52472103e-01 7.53322721e-01 7.54173338e-01 7.55023897e-01 7.55874515e-01 7.56725132e-01 7.57575750e-01 7.58426368e-01 7.59276986e-01 7.60127604e-01 7.60978222e-01 7.61828840e-01 7.62679398e-01 7.63530016e-01 7.64380634e-01 7.65231252e-01 7.66081870e-01 7.66932487e-01 7.67783105e-01 7.68633723e-01 7.69484341e-01 7.70334899e-01 7.71185517e-01 7.72036135e-01 7.72886753e-01 7.73737371e-01 7.74587989e-01 7.75438607e-01 7.76289225e-01 7.77139843e-01 7.77990460e-01 7.78841019e-01 7.79691637e-01 7.80542254e-01 7.81392872e-01 7.82243490e-01 7.83094108e-01 7.83944726e-01 7.84795344e-01 7.85645962e-01 7.86496520e-01 7.87347138e-01 7.88197756e-01 7.89048374e-01 7.89898992e-01 7.90749609e-01 7.91600227e-01 7.92450845e-01 7.93301463e-01 7.94152021e-01 7.95002639e-01 7.95853257e-01 7.96703875e-01 7.97554493e-01 7.98405111e-01 7.99255729e-01 8.00106347e-01 8.00956964e-01 8.01807523e-01 8.02658141e-01 8.03508759e-01 8.04359376e-01 8.05209994e-01 8.06060612e-01 8.06911230e-01 8.07761848e-01 8.08612466e-01 8.09463024e-01 8.10313642e-01 8.11164260e-01 8.12014878e-01 8.12865496e-01 8.13716114e-01 8.14566731e-01 8.15417349e-01 8.16267967e-01 8.17118526e-01 8.17969143e-01 8.18819761e-01 8.19670379e-01 8.20520997e-01 8.21371615e-01 8.22222233e-01 8.23072851e-01 8.23923469e-01 8.24774027e-01 8.25624645e-01 8.26475263e-01 8.27325881e-01 8.28176498e-01 8.29027116e-01 8.29877734e-01 8.30728352e-01 8.31578970e-01 8.32429588e-01 8.33280146e-01 8.34130764e-01 8.34981382e-01 8.35832000e-01 8.36682618e-01 8.37533236e-01 8.38383853e-01 8.39234471e-01 8.40085089e-01 8.40935647e-01 8.41786265e-01 8.42636883e-01 8.43487501e-01 8.44338119e-01 8.45188737e-01 8.46039355e-01 8.46889973e-01 8.47740591e-01 8.48591149e-01 8.49441767e-01 8.50292385e-01 8.51143003e-01 8.51993620e-01 8.52844238e-01 8.53694856e-01 8.54545474e-01 8.55396092e-01 8.56246650e-01 8.57097268e-01 8.57947886e-01 8.58798504e-01 8.59649122e-01 8.60499740e-01 8.61350358e-01 8.62200975e-01 8.63051593e-01 8.63902152e-01 8.64752769e-01 8.65603387e-01 8.66454005e-01 8.67304623e-01 8.68155241e-01 8.69005859e-01 8.69856477e-01 8.70707095e-01 8.71557653e-01 8.72408271e-01 8.73258889e-01 8.74109507e-01 8.74960124e-01 8.75810742e-01 8.76661360e-01 8.77511978e-01 8.78362596e-01 8.79213214e-01 8.80063772e-01 8.80914390e-01 8.81765008e-01 8.82615626e-01 8.83466244e-01 8.84316862e-01 8.85167480e-01 8.86018097e-01 8.86868715e-01 8.87719274e-01 8.88569891e-01 8.89420509e-01 8.90271127e-01 8.91121745e-01 8.91972363e-01 8.92822981e-01 8.93673599e-01 8.94524217e-01 8.95374775e-01 8.96225393e-01 8.97076011e-01 8.97926629e-01 8.98777246e-01 8.99627864e-01 9.00478482e-01 9.01329100e-01 9.02179718e-01 9.03030276e-01 9.03880894e-01 9.04731512e-01 9.05582130e-01 9.06432748e-01 9.07283366e-01 9.08133984e-01 9.08984601e-01 9.09835219e-01 9.10685778e-01 9.11536396e-01 9.12387013e-01 9.13237631e-01 9.14088249e-01 9.14938867e-01 9.15789485e-01 9.16640103e-01 9.17490721e-01 9.18341279e-01 9.19191897e-01 9.20042515e-01 9.20893133e-01 9.21743751e-01 9.22594368e-01 9.23444986e-01 9.24295604e-01 9.25146222e-01 9.25996840e-01 9.26847398e-01 9.27698016e-01 9.28548634e-01 9.29399252e-01 9.30249870e-01 9.31100488e-01 9.31951106e-01 9.32801723e-01 9.33652341e-01 9.34502900e-01 9.35353518e-01 9.36204135e-01 9.37054753e-01 9.37905371e-01 9.38755989e-01 9.39606607e-01 9.40457225e-01 9.41307843e-01 9.42158401e-01 9.43009019e-01 9.43859637e-01 9.44710255e-01 9.45560873e-01 9.46411490e-01 9.47262108e-01 9.48112726e-01 9.48963344e-01 9.49813902e-01 9.50664520e-01 9.51515138e-01 9.52365756e-01 9.53216374e-01 9.54066992e-01 9.54917610e-01 9.55768228e-01 9.56618845e-01 9.57469404e-01 9.58320022e-01 9.59170640e-01 9.60021257e-01 9.60871875e-01 9.61722493e-01 9.62573111e-01 9.63423729e-01 9.64274347e-01 9.65124905e-01 9.65975523e-01 9.66826141e-01 9.67676759e-01 9.68527377e-01 9.69377995e-01 9.70228612e-01 9.71079230e-01 9.71929848e-01 9.72780406e-01 9.73631024e-01 9.74481642e-01 9.75332260e-01 9.76182878e-01 9.77033496e-01 9.77884114e-01 9.78734732e-01 9.79585350e-01 9.80435967e-01 9.81286526e-01 9.82137144e-01 9.82987761e-01 9.83838379e-01 9.84688997e-01 9.85539615e-01 9.86390233e-01 9.87240851e-01 9.88091469e-01 9.88942027e-01 9.89792645e-01 9.90643263e-01 9.91493881e-01 9.92344499e-01 9.93195117e-01 9.94045734e-01 9.94896352e-01 9.95746970e-01 9.96597528e-01 9.97448146e-01 9.98298764e-01 9.99149382e-01 1.00000000e+00 
            </Histogram>
            <HistogramBinning NBins="1176">
