<?xml version="1.0"?>
<MethodSetup Method="BDT::BDT">
  <GeneralInfo>
    <Info name="TMVA Release" value="4.2.0 [262656]"/>
    <Info name="ROOT Release" value="5.34/18 [336402]"/>
    <Info name="Creator" value="dansand"/>
    <Info name="Date" value="Sat Aug 13 15:47:47 2016"/>
    <Info name="Host" value="Linux cmsbuild17.cern.ch 2.6.32-431.29.2.el6.x86_64 #1 SMP Wed Sep 10 11:13:12 CEST 2014 x86_64 x86_64 x86_64 GNU/Linux"/>
    <Info name="Dir" value="/uscms_data/d3/dansand/CMSDAS15/CMSSW_7_3_0/src/Analysis/B2GDAS/test/DESYBDT/80X/muon"/>
    <Info name="Training events" value="1076655"/>
    <Info name="TrainingTime" value="1.39369053e+02"/>
    <Info name="AnalysisType" value="Classification"/>
  </GeneralInfo>
  <Options>
    <Option name="V" modified="Yes">True</Option>
    <Option name="VerbosityLevel" modified="No">Verbose</Option>
    <Option name="VarTransform" modified="Yes">I</Option>
    <Option name="H" modified="Yes">False</Option>
    <Option name="CreateMVAPdfs" modified="No">False</Option>
    <Option name="IgnoreNegWeightsInTraining" modified="No">False</Option>
    <Option name="NTrees" modified="Yes">50</Option>
    <Option name="MaxDepth" modified="Yes">150</Option>
    <Option name="MinNodeSize" modified="Yes">5</Option>
    <Option name="nCuts" modified="Yes">25</Option>
    <Option name="BoostType" modified="Yes">AdaBoost</Option>
    <Option name="AdaBoostR2Loss" modified="No">quadratic</Option>
    <Option name="UseBaggedBoost" modified="No">False</Option>
    <Option name="Shrinkage" modified="No">1.000000e+00</Option>
    <Option name="AdaBoostBeta" modified="Yes">5.000000e-01</Option>
    <Option name="UseRandomisedTrees" modified="No">False</Option>
    <Option name="UseNvars" modified="No">3</Option>
    <Option name="UsePoissonNvars" modified="No">True</Option>
    <Option name="BaggedSampleFraction" modified="No">6.000000e-01</Option>
    <Option name="UseYesNoLeaf" modified="No">True</Option>
    <Option name="NegWeightTreatment" modified="No">inverseboostnegweights</Option>
    <Option name="Css" modified="No">1.000000e+00</Option>
    <Option name="Cts_sb" modified="No">1.000000e+00</Option>
    <Option name="Ctb_ss" modified="No">1.000000e+00</Option>
    <Option name="Cbb" modified="No">1.000000e+00</Option>
    <Option name="NodePurityLimit" modified="No">5.000000e-01</Option>
    <Option name="SeparationType" modified="Yes">giniindex</Option>
    <Option name="DoBoostMonitor" modified="No">False</Option>
    <Option name="UseFisherCuts" modified="No">False</Option>
    <Option name="MinLinCorrForFisher" modified="No">8.000000e-01</Option>
    <Option name="UseExclusiveVars" modified="No">False</Option>
    <Option name="DoPreselection" modified="No">False</Option>
    <Option name="SigToBkgFraction" modified="No">1.000000e+00</Option>
    <Option name="PruneMethod" modified="Yes">nopruning</Option>
    <Option name="PruneStrength" modified="No">0.000000e+00</Option>
    <Option name="PruningValFraction" modified="No">5.000000e-01</Option>
    <Option name="nEventsMin" modified="No">0</Option>
    <Option name="UseBaggedGrad" modified="No">False</Option>
    <Option name="GradBaggingFraction" modified="No">6.000000e-01</Option>
    <Option name="UseNTrainEvents" modified="No">0</Option>
    <Option name="NNodesMax" modified="No">0</Option>
  </Options>
  <Variables NVar="10">
    <Variable VarIndex="0" Expression="DRpt" Label="DRpt" Title="DRpt" Unit="" Internal="DRpt" Type="F" Min="4.09078645e-03" Max="8.82204819e+00"/>
    <Variable VarIndex="1" Expression="ht_met_lep_norm" Label="ht_met_lep_norm" Title="ht_met_lep_norm" Unit="" Internal="ht_met_lep_norm" Type="F" Min="1.82331368e-01" Max="1.62846680e+01"/>
    <Variable VarIndex="2" Expression="lep1__minDR_jet" Label="lep1__minDR_jet" Title="lep1__minDR_jet" Unit="" Internal="lep1__minDR_jet" Type="F" Min="1.77594367e-02" Max="4.78038073e+00"/>
    <Variable VarIndex="3" Expression="lep1__pTrel_jet_norm" Label="lep1__pTrel_jet_norm" Title="lep1__pTrel_jet_norm" Unit="" Internal="lep1__pTrel_jet_norm" Type="F" Min="4.15890172e-05" Max="2.29247522e+00"/>
    <Variable VarIndex="4" Expression="jet1_csv" Label="jet1_csv" Title="jet1_csv" Unit="" Internal="jet1_csv" Type="F" Min="-1.00000000e+01" Max="9.99224603e-01"/>
    <Variable VarIndex="5" Expression="jet1_m" Label="jet1_m" Title="jet1_m" Unit="" Internal="jet1_m" Type="F" Min="-7.55744660e-03" Max="1.29759729e+00"/>
    <Variable VarIndex="6" Expression="jet2_csv" Label="jet2_csv" Title="jet2_csv" Unit="" Internal="jet2_csv" Type="F" Min="2.13178601e-02" Max="9.99634326e-01"/>
    <Variable VarIndex="7" Expression="jet2_pt" Label="jet2_pt" Title="jet2_pt" Unit="" Internal="jet2_pt" Type="F" Min="8.07069242e-03" Max="6.52024746e+00"/>
    <Variable VarIndex="8" Expression="njets" Label="njets" Title="njets" Unit="" Internal="njets" Type="I" Min="2.00000000e+00" Max="1.50000000e+01"/>
    <Variable VarIndex="9" Expression="s33" Label="s33" Title="s33" Unit="" Internal="s33" Type="F" Min="1.65292693e-06" Max="9.67175305e-01"/>
  </Variables>
  <Spectators NSpec="0"/>
  <Classes NClass="2">
    <Class Name="Signal" Index="0"/>
    <Class Name="Background" Index="1"/>
  </Classes>
  <Transformations NTransformations="1"/>
  <MVAPdfs/>
  <Weights NTrees="50" AnalysisType="0">
    <BinaryTree type="DecisionTree" boostWeight="7.1077507362440717e-01" itree="0">
      <Node pos="s" depth="0" NCoef="0" IVar="0" Cut="3.4324300289154053e-01" cType="1" res="-9.9000000000000000e+01" rms="0.0000000000000000e+00" purity="5.0000000000000000e-01" nType="0">
        <Node pos="l" depth="1" NCoef="0" IVar="6" Cut="5.1114571094512939e-01" cType="0" res="-9.9000000000000000e+01" rms="0.0000000000000000e+00" purity="7.4208527803421021e-01" nType="0">
          <Node pos="l" depth="2" NCoef="0" IVar="-1" Cut="0.0000000000000000e+00" cType="1" res="-9.9000000000000000e+01" rms="0.0000000000000000e+00" purity="9.2046982049942017e-01" nType="1"/>
          <Node pos="r" depth="2" NCoef="0" IVar="0" Cut="1.7454251646995544e-01" cType="1" res="-9.9000000000000000e+01" rms="0.0000000000000000e+00" purity="5.6574422121047974e-01" nType="0">
            <Node pos="l" depth="3" NCoef="0" IVar="-1" Cut="0.0000000000000000e+00" cType="1" res="-9.9000000000000000e+01" rms="0.0000000000000000e+00" purity="7.1747058629989624e-01" nType="1"/>
            <Node pos="r" depth="3" NCoef="0" IVar="8" Cut="3.2692308425903320e+00" cType="0" res="-9.9000000000000000e+01" rms="0.0000000000000000e+00" purity="4.4658458232879639e-01" nType="0">
              <Node pos="l" depth="4" NCoef="0" IVar="-1" Cut="0.0000000000000000e+00" cType="1" res="-9.9000000000000000e+01" rms="0.0000000000000000e+00" purity="5.6245142221450806e-01" nType="1"/>
              <Node pos="r" depth="4" NCoef="0" IVar="-1" Cut="0.0000000000000000e+00" cType="1" res="-9.9000000000000000e+01" rms="0.0000000000000000e+00" purity="3.0459165573120117e-01" nType="-1"/>
            </Node>
          </Node>
        </Node>
        <Node pos="r" depth="1" NCoef="0" IVar="6" Cut="6.9861388206481934e-01" cType="0" res="-9.9000000000000000e+01" rms="0.0000000000000000e+00" purity="1.9521312415599823e-01" nType="0">
          <Node pos="l" depth="2" NCoef="0" IVar="-1" Cut="0.0000000000000000e+00" cType="1" res="-9.9000000000000000e+01" rms="0.0000000000000000e+00" purity="5.6478375196456909e-01" nType="1"/>
          <Node pos="r" depth="2" NCoef="0" IVar="-1" Cut="5.7604205608367920e-01" cType="0" res="-9.9000000000000000e+01" rms="0.0000000000000000e+00" purity="1.3380645215511322e-01" nType="-1"/>
        </Node>
      </Node>
    </BinaryTree>
    <BinaryTree type="DecisionTree" boostWeight="5.6763169933234425e-01" itree="1">
      <Node pos="s" depth="0" NCoef="0" IVar="4" Cut="5.7617747783660889e-01" cType="0" res="-9.9000000000000000e+01" rms="0.0000000000000000e+00" purity="4.7850900888442993e-01" nType="0">
        <Node pos="l" depth="1" NCoef="0" IVar="-1" Cut="3.4492793679237366e-01" cType="1" res="-9.9000000000000000e+01" rms="0.0000000000000000e+00" purity="7.7792549133300781e-01" nType="1"/>
        <Node pos="r" depth="1" NCoef="0" IVar="6" Cut="7.7394181489944458e-01" cType="0" res="-9.9000000000000000e+01" rms="0.0000000000000000e+00" purity="3.2726421952247620e-01" nType="0">
          <Node pos="l" depth="2" NCoef="0" IVar="-1" Cut="0.0000000000000000e+00" cType="1" res="-9.9000000000000000e+01" rms="0.0000000000000000e+00" purity="6.9445675611495972e-01" nType="1"/>
          <Node pos="r" depth="2" NCoef="0" IVar="2" Cut="3.7932693958282471e-01" cType="1" res="-9.9000000000000000e+01" rms="0.0000000000000000e+00" purity="2.4478189647197723e-01" nType="0">
            <Node pos="l" depth="3" NCoef="0" IVar="-1" Cut="0.0000000000000000e+00" cType="1" res="-9.9000000000000000e+01" rms="0.0000000000000000e+00" purity="5.0919133424758911e-01" nType="1"/>
            <Node pos="r" depth="3" NCoef="0" IVar="-1" Cut="3.6463645100593567e-01" cType="1" res="-9.9000000000000000e+01" rms="0.0000000000000000e+00" purity="2.0250046253204346e-01" nType="-1"/>
          </Node>
        </Node>
      </Node>
    </BinaryTree>
    <BinaryTree type="DecisionTree" boostWeight="4.9369190811993524e-01" itree="2">
      <Node pos="s" depth="0" NCoef="0" IVar="0" Cut="3.4324300289154053e-01" cType="1" res="-9.9000000000000000e+01" rms="0.0000000000000000e+00" purity="4.6455672383308411e-01" nType="0">
        <Node pos="l" depth="1" NCoef="0" IVar="6" Cut="6.2383329868316650e-01" cType="0" res="-9.9000000000000000e+01" rms="0.0000000000000000e+00" purity="6.1144089698791504e-01" nType="0">
          <Node pos="l" depth="2" NCoef="0" IVar="-1" Cut="0.0000000000000000e+00" cType="1" res="-9.9000000000000000e+01" rms="0.0000000000000000e+00" purity="8.4587180614471436e-01" nType="1"/>
          <Node pos="r" depth="2" NCoef="0" IVar="4" Cut="5.7617747783660889e-01" cType="0" res="-9.9000000000000000e+01" rms="0.0000000000000000e+00" purity="4.8592862486839294e-01" nType="0">
            <Node pos="l" depth="3" NCoef="0" IVar="-1" Cut="0.0000000000000000e+00" cType="1" res="-9.9000000000000000e+01" rms="0.0000000000000000e+00" purity="6.9056379795074463e-01" nType="1"/>
            <Node pos="r" depth="3" NCoef="0" IVar="-1" Cut="2.0728376507759094e-01" cType="1" res="-9.9000000000000000e+01" rms="0.0000000000000000e+00" purity="3.8006705045700073e-01" nType="-1"/>
          </Node>
        </Node>
        <Node pos="r" depth="1" NCoef="0" IVar="0" Cut="6.6935098171234131e-01" cType="1" res="-9.9000000000000000e+01" rms="0.0000000000000000e+00" purity="2.7916496992111206e-01" nType="0">
          <Node pos="l" depth="2" NCoef="0" IVar="8" Cut="3.5000000000000000e+00" cType="0" res="-9.9000000000000000e+01" rms="0.0000000000000000e+00" purity="3.8261145353317261e-01" nType="0">
            <Node pos="l" depth="3" NCoef="0" IVar="0" Cut="4.4357982277870178e-01" cType="1" res="-9.9000000000000000e+01" rms="0.0000000000000000e+00" purity="4.8655888438224792e-01" nType="0">
              <Node pos="l" depth="4" NCoef="0" IVar="-1" Cut="0.0000000000000000e+00" cType="1" res="-9.9000000000000000e+01" rms="0.0000000000000000e+00" purity="5.9373372793197632e-01" nType="1"/>
              <Node pos="r" depth="4" NCoef="0" IVar="-1" Cut="0.0000000000000000e+00" cType="1" res="-9.9000000000000000e+01" rms="0.0000000000000000e+00" purity="4.0623176097869873e-01" nType="-1"/>
            </Node>
            <Node pos="r" depth="3" NCoef="0" IVar="-1" Cut="4.5612624287605286e-01" cType="1" res="-9.9000000000000000e+01" rms="0.0000000000000000e+00" purity="2.5455757975578308e-01" nType="-1"/>
          </Node>
          <Node pos="r" depth="2" NCoef="0" IVar="-1" Cut="1.0835210084915161e+00" cType="1" res="-9.9000000000000000e+01" rms="0.0000000000000000e+00" purity="1.3751102983951569e-01" nType="-1"/>
        </Node>
      </Node>
    </BinaryTree>
    <BinaryTree type="DecisionTree" boostWeight="3.5487468742277367e-01" itree="3">
      <Node pos="s" depth="0" NCoef="0" IVar="0" Cut="6.8239521980285645e-01" cType="1" res="-9.9000000000000000e+01" rms="0.0000000000000000e+00" purity="4.9310341477394104e-01" nType="0">
        <Node pos="l" depth="1" NCoef="0" IVar="6" Cut="3.9846798777580261e-01" cType="0" res="-9.9000000000000000e+01" rms="0.0000000000000000e+00" purity="5.5115097761154175e-01" nType="0">
          <Node pos="l" depth="2" NCoef="0" IVar="0" Cut="2.3888778686523438e-01" cType="1" res="-9.9000000000000000e+01" rms="0.0000000000000000e+00" purity="6.7224931716918945e-01" nType="0">
            <Node pos="l" depth="3" NCoef="0" IVar="-1" Cut="0.0000000000000000e+00" cType="1" res="-9.9000000000000000e+01" rms="0.0000000000000000e+00" purity="7.8310132026672363e-01" nType="1"/>
            <Node pos="r" depth="3" NCoef="0" IVar="2" Cut="9.7826951742172241e-01" cType="1" res="-9.9000000000000000e+01" rms="0.0000000000000000e+00" purity="5.4096919298171997e-01" nType="0">
              <Node pos="l" depth="4" NCoef="0" IVar="-1" Cut="0.0000000000000000e+00" cType="1" res="-9.9000000000000000e+01" rms="0.0000000000000000e+00" purity="6.0077923536300659e-01" nType="1"/>
              <Node pos="r" depth="4" NCoef="0" IVar="-1" Cut="0.0000000000000000e+00" cType="1" res="-9.9000000000000000e+01" rms="0.0000000000000000e+00" purity="4.4444635510444641e-01" nType="-1"/>
            </Node>
          </Node>
          <Node pos="r" depth="2" NCoef="0" IVar="7" Cut="1.6831406950950623e-01" cType="1" res="-9.9000000000000000e+01" rms="0.0000000000000000e+00" purity="4.5547100901603699e-01" nType="0">
            <Node pos="l" depth="3" NCoef="0" IVar="1" Cut="8.0307912826538086e-01" cType="0" res="-9.9000000000000000e+01" rms="0.0000000000000000e+00" purity="5.6628656387329102e-01" nType="0">
              <Node pos="l" depth="4" NCoef="0" IVar="-1" Cut="0.0000000000000000e+00" cType="1" res="-9.9000000000000000e+01" rms="0.0000000000000000e+00" purity="6.3776534795761108e-01" nType="1"/>
              <Node pos="r" depth="4" NCoef="0" IVar="-1" Cut="0.0000000000000000e+00" cType="1" res="-9.9000000000000000e+01" rms="0.0000000000000000e+00" purity="4.6854859590530396e-01" nType="-1"/>
            </Node>
            <Node pos="r" depth="3" NCoef="0" IVar="-1" Cut="4.5000000000000000e+00" cType="0" res="-9.9000000000000000e+01" rms="0.0000000000000000e+00" purity="3.8164800405502319e-01" nType="-1"/>
          </Node>
        </Node>
        <Node pos="r" depth="1" NCoef="0" IVar="-1" Cut="1.0835210084915161e+00" cType="1" res="-9.9000000000000000e+01" rms="0.0000000000000000e+00" purity="2.0328950881958008e-01" nType="-1"/>
      </Node>
    </BinaryTree>
    <BinaryTree type="DecisionTree" boostWeight="3.1961604936340909e-01" itree="4">
      <Node pos="s" depth="0" NCoef="0" IVar="0" Cut="6.8239521980285645e-01" cType="1" res="-9.9000000000000000e+01" rms="0.0000000000000000e+00" purity="5.0932592153549194e-01" nType="0">
        <Node pos="l" depth="1" NCoef="0" IVar="4" Cut="5.7617747783660889e-01" cType="0" res="-9.9000000000000000e+01" rms="0.0000000000000000e+00" purity="5.5517810583114624e-01" nType="0">
          <Node pos="l" depth="2" NCoef="0" IVar="-1" Cut="8.2024329900741577e-01" cType="0" res="-9.9000000000000000e+01" rms="0.0000000000000000e+00" purity="6.7910581827163696e-01" nType="1"/>
          <Node pos="r" depth="2" NCoef="0" IVar="8" Cut="2.5000000000000000e+00" cType="0" res="-9.9000000000000000e+01" rms="0.0000000000000000e+00" purity="4.9148079752922058e-01" nType="0">
            <Node pos="l" depth="3" NCoef="0" IVar="7" Cut="3.3012032508850098e-01" cType="1" res="-9.9000000000000000e+01" rms="0.0000000000000000e+00" purity="5.2563679218292236e-01" nType="0">
              <Node pos="l" depth="4" NCoef="0" IVar="5" Cut="5.3658477962017059e-02" cType="0" res="-9.9000000000000000e+01" rms="0.0000000000000000e+00" purity="5.6478363275527954e-01" nType="0">
                <Node pos="l" depth="5" NCoef="0" IVar="-1" Cut="0.0000000000000000e+00" cType="1" res="-9.9000000000000000e+01" rms="0.0000000000000000e+00" purity="6.8416547775268555e-01" nType="1"/>
                <Node pos="r" depth="5" NCoef="0" IVar="0" Cut="2.6618158817291260e-01" cType="1" res="-9.9000000000000000e+01" rms="0.0000000000000000e+00" purity="5.3115898370742798e-01" nType="0">
                  <Node pos="l" depth="6" NCoef="0" IVar="-1" Cut="1.7017984390258789e-01" cType="1" res="-9.9000000000000000e+01" rms="0.0000000000000000e+00" purity="5.9229499101638794e-01" nType="1"/>
                  <Node pos="r" depth="6" NCoef="0" IVar="-1" Cut="1.8307688832283020e-01" cType="1" res="-9.9000000000000000e+01" rms="0.0000000000000000e+00" purity="4.3987902998924255e-01" nType="-1"/>
                </Node>
              </Node>
              <Node pos="r" depth="4" NCoef="0" IVar="-1" Cut="0.0000000000000000e+00" cType="1" res="-9.9000000000000000e+01" rms="0.0000000000000000e+00" purity="3.8715571165084839e-01" nType="-1"/>
            </Node>
            <Node pos="r" depth="3" NCoef="0" IVar="-1" Cut="0.0000000000000000e+00" cType="1" res="-9.9000000000000000e+01" rms="0.0000000000000000e+00" purity="2.9616528749465942e-01" nType="-1"/>
          </Node>
        </Node>
        <Node pos="r" depth="1" NCoef="0" IVar="-1" Cut="1.0835210084915161e+00" cType="1" res="-9.9000000000000000e+01" rms="0.0000000000000000e+00" purity="2.6678705215454102e-01" nType="-1"/>
      </Node>
    </BinaryTree>
    <BinaryTree type="DecisionTree" boostWeight="2.9120617679059430e-01" itree="5">
      <Node pos="s" depth="0" NCoef="0" IVar="6" Cut="8.8675165176391602e-01" cType="0" res="-9.9000000000000000e+01" rms="0.0000000000000000e+00" purity="5.0334763526916504e-01" nType="0">
        <Node pos="l" depth="1" NCoef="0" IVar="-1" Cut="0.0000000000000000e+00" cType="1" res="-9.9000000000000000e+01" rms="0.0000000000000000e+00" purity="7.3493015766143799e-01" nType="1"/>
        <Node pos="r" depth="1" NCoef="0" IVar="7" Cut="2.5853902101516724e-01" cType="1" res="-9.9000000000000000e+01" rms="0.0000000000000000e+00" purity="4.7119274735450745e-01" nType="0">
          <Node pos="l" depth="2" NCoef="0" IVar="4" Cut="1.5303561091423035e-01" cType="0" res="-9.9000000000000000e+01" rms="0.0000000000000000e+00" purity="5.3026616573333740e-01" nType="0">
            <Node pos="l" depth="3" NCoef="0" IVar="4" Cut="7.0624607801437378e-01" cType="0" res="-9.9000000000000000e+01" rms="0.0000000000000000e+00" purity="5.6286591291427612e-01" nType="0">
              <Node pos="l" depth="4" NCoef="0" IVar="-1" Cut="0.0000000000000000e+00" cType="1" res="-9.9000000000000000e+01" rms="0.0000000000000000e+00" purity="6.8852549791336060e-01" nType="1"/>
              <Node pos="r" depth="4" NCoef="0" IVar="5" Cut="4.5411288738250732e-02" cType="0" res="-9.9000000000000000e+01" rms="0.0000000000000000e+00" purity="5.0850659608840942e-01" nType="0">
                <Node pos="l" depth="5" NCoef="0" IVar="-1" Cut="0.0000000000000000e+00" cType="1" res="-9.9000000000000000e+01" rms="0.0000000000000000e+00" purity="6.1173790693283081e-01" nType="1"/>
                <Node pos="r" depth="5" NCoef="0" IVar="8" Cut="3.5000000000000000e+00" cType="0" res="-9.9000000000000000e+01" rms="0.0000000000000000e+00" purity="4.5830070972442627e-01" nType="0">
                  <Node pos="l" depth="6" NCoef="0" IVar="-1" Cut="0.0000000000000000e+00" cType="1" res="-9.9000000000000000e+01" rms="0.0000000000000000e+00" purity="5.1593309640884399e-01" nType="1"/>
                  <Node pos="r" depth="6" NCoef="0" IVar="-1" Cut="0.0000000000000000e+00" cType="1" res="-9.9000000000000000e+01" rms="0.0000000000000000e+00" purity="4.0520024299621582e-01" nType="-1"/>
                </Node>
              </Node>
            </Node>
            <Node pos="r" depth="3" NCoef="0" IVar="-1" Cut="3.2692308425903320e+00" cType="0" res="-9.9000000000000000e+01" rms="0.0000000000000000e+00" purity="4.2217779159545898e-01" nType="-1"/>
          </Node>
          <Node pos="r" depth="2" NCoef="0" IVar="2" Cut="1.0458879470825195e+00" cType="1" res="-9.9000000000000000e+01" rms="0.0000000000000000e+00" purity="3.8376349210739136e-01" nType="0">
            <Node pos="l" depth="3" NCoef="0" IVar="5" Cut="1.0203377902507782e-01" cType="0" res="-9.9000000000000000e+01" rms="0.0000000000000000e+00" purity="4.5255133509635925e-01" nType="0">
              <Node pos="l" depth="4" NCoef="0" IVar="-1" Cut="0.0000000000000000e+00" cType="1" res="-9.9000000000000000e+01" rms="0.0000000000000000e+00" purity="6.4980024099349976e-01" nType="1"/>
              <Node pos="r" depth="4" NCoef="0" IVar="-1" Cut="4.5000000000000000e+00" cType="0" res="-9.9000000000000000e+01" rms="0.0000000000000000e+00" purity="3.9355799555778503e-01" nType="-1"/>
            </Node>
            <Node pos="r" depth="3" NCoef="0" IVar="-1" Cut="0.0000000000000000e+00" cType="1" res="-9.9000000000000000e+01" rms="0.0000000000000000e+00" purity="1.7319020628929138e-01" nType="-1"/>
          </Node>
        </Node>
      </Node>
    </BinaryTree>
    <BinaryTree type="DecisionTree" boostWeight="2.3567739862142764e-01" itree="6">
      <Node pos="s" depth="0" NCoef="0" IVar="0" Cut="1.0215474367141724e+00" cType="1" res="-9.9000000000000000e+01" rms="0.0000000000000000e+00" purity="5.0536721944808960e-01" nType="0">
        <Node pos="l" depth="1" NCoef="0" IVar="6" Cut="8.4918361902236938e-01" cType="0" res="-9.9000000000000000e+01" rms="0.0000000000000000e+00" purity="5.2313959598541260e-01" nType="0">
          <Node pos="l" depth="2" NCoef="0" IVar="-1" Cut="0.0000000000000000e+00" cType="1" res="-9.9000000000000000e+01" rms="0.0000000000000000e+00" purity="6.8392038345336914e-01" nType="1"/>
          <Node pos="r" depth="2" NCoef="0" IVar="8" Cut="4.5000000000000000e+00" cType="0" res="-9.9000000000000000e+01" rms="0.0000000000000000e+00" purity="4.9640604853630066e-01" nType="0">
            <Node pos="l" depth="3" NCoef="0" IVar="9" Cut="4.4576895236968994e-01" cType="1" res="-9.9000000000000000e+01" rms="0.0000000000000000e+00" purity="5.8168613910675049e-01" nType="0">
              <Node pos="l" depth="4" NCoef="0" IVar="-1" Cut="0.0000000000000000e+00" cType="1" res="-9.9000000000000000e+01" rms="0.0000000000000000e+00" purity="6.4262193441390991e-01" nType="1"/>
              <Node pos="r" depth="4" NCoef="0" IVar="8" Cut="5.3846154212951660e+00" cType="0" res="-9.9000000000000000e+01" rms="0.0000000000000000e+00" purity="5.4607194662094116e-01" nType="0">
                <Node pos="l" depth="5" NCoef="0" IVar="-1" Cut="0.0000000000000000e+00" cType="1" res="-9.9000000000000000e+01" rms="0.0000000000000000e+00" purity="5.9361839294433594e-01" nType="1"/>
                <Node pos="r" depth="5" NCoef="0" IVar="-1" Cut="0.0000000000000000e+00" cType="1" res="-9.9000000000000000e+01" rms="0.0000000000000000e+00" purity="4.9841898679733276e-01" nType="-1"/>
              </Node>
            </Node>
            <Node pos="r" depth="3" NCoef="0" IVar="0" Cut="4.7465398907661438e-01" cType="1" res="-9.9000000000000000e+01" rms="0.0000000000000000e+00" purity="4.5485767722129822e-01" nType="0">
              <Node pos="l" depth="4" NCoef="0" IVar="7" Cut="2.2944074869155884e-01" cType="1" res="-9.9000000000000000e+01" rms="0.0000000000000000e+00" purity="4.9223020672798157e-01" nType="0">
                <Node pos="l" depth="5" NCoef="0" IVar="1" Cut="7.3843181133270264e-01" cType="0" res="-9.9000000000000000e+01" rms="0.0000000000000000e+00" purity="5.3110814094543457e-01" nType="0">
                  <Node pos="l" depth="6" NCoef="0" IVar="-1" Cut="2.1445575356483459e-01" cType="0" res="-9.9000000000000000e+01" rms="0.0000000000000000e+00" purity="5.6997054815292358e-01" nType="1"/>
                  <Node pos="r" depth="6" NCoef="0" IVar="-1" Cut="0.0000000000000000e+00" cType="1" res="-9.9000000000000000e+01" rms="0.0000000000000000e+00" purity="4.4965001940727234e-01" nType="-1"/>
                </Node>
                <Node pos="r" depth="5" NCoef="0" IVar="5" Cut="4.5953501015901566e-02" cType="0" res="-9.9000000000000000e+01" rms="0.0000000000000000e+00" purity="4.1411945223808289e-01" nType="0">
                  <Node pos="l" depth="6" NCoef="0" IVar="-1" Cut="0.0000000000000000e+00" cType="1" res="-9.9000000000000000e+01" rms="0.0000000000000000e+00" purity="5.1416569948196411e-01" nType="1"/>
                  <Node pos="r" depth="6" NCoef="0" IVar="-1" Cut="0.0000000000000000e+00" cType="1" res="-9.9000000000000000e+01" rms="0.0000000000000000e+00" purity="3.2362943887710571e-01" nType="-1"/>
                </Node>
              </Node>
              <Node pos="r" depth="4" NCoef="0" IVar="-1" Cut="1.7887969315052032e-01" cType="1" res="-9.9000000000000000e+01" rms="0.0000000000000000e+00" purity="3.3429780602455139e-01" nType="-1"/>
            </Node>
          </Node>
        </Node>
        <Node pos="r" depth="1" NCoef="0" IVar="-1" Cut="0.0000000000000000e+00" cType="1" res="-9.9000000000000000e+01" rms="0.0000000000000000e+00" purity="2.1254903078079224e-01" nType="-1"/>
      </Node>
    </BinaryTree>
    <BinaryTree type="DecisionTree" boostWeight="2.1417588253655531e-01" itree="7">
      <Node pos="s" depth="0" NCoef="0" IVar="0" Cut="1.0215474367141724e+00" cType="1" res="-9.9000000000000000e+01" rms="0.0000000000000000e+00" purity="4.9722212553024292e-01" nType="0">
        <Node pos="l" depth="1" NCoef="0" IVar="0" Cut="2.3888841271400452e-01" cType="1" res="-9.9000000000000000e+01" rms="0.0000000000000000e+00" purity="5.1129955053329468e-01" nType="0">
          <Node pos="l" depth="2" NCoef="0" IVar="6" Cut="5.4870826005935669e-01" cType="0" res="-9.9000000000000000e+01" rms="0.0000000000000000e+00" purity="5.7003253698348999e-01" nType="0">
            <Node pos="l" depth="3" NCoef="0" IVar="-1" Cut="0.0000000000000000e+00" cType="1" res="-9.9000000000000000e+01" rms="0.0000000000000000e+00" purity="6.7247670888900757e-01" nType="1"/>
            <Node pos="r" depth="3" NCoef="0" IVar="6" Cut="2.4531598389148712e-01" cType="0" res="-9.9000000000000000e+01" rms="0.0000000000000000e+00" purity="5.1566565036773682e-01" nType="0">
              <Node pos="l" depth="4" NCoef="0" IVar="-1" Cut="0.0000000000000000e+00" cType="1" res="-9.9000000000000000e+01" rms="0.0000000000000000e+00" purity="5.6419771909713745e-01" nType="1"/>
              <Node pos="r" depth="4" NCoef="0" IVar="-1" Cut="0.0000000000000000e+00" cType="1" res="-9.9000000000000000e+01" rms="0.0000000000000000e+00" purity="4.8102450370788574e-01" nType="-1"/>
            </Node>
          </Node>
          <Node pos="r" depth="2" NCoef="0" IVar="5" Cut="8.7839394807815552e-02" cType="0" res="-9.9000000000000000e+01" rms="0.0000000000000000e+00" purity="4.6978637576103210e-01" nType="0">
            <Node pos="l" depth="3" NCoef="0" IVar="-1" Cut="0.0000000000000000e+00" cType="1" res="-9.9000000000000000e+01" rms="0.0000000000000000e+00" purity="6.2676644325256348e-01" nType="1"/>
            <Node pos="r" depth="3" NCoef="0" IVar="7" Cut="2.0243453979492188e-01" cType="1" res="-9.9000000000000000e+01" rms="0.0000000000000000e+00" purity="4.4088244438171387e-01" nType="0">
              <Node pos="l" depth="4" NCoef="0" IVar="6" Cut="3.2870060205459595e-01" cType="0" res="-9.9000000000000000e+01" rms="0.0000000000000000e+00" purity="5.2725297212600708e-01" nType="0">
                <Node pos="l" depth="5" NCoef="0" IVar="-1" Cut="0.0000000000000000e+00" cType="1" res="-9.9000000000000000e+01" rms="0.0000000000000000e+00" purity="5.8845096826553345e-01" nType="1"/>
                <Node pos="r" depth="5" NCoef="0" IVar="7" Cut="1.1315439641475677e-01" cType="1" res="-9.9000000000000000e+01" rms="0.0000000000000000e+00" purity="4.8916056752204895e-01" nType="0">
                  <Node pos="l" depth="6" NCoef="0" IVar="-1" Cut="0.0000000000000000e+00" cType="1" res="-9.9000000000000000e+01" rms="0.0000000000000000e+00" purity="5.4742658138275146e-01" nType="1"/>
                  <Node pos="r" depth="6" NCoef="0" IVar="-1" Cut="0.0000000000000000e+00" cType="1" res="-9.9000000000000000e+01" rms="0.0000000000000000e+00" purity="4.5124551653862000e-01" nType="-1"/>
                </Node>
              </Node>
              <Node pos="r" depth="4" NCoef="0" IVar="-1" Cut="4.3076925277709961e+00" cType="0" res="-9.9000000000000000e+01" rms="0.0000000000000000e+00" purity="3.6130148172378540e-01" nType="-1"/>
            </Node>
          </Node>
        </Node>
        <Node pos="r" depth="1" NCoef="0" IVar="-1" Cut="0.0000000000000000e+00" cType="1" res="-9.9000000000000000e+01" rms="0.0000000000000000e+00" purity="2.5465241074562073e-01" nType="-1"/>
      </Node>
    </BinaryTree>
    <BinaryTree type="DecisionTree" boostWeight="1.7786803102318030e-01" itree="8">
      <Node pos="s" depth="0" NCoef="0" IVar="2" Cut="1.3000036478042603e+00" cType="1" res="-9.9000000000000000e+01" rms="0.0000000000000000e+00" purity="5.0056058168411255e-01" nType="0">
        <Node pos="l" depth="1" NCoef="0" IVar="8" Cut="4.5000000000000000e+00" cType="0" res="-9.9000000000000000e+01" rms="0.0000000000000000e+00" purity="5.2445673942565918e-01" nType="0">
          <Node pos="l" depth="2" NCoef="0" IVar="7" Cut="4.7596997022628784e-01" cType="1" res="-9.9000000000000000e+01" rms="0.0000000000000000e+00" purity="5.8159744739532471e-01" nType="0">
            <Node pos="l" depth="3" NCoef="0" IVar="-1" Cut="4.2447876185178757e-02" cType="0" res="-9.9000000000000000e+01" rms="0.0000000000000000e+00" purity="6.1160910129547119e-01" nType="1"/>
            <Node pos="r" depth="3" NCoef="0" IVar="-1" Cut="0.0000000000000000e+00" cType="1" res="-9.9000000000000000e+01" rms="0.0000000000000000e+00" purity="4.8850572109222412e-01" nType="-1"/>
          </Node>
          <Node pos="r" depth="2" NCoef="0" IVar="7" Cut="2.5853902101516724e-01" cType="1" res="-9.9000000000000000e+01" rms="0.0000000000000000e+00" purity="4.9134284257888794e-01" nType="0">
            <Node pos="l" depth="3" NCoef="0" IVar="6" Cut="5.1178532838821411e-01" cType="0" res="-9.9000000000000000e+01" rms="0.0000000000000000e+00" purity="5.3275722265243530e-01" nType="0">
              <Node pos="l" depth="4" NCoef="0" IVar="-1" Cut="0.0000000000000000e+00" cType="1" res="-9.9000000000000000e+01" rms="0.0000000000000000e+00" purity="6.0892653465270996e-01" nType="1"/>
              <Node pos="r" depth="4" NCoef="0" IVar="7" Cut="1.2367019057273865e-01" cType="1" res="-9.9000000000000000e+01" rms="0.0000000000000000e+00" purity="4.9274814128875732e-01" nType="0">
                <Node pos="l" depth="5" NCoef="0" IVar="-1" Cut="0.0000000000000000e+00" cType="1" res="-9.9000000000000000e+01" rms="0.0000000000000000e+00" purity="5.5249816179275513e-01" nType="1"/>
                <Node pos="r" depth="5" NCoef="0" IVar="-1" Cut="5.1979404687881470e-01" cType="1" res="-9.9000000000000000e+01" rms="0.0000000000000000e+00" purity="4.5824983716011047e-01" nType="-1"/>
              </Node>
            </Node>
            <Node pos="r" depth="3" NCoef="0" IVar="-1" Cut="6.1568868160247803e-01" cType="1" res="-9.9000000000000000e+01" rms="0.0000000000000000e+00" purity="4.0843731164932251e-01" nType="-1"/>
          </Node>
        </Node>
        <Node pos="r" depth="1" NCoef="0" IVar="7" Cut="2.0753222703933716e-01" cType="1" res="-9.9000000000000000e+01" rms="0.0000000000000000e+00" purity="3.9764320850372314e-01" nType="0">
          <Node pos="l" depth="2" NCoef="0" IVar="9" Cut="6.3239896297454834e-01" cType="1" res="-9.9000000000000000e+01" rms="0.0000000000000000e+00" purity="4.9311688542366028e-01" nType="0">
            <Node pos="l" depth="3" NCoef="0" IVar="-1" Cut="0.0000000000000000e+00" cType="1" res="-9.9000000000000000e+01" rms="0.0000000000000000e+00" purity="5.3261941671371460e-01" nType="1"/>
            <Node pos="r" depth="3" NCoef="0" IVar="-1" Cut="0.0000000000000000e+00" cType="1" res="-9.9000000000000000e+01" rms="0.0000000000000000e+00" purity="4.5169955492019653e-01" nType="-1"/>
          </Node>
          <Node pos="r" depth="2" NCoef="0" IVar="-1" Cut="0.0000000000000000e+00" cType="1" res="-9.9000000000000000e+01" rms="0.0000000000000000e+00" purity="2.3473893105983734e-01" nType="-1"/>
        </Node>
      </Node>
    </BinaryTree>
    <BinaryTree type="DecisionTree" boostWeight="2.0559774601629915e-01" itree="9">
      <Node pos="s" depth="0" NCoef="0" IVar="2" Cut="1.1168259382247925e+00" cType="1" res="-9.9000000000000000e+01" rms="0.0000000000000000e+00" purity="5.0181275606155396e-01" nType="0">
        <Node pos="l" depth="1" NCoef="0" IVar="4" Cut="5.7617747783660889e-01" cType="0" res="-9.9000000000000000e+01" rms="0.0000000000000000e+00" purity="5.2733206748962402e-01" nType="0">
          <Node pos="l" depth="2" NCoef="0" IVar="4" Cut="8.2024329900741577e-01" cType="0" res="-9.9000000000000000e+01" rms="0.0000000000000000e+00" purity="5.8254688978195190e-01" nType="0">
            <Node pos="l" depth="3" NCoef="0" IVar="-1" Cut="0.0000000000000000e+00" cType="1" res="-9.9000000000000000e+01" rms="0.0000000000000000e+00" purity="7.2790718078613281e-01" nType="1"/>
            <Node pos="r" depth="3" NCoef="0" IVar="-1" Cut="0.0000000000000000e+00" cType="1" res="-9.9000000000000000e+01" rms="0.0000000000000000e+00" purity="4.3055835366249084e-01" nType="-1"/>
          </Node>
          <Node pos="r" depth="2" NCoef="0" IVar="8" Cut="4.5000000000000000e+00" cType="0" res="-9.9000000000000000e+01" rms="0.0000000000000000e+00" purity="4.9924695491790771e-01" nType="0">
            <Node pos="l" depth="3" NCoef="0" IVar="-1" Cut="4.9421757459640503e-02" cType="0" res="-9.9000000000000000e+01" rms="0.0000000000000000e+00" purity="5.4773992300033569e-01" nType="1"/>
            <Node pos="r" depth="3" NCoef="0" IVar="4" Cut="1.6939729452133179e-01" cType="0" res="-9.9000000000000000e+01" rms="0.0000000000000000e+00" purity="4.6911680698394775e-01" nType="0">
              <Node pos="l" depth="4" NCoef="0" IVar="4" Cut="3.4149560332298279e-01" cType="0" res="-9.9000000000000000e+01" rms="0.0000000000000000e+00" purity="5.0721043348312378e-01" nType="0">
                <Node pos="l" depth="5" NCoef="0" IVar="-1" Cut="0.0000000000000000e+00" cType="1" res="-9.9000000000000000e+01" rms="0.0000000000000000e+00" purity="6.0014939308166504e-01" nType="1"/>
                <Node pos="r" depth="5" NCoef="0" IVar="-1" Cut="2.3558938503265381e-01" cType="0" res="-9.9000000000000000e+01" rms="0.0000000000000000e+00" purity="4.2904001474380493e-01" nType="-1"/>
              </Node>
              <Node pos="r" depth="4" NCoef="0" IVar="-1" Cut="4.8334106802940369e-01" cType="1" res="-9.9000000000000000e+01" rms="0.0000000000000000e+00" purity="3.9591309428215027e-01" nType="-1"/>
            </Node>
          </Node>
        </Node>
        <Node pos="r" depth="1" NCoef="0" IVar="7" Cut="2.1434357762336731e-01" cType="1" res="-9.9000000000000000e+01" rms="0.0000000000000000e+00" purity="4.2709252238273621e-01" nType="0">
          <Node pos="l" depth="2" NCoef="0" IVar="0" Cut="4.9644324183464050e-01" cType="1" res="-9.9000000000000000e+01" rms="0.0000000000000000e+00" purity="5.0246787071228027e-01" nType="0">
            <Node pos="l" depth="3" NCoef="0" IVar="-1" Cut="0.0000000000000000e+00" cType="1" res="-9.9000000000000000e+01" rms="0.0000000000000000e+00" purity="5.4898738861083984e-01" nType="1"/>
            <Node pos="r" depth="3" NCoef="0" IVar="-1" Cut="0.0000000000000000e+00" cType="1" res="-9.9000000000000000e+01" rms="0.0000000000000000e+00" purity="4.5175930857658386e-01" nType="-1"/>
          </Node>
          <Node pos="r" depth="2" NCoef="0" IVar="-1" Cut="0.0000000000000000e+00" cType="1" res="-9.9000000000000000e+01" rms="0.0000000000000000e+00" purity="2.9805275797843933e-01" nType="-1"/>
        </Node>
      </Node>
    </BinaryTree>
    <BinaryTree type="DecisionTree" boostWeight="1.6188160689861958e-01" itree="10">
      <Node pos="s" depth="0" NCoef="0" IVar="4" Cut="5.7617747783660889e-01" cType="0" res="-9.9000000000000000e+01" rms="0.0000000000000000e+00" purity="5.0256288051605225e-01" nType="0">
        <Node pos="l" depth="1" NCoef="0" IVar="4" Cut="8.6905634403228760e-01" cType="0" res="-9.9000000000000000e+01" rms="0.0000000000000000e+00" purity="5.5944699048995972e-01" nType="0">
          <Node pos="l" depth="2" NCoef="0" IVar="-1" Cut="0.0000000000000000e+00" cType="1" res="-9.9000000000000000e+01" rms="0.0000000000000000e+00" purity="7.1191453933715820e-01" nType="1"/>
          <Node pos="r" depth="2" NCoef="0" IVar="2" Cut="8.6352956295013428e-01" cType="1" res="-9.9000000000000000e+01" rms="0.0000000000000000e+00" purity="4.5763638615608215e-01" nType="0">
            <Node pos="l" depth="3" NCoef="0" IVar="-1" Cut="0.0000000000000000e+00" cType="1" res="-9.9000000000000000e+01" rms="0.0000000000000000e+00" purity="5.1370960474014282e-01" nType="1"/>
            <Node pos="r" depth="3" NCoef="0" IVar="-1" Cut="0.0000000000000000e+00" cType="1" res="-9.9000000000000000e+01" rms="0.0000000000000000e+00" purity="3.4729459881782532e-01" nType="-1"/>
          </Node>
        </Node>
        <Node pos="r" depth="1" NCoef="0" IVar="0" Cut="6.7676901817321777e-01" cType="1" res="-9.9000000000000000e+01" rms="0.0000000000000000e+00" purity="4.7645813226699829e-01" nType="0">
          <Node pos="l" depth="2" NCoef="0" IVar="8" Cut="2.5000000000000000e+00" cType="0" res="-9.9000000000000000e+01" rms="0.0000000000000000e+00" purity="4.9320358037948608e-01" nType="0">
            <Node pos="l" depth="3" NCoef="0" IVar="9" Cut="2.2307950258255005e-01" cType="1" res="-9.9000000000000000e+01" rms="0.0000000000000000e+00" purity="5.0577235221862793e-01" nType="0">
              <Node pos="l" depth="4" NCoef="0" IVar="-1" Cut="0.0000000000000000e+00" cType="1" res="-9.9000000000000000e+01" rms="0.0000000000000000e+00" purity="5.7861179113388062e-01" nType="1"/>
              <Node pos="r" depth="4" NCoef="0" IVar="7" Cut="1.5575383603572845e-01" cType="1" res="-9.9000000000000000e+01" rms="0.0000000000000000e+00" purity="4.9203181266784668e-01" nType="0">
                <Node pos="l" depth="5" NCoef="0" IVar="-1" Cut="0.0000000000000000e+00" cType="1" res="-9.9000000000000000e+01" rms="0.0000000000000000e+00" purity="5.3184205293655396e-01" nType="1"/>
                <Node pos="r" depth="5" NCoef="0" IVar="3" Cut="7.9654678702354431e-02" cType="0" res="-9.9000000000000000e+01" rms="0.0000000000000000e+00" purity="4.7291815280914307e-01" nType="0">
                  <Node pos="l" depth="6" NCoef="0" IVar="1" Cut="1.3768764734268188e+00" cType="0" res="-9.9000000000000000e+01" rms="0.0000000000000000e+00" purity="5.0867134332656860e-01" nType="0">
                    <Node pos="l" depth="7" NCoef="0" IVar="-1" Cut="0.0000000000000000e+00" cType="1" res="-9.9000000000000000e+01" rms="0.0000000000000000e+00" purity="5.3869730234146118e-01" nType="1"/>
                    <Node pos="r" depth="7" NCoef="0" IVar="-1" Cut="0.0000000000000000e+00" cType="1" res="-9.9000000000000000e+01" rms="0.0000000000000000e+00" purity="4.8159891366958618e-01" nType="-1"/>
                  </Node>
                  <Node pos="r" depth="6" NCoef="0" IVar="-1" Cut="3.8571167737245560e-02" cType="0" res="-9.9000000000000000e+01" rms="0.0000000000000000e+00" purity="4.4219672679901123e-01" nType="-1"/>
                </Node>
              </Node>
            </Node>
            <Node pos="r" depth="3" NCoef="0" IVar="-1" Cut="0.0000000000000000e+00" cType="1" res="-9.9000000000000000e+01" rms="0.0000000000000000e+00" purity="4.1272959113121033e-01" nType="-1"/>
          </Node>
          <Node pos="r" depth="2" NCoef="0" IVar="-1" Cut="1.4097833633422852e+00" cType="1" res="-9.9000000000000000e+01" rms="0.0000000000000000e+00" purity="3.8605722784996033e-01" nType="-1"/>
        </Node>
      </Node>
    </BinaryTree>
    <BinaryTree type="DecisionTree" boostWeight="1.2120281608428247e-01" itree="11">
      <Node pos="s" depth="0" NCoef="0" IVar="6" Cut="8.8675165176391602e-01" cType="0" res="-9.9000000000000000e+01" rms="0.0000000000000000e+00" purity="5.0020813941955566e-01" nType="0">
        <Node pos="l" depth="1" NCoef="0" IVar="-1" Cut="0.0000000000000000e+00" cType="1" res="-9.9000000000000000e+01" rms="0.0000000000000000e+00" purity="5.9818947315216064e-01" nType="1"/>
        <Node pos="r" depth="1" NCoef="0" IVar="5" Cut="9.2839069664478302e-02" cType="0" res="-9.9000000000000000e+01" rms="0.0000000000000000e+00" purity="4.8818925023078918e-01" nType="0">
          <Node pos="l" depth="2" NCoef="0" IVar="-1" Cut="0.0000000000000000e+00" cType="1" res="-9.9000000000000000e+01" rms="0.0000000000000000e+00" purity="5.5919378995895386e-01" nType="1"/>
          <Node pos="r" depth="2" NCoef="0" IVar="7" Cut="4.0590444207191467e-01" cType="1" res="-9.9000000000000000e+01" rms="0.0000000000000000e+00" purity="4.7904774546623230e-01" nType="0">
            <Node pos="l" depth="3" NCoef="0" IVar="5" Cut="5.8085724711418152e-02" cType="0" res="-9.9000000000000000e+01" rms="0.0000000000000000e+00" purity="4.9216845631599426e-01" nType="0">
              <Node pos="l" depth="4" NCoef="0" IVar="-1" Cut="0.0000000000000000e+00" cType="1" res="-9.9000000000000000e+01" rms="0.0000000000000000e+00" purity="5.7238650321960449e-01" nType="1"/>
              <Node pos="r" depth="4" NCoef="0" IVar="8" Cut="2.5000000000000000e+00" cType="0" res="-9.9000000000000000e+01" rms="0.0000000000000000e+00" purity="4.7492831945419312e-01" nType="0">
                <Node pos="l" depth="5" NCoef="0" IVar="3" Cut="9.1282367706298828e-02" cType="0" res="-9.9000000000000000e+01" rms="0.0000000000000000e+00" purity="4.8843592405319214e-01" nType="0">
                  <Node pos="l" depth="6" NCoef="0" IVar="3" Cut="1.7594398558139801e-01" cType="1" res="-9.9000000000000000e+01" rms="0.0000000000000000e+00" purity="5.1907873153686523e-01" nType="0">
                    <Node pos="l" depth="7" NCoef="0" IVar="-1" Cut="5.9478563070297241e-01" cType="1" res="-9.9000000000000000e+01" rms="0.0000000000000000e+00" purity="5.3837281465530396e-01" nType="1"/>
                    <Node pos="r" depth="7" NCoef="0" IVar="-1" Cut="0.0000000000000000e+00" cType="1" res="-9.9000000000000000e+01" rms="0.0000000000000000e+00" purity="4.9090588092803955e-01" nType="-1"/>
                  </Node>
                  <Node pos="r" depth="6" NCoef="0" IVar="-1" Cut="4.7256562858819962e-02" cType="0" res="-9.9000000000000000e+01" rms="0.0000000000000000e+00" purity="4.6577844023704529e-01" nType="-1"/>
                </Node>
                <Node pos="r" depth="5" NCoef="0" IVar="-1" Cut="8.4423404932022095e-01" cType="0" res="-9.9000000000000000e+01" rms="0.0000000000000000e+00" purity="4.1318088769912720e-01" nType="-1"/>
              </Node>
            </Node>
            <Node pos="r" depth="3" NCoef="0" IVar="-1" Cut="0.0000000000000000e+00" cType="1" res="-9.9000000000000000e+01" rms="0.0000000000000000e+00" purity="3.7771436572074890e-01" nType="-1"/>
          </Node>
        </Node>
      </Node>
    </BinaryTree>
    <BinaryTree type="DecisionTree" boostWeight="1.3104897507434193e-01" itree="12">
      <Node pos="s" depth="0" NCoef="0" IVar="7" Cut="7.5947570800781250e-01" cType="1" res="-9.9000000000000000e+01" rms="0.0000000000000000e+00" purity="5.0304448604583740e-01" nType="0">
        <Node pos="l" depth="1" NCoef="0" IVar="5" Cut="7.5393930077552795e-02" cType="0" res="-9.9000000000000000e+01" rms="0.0000000000000000e+00" purity="5.1078468561172485e-01" nType="0">
          <Node pos="l" depth="2" NCoef="0" IVar="-1" Cut="4.4325438141822815e-01" cType="1" res="-9.9000000000000000e+01" rms="0.0000000000000000e+00" purity="5.8819502592086792e-01" nType="1"/>
          <Node pos="r" depth="2" NCoef="0" IVar="7" Cut="2.9707187414169312e-01" cType="1" res="-9.9000000000000000e+01" rms="0.0000000000000000e+00" purity="4.9763783812522888e-01" nType="0">
            <Node pos="l" depth="3" NCoef="0" IVar="9" Cut="3.3479252457618713e-01" cType="1" res="-9.9000000000000000e+01" rms="0.0000000000000000e+00" purity="5.1694858074188232e-01" nType="0">
              <Node pos="l" depth="4" NCoef="0" IVar="-1" Cut="2.1163216233253479e-01" cType="0" res="-9.9000000000000000e+01" rms="0.0000000000000000e+00" purity="5.7222503423690796e-01" nType="1"/>
              <Node pos="r" depth="4" NCoef="0" IVar="7" Cut="9.6993885934352875e-02" cType="1" res="-9.9000000000000000e+01" rms="0.0000000000000000e+00" purity="4.9927777051925659e-01" nType="0">
                <Node pos="l" depth="5" NCoef="0" IVar="-1" Cut="0.0000000000000000e+00" cType="1" res="-9.9000000000000000e+01" rms="0.0000000000000000e+00" purity="5.5189865827560425e-01" nType="1"/>
                <Node pos="r" depth="5" NCoef="0" IVar="1" Cut="8.9507150650024414e-01" cType="0" res="-9.9000000000000000e+01" rms="0.0000000000000000e+00" purity="4.8758879303932190e-01" nType="0">
                  <Node pos="l" depth="6" NCoef="0" IVar="-1" Cut="9.5816946029663086e-01" cType="0" res="-9.9000000000000000e+01" rms="0.0000000000000000e+00" purity="5.2840811014175415e-01" nType="1"/>
                  <Node pos="r" depth="6" NCoef="0" IVar="-1" Cut="2.3983070254325867e-01" cType="1" res="-9.9000000000000000e+01" rms="0.0000000000000000e+00" purity="4.3648111820220947e-01" nType="-1"/>
                </Node>
              </Node>
            </Node>
            <Node pos="r" depth="3" NCoef="0" IVar="-1" Cut="7.3464590311050415e-01" cType="1" res="-9.9000000000000000e+01" rms="0.0000000000000000e+00" purity="4.2506584525108337e-01" nType="-1"/>
          </Node>
        </Node>
        <Node pos="r" depth="1" NCoef="0" IVar="-1" Cut="0.0000000000000000e+00" cType="1" res="-9.9000000000000000e+01" rms="0.0000000000000000e+00" purity="3.6811771988868713e-01" nType="-1"/>
      </Node>
    </BinaryTree>
    <BinaryTree type="DecisionTree" boostWeight="1.1723212005702510e-01" itree="13">
      <Node pos="s" depth="0" NCoef="0" IVar="2" Cut="1.1168259382247925e+00" cType="1" res="-9.9000000000000000e+01" rms="0.0000000000000000e+00" purity="4.9646887183189392e-01" nType="0">
        <Node pos="l" depth="1" NCoef="0" IVar="0" Cut="2.2630737721920013e-01" cType="1" res="-9.9000000000000000e+01" rms="0.0000000000000000e+00" purity="5.1154589653015137e-01" nType="0">
          <Node pos="l" depth="2" NCoef="0" IVar="6" Cut="5.1114571094512939e-01" cType="0" res="-9.9000000000000000e+01" rms="0.0000000000000000e+00" purity="5.4587465524673462e-01" nType="0">
            <Node pos="l" depth="3" NCoef="0" IVar="-1" Cut="0.0000000000000000e+00" cType="1" res="-9.9000000000000000e+01" rms="0.0000000000000000e+00" purity="5.9185391664505005e-01" nType="1"/>
            <Node pos="r" depth="3" NCoef="0" IVar="2" Cut="4.4253915548324585e-01" cType="0" res="-9.9000000000000000e+01" rms="0.0000000000000000e+00" purity="5.1983815431594849e-01" nType="0">
              <Node pos="l" depth="4" NCoef="0" IVar="-1" Cut="0.0000000000000000e+00" cType="1" res="-9.9000000000000000e+01" rms="0.0000000000000000e+00" purity="5.7257318496704102e-01" nType="1"/>
              <Node pos="r" depth="4" NCoef="0" IVar="-1" Cut="0.0000000000000000e+00" cType="1" res="-9.9000000000000000e+01" rms="0.0000000000000000e+00" purity="4.7075402736663818e-01" nType="-1"/>
            </Node>
          </Node>
          <Node pos="r" depth="2" NCoef="0" IVar="5" Cut="1.0376469045877457e-01" cType="0" res="-9.9000000000000000e+01" rms="0.0000000000000000e+00" purity="4.7958898544311523e-01" nType="0">
            <Node pos="l" depth="3" NCoef="0" IVar="-1" Cut="0.0000000000000000e+00" cType="1" res="-9.9000000000000000e+01" rms="0.0000000000000000e+00" purity="5.5678850412368774e-01" nType="1"/>
            <Node pos="r" depth="3" NCoef="0" IVar="1" Cut="1.2350467443466187e+00" cType="0" res="-9.9000000000000000e+01" rms="0.0000000000000000e+00" purity="4.6169665455818176e-01" nType="0">
              <Node pos="l" depth="4" NCoef="0" IVar="5" Cut="4.8845469951629639e-02" cType="1" res="-9.9000000000000000e+01" rms="0.0000000000000000e+00" purity="4.8570451140403748e-01" nType="0">
                <Node pos="l" depth="5" NCoef="0" IVar="-1" Cut="0.0000000000000000e+00" cType="1" res="-9.9000000000000000e+01" rms="0.0000000000000000e+00" purity="5.1018810272216797e-01" nType="1"/>
                <Node pos="r" depth="5" NCoef="0" IVar="-1" Cut="4.8270988464355469e-01" cType="1" res="-9.9000000000000000e+01" rms="0.0000000000000000e+00" purity="4.7310411930084229e-01" nType="-1"/>
              </Node>
              <Node pos="r" depth="4" NCoef="0" IVar="-1" Cut="2.1967214345932007e-01" cType="1" res="-9.9000000000000000e+01" rms="0.0000000000000000e+00" purity="4.3833860754966736e-01" nType="-1"/>
            </Node>
          </Node>
        </Node>
        <Node pos="r" depth="1" NCoef="0" IVar="7" Cut="2.1434357762336731e-01" cType="1" res="-9.9000000000000000e+01" rms="0.0000000000000000e+00" purity="4.5165807008743286e-01" nType="0">
          <Node pos="l" depth="2" NCoef="0" IVar="1" Cut="8.4452497959136963e-01" cType="0" res="-9.9000000000000000e+01" rms="0.0000000000000000e+00" purity="4.9852389097213745e-01" nType="0">
            <Node pos="l" depth="3" NCoef="0" IVar="-1" Cut="0.0000000000000000e+00" cType="1" res="-9.9000000000000000e+01" rms="0.0000000000000000e+00" purity="5.2939319610595703e-01" nType="1"/>
            <Node pos="r" depth="3" NCoef="0" IVar="-1" Cut="0.0000000000000000e+00" cType="1" res="-9.9000000000000000e+01" rms="0.0000000000000000e+00" purity="4.5877727866172791e-01" nType="-1"/>
          </Node>
          <Node pos="r" depth="2" NCoef="0" IVar="-1" Cut="0.0000000000000000e+00" cType="1" res="-9.9000000000000000e+01" rms="0.0000000000000000e+00" purity="3.6583420634269714e-01" nType="-1"/>
        </Node>
      </Node>
    </BinaryTree>
    <BinaryTree type="DecisionTree" boostWeight="1.1758354423817724e-01" itree="14">
      <Node pos="s" depth="0" NCoef="0" IVar="7" Cut="5.0900739431381226e-01" cType="1" res="-9.9000000000000000e+01" rms="0.0000000000000000e+00" purity="4.9887764453887939e-01" nType="0">
        <Node pos="l" depth="1" NCoef="0" IVar="5" Cut="7.5393930077552795e-02" cType="0" res="-9.9000000000000000e+01" rms="0.0000000000000000e+00" purity="5.0820660591125488e-01" nType="0">
          <Node pos="l" depth="2" NCoef="0" IVar="-1" Cut="0.0000000000000000e+00" cType="1" res="-9.9000000000000000e+01" rms="0.0000000000000000e+00" purity="5.8484685420989990e-01" nType="1"/>
          <Node pos="r" depth="2" NCoef="0" IVar="0" Cut="1.4014689624309540e-01" cType="1" res="-9.9000000000000000e+01" rms="0.0000000000000000e+00" purity="4.9839586019515991e-01" nType="0">
            <Node pos="l" depth="3" NCoef="0" IVar="-1" Cut="0.0000000000000000e+00" cType="1" res="-9.9000000000000000e+01" rms="0.0000000000000000e+00" purity="5.5838876962661743e-01" nType="1"/>
            <Node pos="r" depth="3" NCoef="0" IVar="1" Cut="1.6591467857360840e+00" cType="0" res="-9.9000000000000000e+01" rms="0.0000000000000000e+00" purity="4.8216918110847473e-01" nType="0">
              <Node pos="l" depth="4" NCoef="0" IVar="-1" Cut="0.0000000000000000e+00" cType="1" res="-9.9000000000000000e+01" rms="0.0000000000000000e+00" purity="5.6330966949462891e-01" nType="1"/>
              <Node pos="r" depth="4" NCoef="0" IVar="7" Cut="2.3976786434650421e-01" cType="1" res="-9.9000000000000000e+01" rms="0.0000000000000000e+00" purity="4.7492274641990662e-01" nType="0">
                <Node pos="l" depth="5" NCoef="0" IVar="8" Cut="3.2692308425903320e+00" cType="1" res="-9.9000000000000000e+01" rms="0.0000000000000000e+00" purity="4.9728879332542419e-01" nType="0">
                  <Node pos="l" depth="6" NCoef="0" IVar="0" Cut="4.1623696684837341e-01" cType="1" res="-9.9000000000000000e+01" rms="0.0000000000000000e+00" purity="5.2263247966766357e-01" nType="0">
                    <Node pos="l" depth="7" NCoef="0" IVar="-1" Cut="8.8351655006408691e-01" cType="0" res="-9.9000000000000000e+01" rms="0.0000000000000000e+00" purity="5.5201983451843262e-01" nType="1"/>
                    <Node pos="r" depth="7" NCoef="0" IVar="-1" Cut="0.0000000000000000e+00" cType="1" res="-9.9000000000000000e+01" rms="0.0000000000000000e+00" purity="4.6913155913352966e-01" nType="-1"/>
                  </Node>
                  <Node pos="r" depth="6" NCoef="0" IVar="-1" Cut="5.9456026554107666e-01" cType="1" res="-9.9000000000000000e+01" rms="0.0000000000000000e+00" purity="4.6662026643753052e-01" nType="-1"/>
                </Node>
                <Node pos="r" depth="5" NCoef="0" IVar="-1" Cut="1.1812314987182617e+00" cType="0" res="-9.9000000000000000e+01" rms="0.0000000000000000e+00" purity="4.1927650570869446e-01" nType="-1"/>
              </Node>
            </Node>
          </Node>
        </Node>
        <Node pos="r" depth="1" NCoef="0" IVar="-1" Cut="7.0232152938842773e-01" cType="1" res="-9.9000000000000000e+01" rms="0.0000000000000000e+00" purity="4.3144837021827698e-01" nType="-1"/>
      </Node>
    </BinaryTree>
    <BinaryTree type="DecisionTree" boostWeight="1.3330715679359190e-01" itree="15">
      <Node pos="s" depth="0" NCoef="0" IVar="4" Cut="5.7617747783660889e-01" cType="0" res="-9.9000000000000000e+01" rms="0.0000000000000000e+00" purity="5.0137716531753540e-01" nType="0">
        <Node pos="l" depth="1" NCoef="0" IVar="4" Cut="8.6905634403228760e-01" cType="0" res="-9.9000000000000000e+01" rms="0.0000000000000000e+00" purity="5.3394258022308350e-01" nType="0">
          <Node pos="l" depth="2" NCoef="0" IVar="-1" Cut="0.0000000000000000e+00" cType="1" res="-9.9000000000000000e+01" rms="0.0000000000000000e+00" purity="6.7356294393539429e-01" nType="1"/>
          <Node pos="r" depth="2" NCoef="0" IVar="-1" Cut="7.0008754730224609e-01" cType="0" res="-9.9000000000000000e+01" rms="0.0000000000000000e+00" purity="4.4279274344444275e-01" nType="-1"/>
        </Node>
        <Node pos="r" depth="1" NCoef="0" IVar="6" Cut="6.9871097803115845e-01" cType="1" res="-9.9000000000000000e+01" rms="0.0000000000000000e+00" purity="4.8673304915428162e-01" nType="0">
          <Node pos="l" depth="2" NCoef="0" IVar="6" Cut="1.5183942019939423e-01" cType="0" res="-9.9000000000000000e+01" rms="0.0000000000000000e+00" purity="5.0395691394805908e-01" nType="0">
            <Node pos="l" depth="3" NCoef="0" IVar="4" Cut="1.6939723491668701e-01" cType="0" res="-9.9000000000000000e+01" rms="0.0000000000000000e+00" purity="5.1894289255142212e-01" nType="0">
              <Node pos="l" depth="4" NCoef="0" IVar="4" Cut="4.0407577157020569e-01" cType="0" res="-9.9000000000000000e+01" rms="0.0000000000000000e+00" purity="5.3456431627273560e-01" nType="0">
                <Node pos="l" depth="5" NCoef="0" IVar="-1" Cut="0.0000000000000000e+00" cType="1" res="-9.9000000000000000e+01" rms="0.0000000000000000e+00" purity="6.0627382993698120e-01" nType="1"/>
                <Node pos="r" depth="5" NCoef="0" IVar="5" Cut="4.9653578549623489e-02" cType="0" res="-9.9000000000000000e+01" rms="0.0000000000000000e+00" purity="5.0162214040756226e-01" nType="0">
                  <Node pos="l" depth="6" NCoef="0" IVar="-1" Cut="0.0000000000000000e+00" cType="1" res="-9.9000000000000000e+01" rms="0.0000000000000000e+00" purity="5.3743368387222290e-01" nType="1"/>
                  <Node pos="r" depth="6" NCoef="0" IVar="-1" Cut="0.0000000000000000e+00" cType="1" res="-9.9000000000000000e+01" rms="0.0000000000000000e+00" purity="4.7464236617088318e-01" nType="-1"/>
                </Node>
              </Node>
              <Node pos="r" depth="4" NCoef="0" IVar="2" Cut="9.0559184551239014e-01" cType="0" res="-9.9000000000000000e+01" rms="0.0000000000000000e+00" purity="4.9165689945220947e-01" nType="0">
                <Node pos="l" depth="5" NCoef="0" IVar="-1" Cut="0.0000000000000000e+00" cType="1" res="-9.9000000000000000e+01" rms="0.0000000000000000e+00" purity="5.2441716194152832e-01" nType="1"/>
                <Node pos="r" depth="5" NCoef="0" IVar="-1" Cut="0.0000000000000000e+00" cType="1" res="-9.9000000000000000e+01" rms="0.0000000000000000e+00" purity="4.6791425347328186e-01" nType="-1"/>
              </Node>
            </Node>
            <Node pos="r" depth="3" NCoef="0" IVar="8" Cut="4.5000000000000000e+00" cType="0" res="-9.9000000000000000e+01" rms="0.0000000000000000e+00" purity="4.7542187571525574e-01" nType="0">
              <Node pos="l" depth="4" NCoef="0" IVar="-1" Cut="0.0000000000000000e+00" cType="1" res="-9.9000000000000000e+01" rms="0.0000000000000000e+00" purity="5.1632976531982422e-01" nType="1"/>
              <Node pos="r" depth="4" NCoef="0" IVar="-1" Cut="1.8443723022937775e-01" cType="1" res="-9.9000000000000000e+01" rms="0.0000000000000000e+00" purity="4.5305970311164856e-01" nType="-1"/>
            </Node>
          </Node>
          <Node pos="r" depth="2" NCoef="0" IVar="-1" Cut="0.0000000000000000e+00" cType="1" res="-9.9000000000000000e+01" rms="0.0000000000000000e+00" purity="4.2115968465805054e-01" nType="-1"/>
        </Node>
      </Node>
    </BinaryTree>
    <BinaryTree type="DecisionTree" boostWeight="8.4632326726545581e-02" itree="16">
      <Node pos="s" depth="0" NCoef="0" IVar="6" Cut="8.8675165176391602e-01" cType="0" res="-9.9000000000000000e+01" rms="0.0000000000000000e+00" purity="5.0927430391311646e-01" nType="0">
        <Node pos="l" depth="1" NCoef="0" IVar="-1" Cut="0.0000000000000000e+00" cType="1" res="-9.9000000000000000e+01" rms="0.0000000000000000e+00" purity="5.8635193109512329e-01" nType="1"/>
        <Node pos="r" depth="1" NCoef="0" IVar="9" Cut="1.4879760146141052e-01" cType="1" res="-9.9000000000000000e+01" rms="0.0000000000000000e+00" purity="5.0002282857894897e-01" nType="0">
          <Node pos="l" depth="2" NCoef="0" IVar="-1" Cut="0.0000000000000000e+00" cType="1" res="-9.9000000000000000e+01" rms="0.0000000000000000e+00" purity="5.5190622806549072e-01" nType="1"/>
          <Node pos="r" depth="2" NCoef="0" IVar="8" Cut="2.5000000000000000e+00" cType="0" res="-9.9000000000000000e+01" rms="0.0000000000000000e+00" purity="4.9359065294265747e-01" nType="0">
            <Node pos="l" depth="3" NCoef="0" IVar="7" Cut="4.7179877758026123e-01" cType="1" res="-9.9000000000000000e+01" rms="0.0000000000000000e+00" purity="4.9875086545944214e-01" nType="0">
              <Node pos="l" depth="4" NCoef="0" IVar="1" Cut="1.3038080930709839e+00" cType="0" res="-9.9000000000000000e+01" rms="0.0000000000000000e+00" purity="5.0520920753479004e-01" nType="0">
                <Node pos="l" depth="5" NCoef="0" IVar="0" Cut="4.4304633140563965e-01" cType="0" res="-9.9000000000000000e+01" rms="0.0000000000000000e+00" purity="5.3249096870422363e-01" nType="0">
                  <Node pos="l" depth="6" NCoef="0" IVar="-1" Cut="0.0000000000000000e+00" cType="1" res="-9.9000000000000000e+01" rms="0.0000000000000000e+00" purity="5.8693975210189819e-01" nType="1"/>
                  <Node pos="r" depth="6" NCoef="0" IVar="-1" Cut="0.0000000000000000e+00" cType="1" res="-9.9000000000000000e+01" rms="0.0000000000000000e+00" purity="4.9318000674247742e-01" nType="-1"/>
                </Node>
                <Node pos="r" depth="5" NCoef="0" IVar="1" Cut="1.0034639835357666e+00" cType="1" res="-9.9000000000000000e+01" rms="0.0000000000000000e+00" purity="4.9520903825759888e-01" nType="0">
                  <Node pos="l" depth="6" NCoef="0" IVar="8" Cut="3.3461537361145020e+00" cType="1" res="-9.9000000000000000e+01" rms="0.0000000000000000e+00" purity="5.0909763574600220e-01" nType="0">
                    <Node pos="l" depth="7" NCoef="0" IVar="2" Cut="8.5015445947647095e-01" cType="0" res="-9.9000000000000000e+01" rms="0.0000000000000000e+00" purity="5.3687322139739990e-01" nType="0">
                      <Node pos="l" depth="8" NCoef="0" IVar="-1" Cut="0.0000000000000000e+00" cType="1" res="-9.9000000000000000e+01" rms="0.0000000000000000e+00" purity="5.8002918958663940e-01" nType="1"/>
                      <Node pos="r" depth="8" NCoef="0" IVar="-1" Cut="0.0000000000000000e+00" cType="1" res="-9.9000000000000000e+01" rms="0.0000000000000000e+00" purity="4.9912601709365845e-01" nType="-1"/>
                    </Node>
                    <Node pos="r" depth="7" NCoef="0" IVar="-1" Cut="0.0000000000000000e+00" cType="1" res="-9.9000000000000000e+01" rms="0.0000000000000000e+00" purity="4.7992002964019775e-01" nType="-1"/>
                  </Node>
                  <Node pos="r" depth="6" NCoef="0" IVar="1" Cut="1.1420835256576538e+00" cType="0" res="-9.9000000000000000e+01" rms="0.0000000000000000e+00" purity="4.6620854735374451e-01" nType="0">
                    <Node pos="l" depth="7" NCoef="0" IVar="-1" Cut="0.0000000000000000e+00" cType="1" res="-9.9000000000000000e+01" rms="0.0000000000000000e+00" purity="5.0144094228744507e-01" nType="1"/>
                    <Node pos="r" depth="7" NCoef="0" IVar="-1" Cut="0.0000000000000000e+00" cType="1" res="-9.9000000000000000e+01" rms="0.0000000000000000e+00" purity="4.3690001964569092e-01" nType="-1"/>
                  </Node>
                </Node>
              </Node>
              <Node pos="r" depth="4" NCoef="0" IVar="-1" Cut="3.2109022140502930e-01" cType="0" res="-9.9000000000000000e+01" rms="0.0000000000000000e+00" purity="4.6263435482978821e-01" nType="-1"/>
            </Node>
            <Node pos="r" depth="3" NCoef="0" IVar="-1" Cut="2.5741612911224365e-01" cType="0" res="-9.9000000000000000e+01" rms="0.0000000000000000e+00" purity="4.5888739824295044e-01" nType="-1"/>
          </Node>
        </Node>
      </Node>
    </BinaryTree>
    <BinaryTree type="DecisionTree" boostWeight="1.4356957072967413e-01" itree="17">
      <Node pos="s" depth="0" NCoef="0" IVar="4" Cut="5.7617747783660889e-01" cType="0" res="-9.9000000000000000e+01" rms="0.0000000000000000e+00" purity="5.1337671279907227e-01" nType="0">
        <Node pos="l" depth="1" NCoef="0" IVar="4" Cut="7.7143019437789917e-01" cType="0" res="-9.9000000000000000e+01" rms="0.0000000000000000e+00" purity="5.4617446660995483e-01" nType="0">
          <Node pos="l" depth="2" NCoef="0" IVar="-1" Cut="0.0000000000000000e+00" cType="1" res="-9.9000000000000000e+01" rms="0.0000000000000000e+00" purity="6.1794394254684448e-01" nType="1"/>
          <Node pos="r" depth="2" NCoef="0" IVar="-1" Cut="0.0000000000000000e+00" cType="1" res="-9.9000000000000000e+01" rms="0.0000000000000000e+00" purity="4.4173568487167358e-01" nType="-1"/>
        </Node>
        <Node pos="r" depth="1" NCoef="0" IVar="0" Cut="6.7676901817321777e-01" cType="1" res="-9.9000000000000000e+01" rms="0.0000000000000000e+00" purity="4.9877429008483887e-01" nType="0">
          <Node pos="l" depth="2" NCoef="0" IVar="2" Cut="3.7932693958282471e-01" cType="0" res="-9.9000000000000000e+01" rms="0.0000000000000000e+00" purity="5.1037508249282837e-01" nType="0">
            <Node pos="l" depth="3" NCoef="0" IVar="6" Cut="6.2390536069869995e-01" cType="1" res="-9.9000000000000000e+01" rms="0.0000000000000000e+00" purity="5.2667897939682007e-01" nType="0">
              <Node pos="l" depth="4" NCoef="0" IVar="0" Cut="3.0320790410041809e-01" cType="1" res="-9.9000000000000000e+01" rms="0.0000000000000000e+00" purity="5.4924106597900391e-01" nType="0">
                <Node pos="l" depth="5" NCoef="0" IVar="-1" Cut="3.1538462638854980e+00" cType="1" res="-9.9000000000000000e+01" rms="0.0000000000000000e+00" purity="5.9188914299011230e-01" nType="1"/>
                <Node pos="r" depth="5" NCoef="0" IVar="1" Cut="1.1740754842758179e+00" cType="0" res="-9.9000000000000000e+01" rms="0.0000000000000000e+00" purity="5.0694209337234497e-01" nType="0">
                  <Node pos="l" depth="6" NCoef="0" IVar="-1" Cut="0.0000000000000000e+00" cType="1" res="-9.9000000000000000e+01" rms="0.0000000000000000e+00" purity="5.6020563840866089e-01" nType="1"/>
                  <Node pos="r" depth="6" NCoef="0" IVar="-1" Cut="0.0000000000000000e+00" cType="1" res="-9.9000000000000000e+01" rms="0.0000000000000000e+00" purity="4.6376591920852661e-01" nType="-1"/>
                </Node>
              </Node>
              <Node pos="r" depth="4" NCoef="0" IVar="-1" Cut="0.0000000000000000e+00" cType="1" res="-9.9000000000000000e+01" rms="0.0000000000000000e+00" purity="4.5879915356636047e-01" nType="-1"/>
            </Node>
            <Node pos="r" depth="3" NCoef="0" IVar="-1" Cut="0.0000000000000000e+00" cType="1" res="-9.9000000000000000e+01" rms="0.0000000000000000e+00" purity="4.4704234600067139e-01" nType="-1"/>
          </Node>
          <Node pos="r" depth="2" NCoef="0" IVar="-1" Cut="4.4631156325340271e-01" cType="0" res="-9.9000000000000000e+01" rms="0.0000000000000000e+00" purity="4.3329966068267822e-01" nType="-1"/>
        </Node>
      </Node>
    </BinaryTree>
    <BinaryTree type="DecisionTree" boostWeight="1.0254842191823496e-01" itree="18">
      <Node pos="s" depth="0" NCoef="0" IVar="6" Cut="8.8675165176391602e-01" cType="0" res="-9.9000000000000000e+01" rms="0.0000000000000000e+00" purity="5.1813775300979614e-01" nType="0">
        <Node pos="l" depth="1" NCoef="0" IVar="-1" Cut="0.0000000000000000e+00" cType="1" res="-9.9000000000000000e+01" rms="0.0000000000000000e+00" purity="5.8722627162933350e-01" nType="1"/>
        <Node pos="r" depth="1" NCoef="0" IVar="6" Cut="1.5446132421493530e-01" cType="0" res="-9.9000000000000000e+01" rms="0.0000000000000000e+00" purity="5.0985157489776611e-01" nType="0">
          <Node pos="l" depth="2" NCoef="0" IVar="5" Cut="5.1745716482400894e-02" cType="0" res="-9.9000000000000000e+01" rms="0.0000000000000000e+00" purity="5.1955854892730713e-01" nType="0">
            <Node pos="l" depth="3" NCoef="0" IVar="3" Cut="7.8872092068195343e-02" cType="1" res="-9.9000000000000000e+01" rms="0.0000000000000000e+00" purity="5.4519850015640259e-01" nType="0">
              <Node pos="l" depth="4" NCoef="0" IVar="-1" Cut="0.0000000000000000e+00" cType="1" res="-9.9000000000000000e+01" rms="0.0000000000000000e+00" purity="5.9392589330673218e-01" nType="1"/>
              <Node pos="r" depth="4" NCoef="0" IVar="8" Cut="4.5000000000000000e+00" cType="0" res="-9.9000000000000000e+01" rms="0.0000000000000000e+00" purity="4.9699962139129639e-01" nType="0">
                <Node pos="l" depth="5" NCoef="0" IVar="-1" Cut="0.0000000000000000e+00" cType="1" res="-9.9000000000000000e+01" rms="0.0000000000000000e+00" purity="5.3278136253356934e-01" nType="1"/>
                <Node pos="r" depth="5" NCoef="0" IVar="-1" Cut="0.0000000000000000e+00" cType="1" res="-9.9000000000000000e+01" rms="0.0000000000000000e+00" purity="4.5685505867004395e-01" nType="-1"/>
              </Node>
            </Node>
            <Node pos="r" depth="3" NCoef="0" IVar="5" Cut="3.8328658789396286e-02" cType="0" res="-9.9000000000000000e+01" rms="0.0000000000000000e+00" purity="5.0326311588287354e-01" nType="0">
              <Node pos="l" depth="4" NCoef="0" IVar="-1" Cut="3.5161668062210083e-01" cType="0" res="-9.9000000000000000e+01" rms="0.0000000000000000e+00" purity="5.2799910306930542e-01" nType="1"/>
              <Node pos="r" depth="4" NCoef="0" IVar="3" Cut="7.8646093606948853e-02" cType="0" res="-9.9000000000000000e+01" rms="0.0000000000000000e+00" purity="4.9219000339508057e-01" nType="0">
                <Node pos="l" depth="5" NCoef="0" IVar="-1" Cut="3.3846154212951660e+00" cType="1" res="-9.9000000000000000e+01" rms="0.0000000000000000e+00" purity="5.2881437540054321e-01" nType="1"/>
                <Node pos="r" depth="5" NCoef="0" IVar="3" Cut="4.0415182709693909e-02" cType="0" res="-9.9000000000000000e+01" rms="0.0000000000000000e+00" purity="4.6196869015693665e-01" nType="0">
                  <Node pos="l" depth="6" NCoef="0" IVar="-1" Cut="0.0000000000000000e+00" cType="1" res="-9.9000000000000000e+01" rms="0.0000000000000000e+00" purity="5.1859551668167114e-01" nType="1"/>
                  <Node pos="r" depth="6" NCoef="0" IVar="-1" Cut="0.0000000000000000e+00" cType="1" res="-9.9000000000000000e+01" rms="0.0000000000000000e+00" purity="4.0342596173286438e-01" nType="-1"/>
                </Node>
              </Node>
            </Node>
          </Node>
          <Node pos="r" depth="2" NCoef="0" IVar="7" Cut="2.4004180729389191e-01" cType="1" res="-9.9000000000000000e+01" rms="0.0000000000000000e+00" purity="4.8830524086952209e-01" nType="0">
            <Node pos="l" depth="3" NCoef="0" IVar="2" Cut="9.2664974927902222e-01" cType="0" res="-9.9000000000000000e+01" rms="0.0000000000000000e+00" purity="5.0886505842208862e-01" nType="0">
              <Node pos="l" depth="4" NCoef="0" IVar="-1" Cut="0.0000000000000000e+00" cType="1" res="-9.9000000000000000e+01" rms="0.0000000000000000e+00" purity="5.4584026336669922e-01" nType="1"/>
              <Node pos="r" depth="4" NCoef="0" IVar="-1" Cut="0.0000000000000000e+00" cType="1" res="-9.9000000000000000e+01" rms="0.0000000000000000e+00" purity="4.7302144765853882e-01" nType="-1"/>
            </Node>
            <Node pos="r" depth="3" NCoef="0" IVar="-1" Cut="0.0000000000000000e+00" cType="1" res="-9.9000000000000000e+01" rms="0.0000000000000000e+00" purity="4.5120343565940857e-01" nType="-1"/>
          </Node>
        </Node>
      </Node>
    </BinaryTree>
    <BinaryTree type="DecisionTree" boostWeight="1.0355821633400202e-01" itree="19">
      <Node pos="s" depth="0" NCoef="0" IVar="2" Cut="5.6729269027709961e-01" cType="1" res="-9.9000000000000000e+01" rms="0.0000000000000000e+00" purity="5.0876790285110474e-01" nType="0">
        <Node pos="l" depth="1" NCoef="0" IVar="6" Cut="5.4868459701538086e-01" cType="0" res="-9.9000000000000000e+01" rms="0.0000000000000000e+00" purity="5.3372710943222046e-01" nType="0">
          <Node pos="l" depth="2" NCoef="0" IVar="-1" Cut="0.0000000000000000e+00" cType="1" res="-9.9000000000000000e+01" rms="0.0000000000000000e+00" purity="5.8810865879058838e-01" nType="1"/>
          <Node pos="r" depth="2" NCoef="0" IVar="7" Cut="2.3429794609546661e-01" cType="0" res="-9.9000000000000000e+01" rms="0.0000000000000000e+00" purity="5.0570589303970337e-01" nType="0">
            <Node pos="l" depth="3" NCoef="0" IVar="-1" Cut="0.0000000000000000e+00" cType="1" res="-9.9000000000000000e+01" rms="0.0000000000000000e+00" purity="5.3262031078338623e-01" nType="1"/>
            <Node pos="r" depth="3" NCoef="0" IVar="-1" Cut="0.0000000000000000e+00" cType="1" res="-9.9000000000000000e+01" rms="0.0000000000000000e+00" purity="4.7485184669494629e-01" nType="-1"/>
          </Node>
        </Node>
        <Node pos="r" depth="1" NCoef="0" IVar="7" Cut="2.4004180729389191e-01" cType="1" res="-9.9000000000000000e+01" rms="0.0000000000000000e+00" purity="4.9485599994659424e-01" nType="0">
          <Node pos="l" depth="2" NCoef="0" IVar="1" Cut="6.7451161146163940e-01" cType="0" res="-9.9000000000000000e+01" rms="0.0000000000000000e+00" purity="5.2341228723526001e-01" nType="0">
            <Node pos="l" depth="3" NCoef="0" IVar="-1" Cut="3.1538462638854980e+00" cType="1" res="-9.9000000000000000e+01" rms="0.0000000000000000e+00" purity="5.3995311260223389e-01" nType="1"/>
            <Node pos="r" depth="3" NCoef="0" IVar="-1" Cut="0.0000000000000000e+00" cType="1" res="-9.9000000000000000e+01" rms="0.0000000000000000e+00" purity="4.4612976908683777e-01" nType="-1"/>
          </Node>
          <Node pos="r" depth="2" NCoef="0" IVar="8" Cut="3.5000000000000000e+00" cType="0" res="-9.9000000000000000e+01" rms="0.0000000000000000e+00" purity="4.4705557823181152e-01" nType="0">
            <Node pos="l" depth="3" NCoef="0" IVar="8" Cut="5.2692308425903320e+00" cType="0" res="-9.9000000000000000e+01" rms="0.0000000000000000e+00" purity="4.8432323336601257e-01" nType="0">
              <Node pos="l" depth="4" NCoef="0" IVar="-1" Cut="0.0000000000000000e+00" cType="1" res="-9.9000000000000000e+01" rms="0.0000000000000000e+00" purity="5.3450143337249756e-01" nType="1"/>
              <Node pos="r" depth="4" NCoef="0" IVar="-1" Cut="9.1451960802078247e-01" cType="1" res="-9.9000000000000000e+01" rms="0.0000000000000000e+00" purity="4.5819583535194397e-01" nType="-1"/>
            </Node>
            <Node pos="r" depth="3" NCoef="0" IVar="-1" Cut="0.0000000000000000e+00" cType="1" res="-9.9000000000000000e+01" rms="0.0000000000000000e+00" purity="3.3793449401855469e-01" nType="-1"/>
          </Node>
        </Node>
      </Node>
    </BinaryTree>
    <BinaryTree type="DecisionTree" boostWeight="8.5548754998162058e-02" itree="20">
      <Node pos="s" depth="0" NCoef="0" IVar="2" Cut="1.1168259382247925e+00" cType="1" res="-9.9000000000000000e+01" rms="0.0000000000000000e+00" purity="5.0152069330215454e-01" nType="0">
        <Node pos="l" depth="1" NCoef="0" IVar="0" Cut="2.2630737721920013e-01" cType="1" res="-9.9000000000000000e+01" rms="0.0000000000000000e+00" purity="5.1198810338973999e-01" nType="0">
          <Node pos="l" depth="2" NCoef="0" IVar="-1" Cut="5.5771821737289429e-01" cType="1" res="-9.9000000000000000e+01" rms="0.0000000000000000e+00" purity="5.3815305233001709e-01" nType="1"/>
          <Node pos="r" depth="2" NCoef="0" IVar="1" Cut="2.2403061389923096e+00" cType="0" res="-9.9000000000000000e+01" rms="0.0000000000000000e+00" purity="4.8771601915359497e-01" nType="0">
            <Node pos="l" depth="3" NCoef="0" IVar="-1" Cut="0.0000000000000000e+00" cType="1" res="-9.9000000000000000e+01" rms="0.0000000000000000e+00" purity="5.3870064020156860e-01" nType="1"/>
            <Node pos="r" depth="3" NCoef="0" IVar="7" Cut="3.6923813819885254e-01" cType="1" res="-9.9000000000000000e+01" rms="0.0000000000000000e+00" purity="4.7137746214866638e-01" nType="0">
              <Node pos="l" depth="4" NCoef="0" IVar="2" Cut="9.4414383172988892e-01" cType="0" res="-9.9000000000000000e+01" rms="0.0000000000000000e+00" purity="4.8650529980659485e-01" nType="0">
                <Node pos="l" depth="5" NCoef="0" IVar="-1" Cut="0.0000000000000000e+00" cType="1" res="-9.9000000000000000e+01" rms="0.0000000000000000e+00" purity="5.3101658821105957e-01" nType="1"/>
                <Node pos="r" depth="5" NCoef="0" IVar="-1" Cut="3.9802752435207367e-02" cType="0" res="-9.9000000000000000e+01" rms="0.0000000000000000e+00" purity="4.7082164883613586e-01" nType="-1"/>
              </Node>
              <Node pos="r" depth="4" NCoef="0" IVar="-1" Cut="0.0000000000000000e+00" cType="1" res="-9.9000000000000000e+01" rms="0.0000000000000000e+00" purity="4.1907036304473877e-01" nType="-1"/>
            </Node>
          </Node>
        </Node>
        <Node pos="r" depth="1" NCoef="0" IVar="0" Cut="7.4565535783767700e-01" cType="1" res="-9.9000000000000000e+01" rms="0.0000000000000000e+00" purity="4.7014957666397095e-01" nType="0">
          <Node pos="l" depth="2" NCoef="0" IVar="1" Cut="9.5412147045135498e-01" cType="0" res="-9.9000000000000000e+01" rms="0.0000000000000000e+00" purity="4.9282604455947876e-01" nType="0">
            <Node pos="l" depth="3" NCoef="0" IVar="-1" Cut="0.0000000000000000e+00" cType="1" res="-9.9000000000000000e+01" rms="0.0000000000000000e+00" purity="5.2543300390243530e-01" nType="1"/>
            <Node pos="r" depth="3" NCoef="0" IVar="7" Cut="1.2905333936214447e-01" cType="1" res="-9.9000000000000000e+01" rms="0.0000000000000000e+00" purity="4.7253364324569702e-01" nType="0">
              <Node pos="l" depth="4" NCoef="0" IVar="-1" Cut="0.0000000000000000e+00" cType="1" res="-9.9000000000000000e+01" rms="0.0000000000000000e+00" purity="5.1817154884338379e-01" nType="1"/>
              <Node pos="r" depth="4" NCoef="0" IVar="-1" Cut="0.0000000000000000e+00" cType="1" res="-9.9000000000000000e+01" rms="0.0000000000000000e+00" purity="4.2354914546012878e-01" nType="-1"/>
            </Node>
          </Node>
          <Node pos="r" depth="2" NCoef="0" IVar="-1" Cut="0.0000000000000000e+00" cType="1" res="-9.9000000000000000e+01" rms="0.0000000000000000e+00" purity="4.0980598330497742e-01" nType="-1"/>
        </Node>
      </Node>
    </BinaryTree>
    <BinaryTree type="DecisionTree" boostWeight="7.9799207525446794e-02" itree="21">
      <Node pos="s" depth="0" NCoef="0" IVar="7" Cut="7.5947570800781250e-01" cType="1" res="-9.9000000000000000e+01" rms="0.0000000000000000e+00" purity="4.9540990591049194e-01" nType="0">
        <Node pos="l" depth="1" NCoef="0" IVar="9" Cut="2.9759353399276733e-01" cType="1" res="-9.9000000000000000e+01" rms="0.0000000000000000e+00" purity="4.9970343708992004e-01" nType="0">
          <Node pos="l" depth="2" NCoef="0" IVar="5" Cut="4.3889719992876053e-02" cType="0" res="-9.9000000000000000e+01" rms="0.0000000000000000e+00" purity="5.3312778472900391e-01" nType="0">
            <Node pos="l" depth="3" NCoef="0" IVar="-1" Cut="0.0000000000000000e+00" cType="1" res="-9.9000000000000000e+01" rms="0.0000000000000000e+00" purity="5.6263971328735352e-01" nType="1"/>
            <Node pos="r" depth="3" NCoef="0" IVar="9" Cut="1.7168916761875153e-01" cType="1" res="-9.9000000000000000e+01" rms="0.0000000000000000e+00" purity="4.9861788749694824e-01" nType="0">
              <Node pos="l" depth="4" NCoef="0" IVar="-1" Cut="0.0000000000000000e+00" cType="1" res="-9.9000000000000000e+01" rms="0.0000000000000000e+00" purity="5.0078314542770386e-01" nType="1"/>
              <Node pos="r" depth="4" NCoef="0" IVar="-1" Cut="0.0000000000000000e+00" cType="1" res="-9.9000000000000000e+01" rms="0.0000000000000000e+00" purity="4.9632504582405090e-01" nType="-1"/>
            </Node>
          </Node>
          <Node pos="r" depth="2" NCoef="0" IVar="0" Cut="1.6165529191493988e-01" cType="1" res="-9.9000000000000000e+01" rms="0.0000000000000000e+00" purity="4.8935803771018982e-01" nType="0">
            <Node pos="l" depth="3" NCoef="0" IVar="-1" Cut="0.0000000000000000e+00" cType="1" res="-9.9000000000000000e+01" rms="0.0000000000000000e+00" purity="5.2081704139709473e-01" nType="1"/>
            <Node pos="r" depth="3" NCoef="0" IVar="1" Cut="1.8937462568283081e+00" cType="0" res="-9.9000000000000000e+01" rms="0.0000000000000000e+00" purity="4.7942453622817993e-01" nType="0">
              <Node pos="l" depth="4" NCoef="0" IVar="-1" Cut="0.0000000000000000e+00" cType="1" res="-9.9000000000000000e+01" rms="0.0000000000000000e+00" purity="5.3605568408966064e-01" nType="1"/>
              <Node pos="r" depth="4" NCoef="0" IVar="7" Cut="3.2718911767005920e-01" cType="1" res="-9.9000000000000000e+01" rms="0.0000000000000000e+00" purity="4.7007435560226440e-01" nType="0">
                <Node pos="l" depth="5" NCoef="0" IVar="1" Cut="7.9283457994461060e-01" cType="0" res="-9.9000000000000000e+01" rms="0.0000000000000000e+00" purity="4.7854986786842346e-01" nType="0">
                  <Node pos="l" depth="6" NCoef="0" IVar="8" Cut="3.3846154212951660e+00" cType="1" res="-9.9000000000000000e+01" rms="0.0000000000000000e+00" purity="4.9185264110565186e-01" nType="0">
                    <Node pos="l" depth="7" NCoef="0" IVar="5" Cut="4.2798236012458801e-02" cType="1" res="-9.9000000000000000e+01" rms="0.0000000000000000e+00" purity="5.2224773168563843e-01" nType="0">
                      <Node pos="l" depth="8" NCoef="0" IVar="-1" Cut="0.0000000000000000e+00" cType="1" res="-9.9000000000000000e+01" rms="0.0000000000000000e+00" purity="5.4158473014831543e-01" nType="1"/>
                      <Node pos="r" depth="8" NCoef="0" IVar="-1" Cut="0.0000000000000000e+00" cType="1" res="-9.9000000000000000e+01" rms="0.0000000000000000e+00" purity="4.9618247151374817e-01" nType="-1"/>
                    </Node>
                    <Node pos="r" depth="7" NCoef="0" IVar="1" Cut="1.2162544727325439e+00" cType="0" res="-9.9000000000000000e+01" rms="0.0000000000000000e+00" purity="4.7144439816474915e-01" nType="0">
                      <Node pos="l" depth="8" NCoef="0" IVar="-1" Cut="0.0000000000000000e+00" cType="1" res="-9.9000000000000000e+01" rms="0.0000000000000000e+00" purity="5.0973266363143921e-01" nType="1"/>
                      <Node pos="r" depth="8" NCoef="0" IVar="-1" Cut="0.0000000000000000e+00" cType="1" res="-9.9000000000000000e+01" rms="0.0000000000000000e+00" purity="4.4644334912300110e-01" nType="-1"/>
                    </Node>
                  </Node>
                  <Node pos="r" depth="6" NCoef="0" IVar="-1" Cut="0.0000000000000000e+00" cType="1" res="-9.9000000000000000e+01" rms="0.0000000000000000e+00" purity="4.3729028105735779e-01" nType="-1"/>
                </Node>
                <Node pos="r" depth="5" NCoef="0" IVar="-1" Cut="0.0000000000000000e+00" cType="1" res="-9.9000000000000000e+01" rms="0.0000000000000000e+00" purity="4.2296209931373596e-01" nType="-1"/>
              </Node>
            </Node>
          </Node>
        </Node>
        <Node pos="r" depth="1" NCoef="0" IVar="-1" Cut="0.0000000000000000e+00" cType="1" res="-9.9000000000000000e+01" rms="0.0000000000000000e+00" purity="4.1890606284141541e-01" nType="-1"/>
      </Node>
    </BinaryTree>
    <BinaryTree type="DecisionTree" boostWeight="7.2617690111635130e-02" itree="22">
      <Node pos="s" depth="0" NCoef="0" IVar="6" Cut="8.8675165176391602e-01" cType="0" res="-9.9000000000000000e+01" rms="0.0000000000000000e+00" purity="4.9274507164955139e-01" nType="0">
        <Node pos="l" depth="1" NCoef="0" IVar="-1" Cut="0.0000000000000000e+00" cType="1" res="-9.9000000000000000e+01" rms="0.0000000000000000e+00" purity="5.4304504394531250e-01" nType="1"/>
        <Node pos="r" depth="1" NCoef="0" IVar="2" Cut="2.0327146053314209e+00" cType="0" res="-9.9000000000000000e+01" rms="0.0000000000000000e+00" purity="4.8683282732963562e-01" nType="0">
          <Node pos="l" depth="2" NCoef="0" IVar="-1" Cut="0.0000000000000000e+00" cType="1" res="-9.9000000000000000e+01" rms="0.0000000000000000e+00" purity="5.4583221673965454e-01" nType="1"/>
          <Node pos="r" depth="2" NCoef="0" IVar="2" Cut="1.4127219915390015e+00" cType="1" res="-9.9000000000000000e+01" rms="0.0000000000000000e+00" purity="4.8328462243080139e-01" nType="0">
            <Node pos="l" depth="3" NCoef="0" IVar="9" Cut="5.9487766027450562e-01" cType="1" res="-9.9000000000000000e+01" rms="0.0000000000000000e+00" purity="4.8817548155784607e-01" nType="0">
              <Node pos="l" depth="4" NCoef="0" IVar="0" Cut="2.8665471076965332e-01" cType="1" res="-9.9000000000000000e+01" rms="0.0000000000000000e+00" purity="5.0211030244827271e-01" nType="0">
                <Node pos="l" depth="5" NCoef="0" IVar="-1" Cut="5.0046670436859131e-01" cType="0" res="-9.9000000000000000e+01" rms="0.0000000000000000e+00" purity="5.2232128381729126e-01" nType="1"/>
                <Node pos="r" depth="5" NCoef="0" IVar="1" Cut="1.0718755722045898e+00" cType="0" res="-9.9000000000000000e+01" rms="0.0000000000000000e+00" purity="4.7867429256439209e-01" nType="0">
                  <Node pos="l" depth="6" NCoef="0" IVar="6" Cut="2.8781703114509583e-01" cType="0" res="-9.9000000000000000e+01" rms="0.0000000000000000e+00" purity="5.0345623493194580e-01" nType="0">
                    <Node pos="l" depth="7" NCoef="0" IVar="-1" Cut="0.0000000000000000e+00" cType="1" res="-9.9000000000000000e+01" rms="0.0000000000000000e+00" purity="5.2583968639373779e-01" nType="1"/>
                    <Node pos="r" depth="7" NCoef="0" IVar="-1" Cut="0.0000000000000000e+00" cType="1" res="-9.9000000000000000e+01" rms="0.0000000000000000e+00" purity="4.8493999242782593e-01" nType="-1"/>
                  </Node>
                  <Node pos="r" depth="6" NCoef="0" IVar="-1" Cut="0.0000000000000000e+00" cType="1" res="-9.9000000000000000e+01" rms="0.0000000000000000e+00" purity="4.1059142351150513e-01" nType="-1"/>
                </Node>
              </Node>
              <Node pos="r" depth="4" NCoef="0" IVar="2" Cut="7.2208529710769653e-01" cType="0" res="-9.9000000000000000e+01" rms="0.0000000000000000e+00" purity="4.6960255503654480e-01" nType="0">
                <Node pos="l" depth="5" NCoef="0" IVar="1" Cut="9.8396098613739014e-01" cType="0" res="-9.9000000000000000e+01" rms="0.0000000000000000e+00" purity="4.9023619294166565e-01" nType="0">
                  <Node pos="l" depth="6" NCoef="0" IVar="-1" Cut="0.0000000000000000e+00" cType="1" res="-9.9000000000000000e+01" rms="0.0000000000000000e+00" purity="5.1051282882690430e-01" nType="1"/>
                  <Node pos="r" depth="6" NCoef="0" IVar="-1" Cut="0.0000000000000000e+00" cType="1" res="-9.9000000000000000e+01" rms="0.0000000000000000e+00" purity="4.7200158238410950e-01" nType="-1"/>
                </Node>
                <Node pos="r" depth="5" NCoef="0" IVar="-1" Cut="5.3614491224288940e-01" cType="0" res="-9.9000000000000000e+01" rms="0.0000000000000000e+00" purity="4.5152992010116577e-01" nType="-1"/>
              </Node>
            </Node>
            <Node pos="r" depth="3" NCoef="0" IVar="-1" Cut="0.0000000000000000e+00" cType="1" res="-9.9000000000000000e+01" rms="0.0000000000000000e+00" purity="4.4151410460472107e-01" nType="-1"/>
          </Node>
        </Node>
      </Node>
    </BinaryTree>
    <BinaryTree type="DecisionTree" boostWeight="1.0708056572313605e-01" itree="23">
      <Node pos="s" depth="0" NCoef="0" IVar="4" Cut="1.5313039720058441e-01" cType="0" res="-9.9000000000000000e+01" rms="0.0000000000000000e+00" purity="4.9179106950759888e-01" nType="0">
        <Node pos="l" depth="1" NCoef="0" IVar="4" Cut="8.6905628442764282e-01" cType="0" res="-9.9000000000000000e+01" rms="0.0000000000000000e+00" purity="5.0020658969879150e-01" nType="0">
          <Node pos="l" depth="2" NCoef="0" IVar="-1" Cut="0.0000000000000000e+00" cType="1" res="-9.9000000000000000e+01" rms="0.0000000000000000e+00" purity="5.8828490972518921e-01" nType="1"/>
          <Node pos="r" depth="2" NCoef="0" IVar="4" Cut="2.6327270269393921e-01" cType="0" res="-9.9000000000000000e+01" rms="0.0000000000000000e+00" purity="4.8438110947608948e-01" nType="0">
            <Node pos="l" depth="3" NCoef="0" IVar="5" Cut="4.2640812695026398e-02" cType="0" res="-9.9000000000000000e+01" rms="0.0000000000000000e+00" purity="5.0265246629714966e-01" nType="0">
              <Node pos="l" depth="4" NCoef="0" IVar="1" Cut="1.0147502422332764e+00" cType="1" res="-9.9000000000000000e+01" rms="0.0000000000000000e+00" purity="5.2829700708389282e-01" nType="0">
                <Node pos="l" depth="5" NCoef="0" IVar="-1" Cut="0.0000000000000000e+00" cType="1" res="-9.9000000000000000e+01" rms="0.0000000000000000e+00" purity="5.8438318967819214e-01" nType="1"/>
                <Node pos="r" depth="5" NCoef="0" IVar="2" Cut="8.3183121681213379e-01" cType="1" res="-9.9000000000000000e+01" rms="0.0000000000000000e+00" purity="5.0213128328323364e-01" nType="0">
                  <Node pos="l" depth="6" NCoef="0" IVar="-1" Cut="0.0000000000000000e+00" cType="1" res="-9.9000000000000000e+01" rms="0.0000000000000000e+00" purity="5.1905876398086548e-01" nType="1"/>
                  <Node pos="r" depth="6" NCoef="0" IVar="-1" Cut="0.0000000000000000e+00" cType="1" res="-9.9000000000000000e+01" rms="0.0000000000000000e+00" purity="4.6297979354858398e-01" nType="-1"/>
                </Node>
              </Node>
              <Node pos="r" depth="4" NCoef="0" IVar="4" Cut="5.6616413593292236e-01" cType="1" res="-9.9000000000000000e+01" rms="0.0000000000000000e+00" purity="4.7394907474517822e-01" nType="0">
                <Node pos="l" depth="5" NCoef="0" IVar="6" Cut="2.4771766364574432e-01" cType="1" res="-9.9000000000000000e+01" rms="0.0000000000000000e+00" purity="5.0891757011413574e-01" nType="0">
                  <Node pos="l" depth="6" NCoef="0" IVar="-1" Cut="0.0000000000000000e+00" cType="1" res="-9.9000000000000000e+01" rms="0.0000000000000000e+00" purity="5.4657661914825439e-01" nType="1"/>
                  <Node pos="r" depth="6" NCoef="0" IVar="-1" Cut="0.0000000000000000e+00" cType="1" res="-9.9000000000000000e+01" rms="0.0000000000000000e+00" purity="4.7681248188018799e-01" nType="-1"/>
                </Node>
                <Node pos="r" depth="5" NCoef="0" IVar="-1" Cut="0.0000000000000000e+00" cType="1" res="-9.9000000000000000e+01" rms="0.0000000000000000e+00" purity="4.2320919036865234e-01" nType="-1"/>
              </Node>
            </Node>
            <Node pos="r" depth="3" NCoef="0" IVar="-1" Cut="4.5000000000000000e+00" cType="1" res="-9.9000000000000000e+01" rms="0.0000000000000000e+00" purity="4.3916943669319153e-01" nType="-1"/>
          </Node>
        </Node>
        <Node pos="r" depth="1" NCoef="0" IVar="7" Cut="2.0382200181484222e-01" cType="1" res="-9.9000000000000000e+01" rms="0.0000000000000000e+00" purity="4.6304172277450562e-01" nType="0">
          <Node pos="l" depth="2" NCoef="0" IVar="7" Cut="1.2918403744697571e-01" cType="0" res="-9.9000000000000000e+01" rms="0.0000000000000000e+00" purity="4.9166101217269897e-01" nType="0">
            <Node pos="l" depth="3" NCoef="0" IVar="-1" Cut="0.0000000000000000e+00" cType="1" res="-9.9000000000000000e+01" rms="0.0000000000000000e+00" purity="5.0823390483856201e-01" nType="1"/>
            <Node pos="r" depth="3" NCoef="0" IVar="-1" Cut="0.0000000000000000e+00" cType="1" res="-9.9000000000000000e+01" rms="0.0000000000000000e+00" purity="4.7220078110694885e-01" nType="-1"/>
          </Node>
          <Node pos="r" depth="2" NCoef="0" IVar="-1" Cut="4.3076925277709961e+00" cType="0" res="-9.9000000000000000e+01" rms="0.0000000000000000e+00" purity="4.3401151895523071e-01" nType="-1"/>
        </Node>
      </Node>
    </BinaryTree>
    <BinaryTree type="DecisionTree" boostWeight="8.4086994993444103e-02" itree="24">
      <Node pos="s" depth="0" NCoef="0" IVar="7" Cut="7.5947570800781250e-01" cType="1" res="-9.9000000000000000e+01" rms="0.0000000000000000e+00" purity="4.9522364139556885e-01" nType="0">
        <Node pos="l" depth="1" NCoef="0" IVar="7" Cut="9.4771049916744232e-02" cType="1" res="-9.9000000000000000e+01" rms="0.0000000000000000e+00" purity="4.9857044219970703e-01" nType="0">
          <Node pos="l" depth="2" NCoef="0" IVar="-1" Cut="0.0000000000000000e+00" cType="1" res="-9.9000000000000000e+01" rms="0.0000000000000000e+00" purity="5.4206913709640503e-01" nType="1"/>
          <Node pos="r" depth="2" NCoef="0" IVar="1" Cut="2.1306457519531250e+00" cType="0" res="-9.9000000000000000e+01" rms="0.0000000000000000e+00" purity="4.9211430549621582e-01" nType="0">
            <Node pos="l" depth="3" NCoef="0" IVar="-1" Cut="0.0000000000000000e+00" cType="1" res="-9.9000000000000000e+01" rms="0.0000000000000000e+00" purity="5.3789103031158447e-01" nType="1"/>
            <Node pos="r" depth="3" NCoef="0" IVar="0" Cut="5.4001533985137939e-01" cType="1" res="-9.9000000000000000e+01" rms="0.0000000000000000e+00" purity="4.8721876740455627e-01" nType="0">
              <Node pos="l" depth="4" NCoef="0" IVar="8" Cut="4.5000000000000000e+00" cType="1" res="-9.9000000000000000e+01" rms="0.0000000000000000e+00" purity="4.9534249305725098e-01" nType="0">
                <Node pos="l" depth="5" NCoef="0" IVar="1" Cut="6.8733680248260498e-01" cType="0" res="-9.9000000000000000e+01" rms="0.0000000000000000e+00" purity="5.0839018821716309e-01" nType="0">
                  <Node pos="l" depth="6" NCoef="0" IVar="2" Cut="9.0271025896072388e-01" cType="0" res="-9.9000000000000000e+01" rms="0.0000000000000000e+00" purity="5.1752161979675293e-01" nType="0">
                    <Node pos="l" depth="7" NCoef="0" IVar="-1" Cut="0.0000000000000000e+00" cType="1" res="-9.9000000000000000e+01" rms="0.0000000000000000e+00" purity="5.4617565870285034e-01" nType="1"/>
                    <Node pos="r" depth="7" NCoef="0" IVar="0" Cut="2.9401063919067383e-01" cType="1" res="-9.9000000000000000e+01" rms="0.0000000000000000e+00" purity="5.0718790292739868e-01" nType="0">
                      <Node pos="l" depth="8" NCoef="0" IVar="6" Cut="2.1109728515148163e-01" cType="0" res="-9.9000000000000000e+01" rms="0.0000000000000000e+00" purity="5.2085167169570923e-01" nType="0">
                        <Node pos="l" depth="9" NCoef="0" IVar="-1" Cut="0.0000000000000000e+00" cType="1" res="-9.9000000000000000e+01" rms="0.0000000000000000e+00" purity="5.3781700134277344e-01" nType="1"/>
                        <Node pos="r" depth="9" NCoef="0" IVar="-1" Cut="0.0000000000000000e+00" cType="1" res="-9.9000000000000000e+01" rms="0.0000000000000000e+00" purity="4.8495751619338989e-01" nType="-1"/>
                      </Node>
                      <Node pos="r" depth="8" NCoef="0" IVar="-1" Cut="0.0000000000000000e+00" cType="1" res="-9.9000000000000000e+01" rms="0.0000000000000000e+00" purity="4.5021796226501465e-01" nType="-1"/>
                    </Node>
                  </Node>
                  <Node pos="r" depth="6" NCoef="0" IVar="-1" Cut="0.0000000000000000e+00" cType="1" res="-9.9000000000000000e+01" rms="0.0000000000000000e+00" purity="4.4135335087776184e-01" nType="-1"/>
                </Node>
                <Node pos="r" depth="5" NCoef="0" IVar="-1" Cut="5.9355503320693970e-01" cType="1" res="-9.9000000000000000e+01" rms="0.0000000000000000e+00" purity="4.6694543957710266e-01" nType="-1"/>
              </Node>
              <Node pos="r" depth="4" NCoef="0" IVar="-1" Cut="3.3846154212951660e+00" cType="0" res="-9.9000000000000000e+01" rms="0.0000000000000000e+00" purity="4.4324344396591187e-01" nType="-1"/>
            </Node>
          </Node>
        </Node>
        <Node pos="r" depth="1" NCoef="0" IVar="-1" Cut="0.0000000000000000e+00" cType="1" res="-9.9000000000000000e+01" rms="0.0000000000000000e+00" purity="4.3518361449241638e-01" nType="-1"/>
      </Node>
    </BinaryTree>
    <BinaryTree type="DecisionTree" boostWeight="7.8915190756594811e-02" itree="25">
      <Node pos="s" depth="0" NCoef="0" IVar="2" Cut="3.8411492109298706e-01" cType="0" res="-9.9000000000000000e+01" rms="0.0000000000000000e+00" purity="4.9709227681159973e-01" nType="0">
        <Node pos="l" depth="1" NCoef="0" IVar="6" Cut="6.9861388206481934e-01" cType="1" res="-9.9000000000000000e+01" rms="0.0000000000000000e+00" purity="5.0286132097244263e-01" nType="0">
          <Node pos="l" depth="2" NCoef="0" IVar="4" Cut="5.7617747783660889e-01" cType="1" res="-9.9000000000000000e+01" rms="0.0000000000000000e+00" purity="5.1037728786468506e-01" nType="0">
            <Node pos="l" depth="3" NCoef="0" IVar="0" Cut="3.6463645100593567e-01" cType="1" res="-9.9000000000000000e+01" rms="0.0000000000000000e+00" purity="5.2524614334106445e-01" nType="0">
              <Node pos="l" depth="4" NCoef="0" IVar="-1" Cut="3.1538462638854980e+00" cType="1" res="-9.9000000000000000e+01" rms="0.0000000000000000e+00" purity="5.4409211874008179e-01" nType="1"/>
              <Node pos="r" depth="4" NCoef="0" IVar="6" Cut="3.8616079092025757e-01" cType="0" res="-9.9000000000000000e+01" rms="0.0000000000000000e+00" purity="5.0545620918273926e-01" nType="0">
                <Node pos="l" depth="5" NCoef="0" IVar="-1" Cut="0.0000000000000000e+00" cType="1" res="-9.9000000000000000e+01" rms="0.0000000000000000e+00" purity="5.8756023645401001e-01" nType="1"/>
                <Node pos="r" depth="5" NCoef="0" IVar="8" Cut="3.5000000000000000e+00" cType="0" res="-9.9000000000000000e+01" rms="0.0000000000000000e+00" purity="4.8059418797492981e-01" nType="0">
                  <Node pos="l" depth="6" NCoef="0" IVar="-1" Cut="1.0568925142288208e+00" cType="1" res="-9.9000000000000000e+01" rms="0.0000000000000000e+00" purity="5.1450061798095703e-01" nType="1"/>
                  <Node pos="r" depth="6" NCoef="0" IVar="-1" Cut="0.0000000000000000e+00" cType="1" res="-9.9000000000000000e+01" rms="0.0000000000000000e+00" purity="4.2612078785896301e-01" nType="-1"/>
                </Node>
              </Node>
            </Node>
            <Node pos="r" depth="3" NCoef="0" IVar="4" Cut="7.3888814449310303e-01" cType="0" res="-9.9000000000000000e+01" rms="0.0000000000000000e+00" purity="4.7440242767333984e-01" nType="0">
              <Node pos="l" depth="4" NCoef="0" IVar="-1" Cut="0.0000000000000000e+00" cType="1" res="-9.9000000000000000e+01" rms="0.0000000000000000e+00" purity="5.1615053415298462e-01" nType="1"/>
              <Node pos="r" depth="4" NCoef="0" IVar="-1" Cut="0.0000000000000000e+00" cType="1" res="-9.9000000000000000e+01" rms="0.0000000000000000e+00" purity="3.9475074410438538e-01" nType="-1"/>
            </Node>
          </Node>
          <Node pos="r" depth="2" NCoef="0" IVar="-1" Cut="0.0000000000000000e+00" cType="1" res="-9.9000000000000000e+01" rms="0.0000000000000000e+00" purity="4.7357094287872314e-01" nType="-1"/>
        </Node>
        <Node pos="r" depth="1" NCoef="0" IVar="-1" Cut="0.0000000000000000e+00" cType="1" res="-9.9000000000000000e+01" rms="0.0000000000000000e+00" purity="4.7330760955810547e-01" nType="-1"/>
      </Node>
    </BinaryTree>
    <BinaryTree type="DecisionTree" boostWeight="6.3253950364633230e-02" itree="26">
      <Node pos="s" depth="0" NCoef="0" IVar="6" Cut="8.8675165176391602e-01" cType="0" res="-9.9000000000000000e+01" rms="0.0000000000000000e+00" purity="4.9664992094039917e-01" nType="0">
        <Node pos="l" depth="1" NCoef="0" IVar="-1" Cut="0.0000000000000000e+00" cType="1" res="-9.9000000000000000e+01" rms="0.0000000000000000e+00" purity="5.4995852708816528e-01" nType="1"/>
        <Node pos="r" depth="1" NCoef="0" IVar="2" Cut="2.0327146053314209e+00" cType="0" res="-9.9000000000000000e+01" rms="0.0000000000000000e+00" purity="4.9041384458541870e-01" nType="0">
          <Node pos="l" depth="2" NCoef="0" IVar="-1" Cut="0.0000000000000000e+00" cType="1" res="-9.9000000000000000e+01" rms="0.0000000000000000e+00" purity="5.4033017158508301e-01" nType="1"/>
          <Node pos="r" depth="2" NCoef="0" IVar="8" Cut="2.5000000000000000e+00" cType="0" res="-9.9000000000000000e+01" rms="0.0000000000000000e+00" purity="4.8741877079010010e-01" nType="0">
            <Node pos="l" depth="3" NCoef="0" IVar="2" Cut="4.0524902939796448e-01" cType="0" res="-9.9000000000000000e+01" rms="0.0000000000000000e+00" purity="4.9156242609024048e-01" nType="0">
              <Node pos="l" depth="4" NCoef="0" IVar="3" Cut="9.1282367706298828e-02" cType="1" res="-9.9000000000000000e+01" rms="0.0000000000000000e+00" purity="4.9728581309318542e-01" nType="0">
                <Node pos="l" depth="5" NCoef="0" IVar="9" Cut="5.5736428499221802e-01" cType="1" res="-9.9000000000000000e+01" rms="0.0000000000000000e+00" purity="5.1284837722778320e-01" nType="0">
                  <Node pos="l" depth="6" NCoef="0" IVar="-1" Cut="3.6444759368896484e-01" cType="1" res="-9.9000000000000000e+01" rms="0.0000000000000000e+00" purity="5.3431475162506104e-01" nType="1"/>
                  <Node pos="r" depth="6" NCoef="0" IVar="2" Cut="7.1821475028991699e-01" cType="0" res="-9.9000000000000000e+01" rms="0.0000000000000000e+00" purity="4.9445980787277222e-01" nType="0">
                    <Node pos="l" depth="7" NCoef="0" IVar="-1" Cut="0.0000000000000000e+00" cType="1" res="-9.9000000000000000e+01" rms="0.0000000000000000e+00" purity="5.0853216648101807e-01" nType="1"/>
                    <Node pos="r" depth="7" NCoef="0" IVar="-1" Cut="0.0000000000000000e+00" cType="1" res="-9.9000000000000000e+01" rms="0.0000000000000000e+00" purity="4.8279657959938049e-01" nType="-1"/>
                  </Node>
                </Node>
                <Node pos="r" depth="5" NCoef="0" IVar="1" Cut="1.3809527158737183e+00" cType="0" res="-9.9000000000000000e+01" rms="0.0000000000000000e+00" purity="4.8219484090805054e-01" nType="0">
                  <Node pos="l" depth="6" NCoef="0" IVar="0" Cut="7.4646329879760742e-01" cType="1" res="-9.9000000000000000e+01" rms="0.0000000000000000e+00" purity="5.0630873441696167e-01" nType="0">
